{"l_brains":[{"i_score":41,"l_input2HiddenLayerWeights":[-1.2349374294281006,3.807727575302124,1.7766458988189698,-1.5885272026062012,-0.563949704170227,3.899264335632324,2.985562324523926,3.6172335147857668,-4.507008075714111,2.8515067100524904,4.735642433166504,-0.4554954469203949,4.071693420410156,2.394151210784912,-0.5227541923522949,-3.0531539916992189,0.4381575584411621,4.4283013343811039,5.0,-2.6223018169403078,-3.3707211017608644,3.694662094116211,1.750885248184204,-1.0688235759735108,-1.1250157356262208,-3.2022478580474855,-1.4888944625854493,0.2953321933746338,-2.3698015213012697,2.071000099182129,0.20350012183189393,4.545612335205078,-4.924010276794434,0.6131143569946289,-2.1820874214172365,0.4666862487792969,-0.6003649830818176,1.7493667602539063,0.37961018085479739,5.0,-4.054066181182861,0.2685195505619049,-0.9783502817153931,-0.41753441095352175,4.695004463195801,-1.7193913459777833,4.95443058013916,-3.741596221923828,-1.0681219100952149,-0.8587292432785034,-0.4704841673374176,-0.2462608814239502,-0.07721242308616638,-3.2096686363220217,-0.03957521915435791,2.6609504222869875,-3.122971534729004,2.361487627029419,4.169240474700928,3.5357320308685304,-3.86057186126709,-0.2644650638103485,-1.7281278371810914,1.9910714626312256,-0.775496244430542,-2.822444200515747,2.443737268447876,-1.0501333475112916,-1.232098937034607,-4.89500617980957,2.4222970008850099,-1.4860361814498902,-3.8903987407684328,3.136045455932617,-4.498964309692383,5.0,-0.4353228807449341,-0.09236359596252442,1.454330563545227,0.4225524067878723,-5.0,-3.456723928451538,3.2115683555603029,0.616660475730896,0.09181621670722962,-4.119235038757324,2.9099535942077638,-2.929013729095459,-1.0784913301467896,-1.5318377017974854,1.372060775756836,2.145691394805908,3.579028844833374,2.8204054832458498,-1.5584672689437867,3.910996675491333,-3.9403910636901857,-1.0787463188171387,5.0,2.46466326713562,-0.5873311758041382,1.8138833045959473,-0.3683781921863556,-2.6861863136291506,2.062364101409912,-4.702713489532471,3.828677177429199,-1.2573732137680054,4.026083946228027,2.6763477325439455,3.7740917205810549,-0.20124322175979615,-3.585258722305298,-2.07313871383667,-0.6844568252563477,-3.320375442504883,-2.7838997840881349,0.3170246183872223,-0.9227311611175537,0.49368274211883547,1.7732759714126588],"l_hidden2OutputLayerWeights":[-5.0,-2.561042308807373,-2.3553175926208498,3.1791207790374758,2.7596957683563234,4.3492326736450199,1.5291603803634644,3.7322208881378176,-1.6632013320922852,0.5583523511886597,1.2293789386749268,2.6219449043273927,-0.610554575920105,3.964095115661621,-3.413057804107666,3.89249587059021,2.9537124633789064,-2.901522159576416,-2.645659923553467,-2.0737624168395998,-1.9550905227661133,-2.661421060562134],"l_hiddenLayersNeuronsBias":[0.0,0.0,0.0,0.0,0.0,0.0,0.0,0.0,0.0,0.0,0.0]},{"i_score":39,"l_input2HiddenLayerWeights":[-0.937739372253418,4.330456733703613,0.7364987134933472,-1.3681702613830567,-0.060428082942962649,2.744567394256592,3.0646817684173586,2.978609561920166,-5.0,2.9634909629821779,5.0,0.05035167932510376,2.9101133346557619,1.832213044166565,-0.2555105984210968,-2.5050759315490724,0.04624924063682556,4.894281387329102,5.0,-0.9581133127212524,-4.194728851318359,3.6350085735321047,1.0559024810791016,1.0810683965682984,-2.298588752746582,-4.070600509643555,-1.3119392395019532,-0.48373010754585268,-1.482125163078308,1.2087795734405518,-0.8081105947494507,4.218905448913574,-4.818782806396484,1.7682738304138184,-2.843618154525757,0.18997323513031007,-0.012780845165252686,2.337684392929077,0.5342775583267212,4.283542156219482,-4.804876327514648,-0.6825563311576843,0.09348216652870178,-1.0535919666290284,4.946690082550049,-2.906519889831543,4.570119380950928,-3.893247604370117,-1.0651824474334717,-0.0018289685249328614,-0.34107884764671328,0.7808782458305359,0.06641647219657898,-3.6767406463623049,-0.16174298524856568,3.083414316177368,-2.356665849685669,2.5141711235046388,4.098966598510742,4.893059730529785,-2.7167141437530519,-0.04988068342208862,-2.70890212059021,2.3633265495300295,-1.4692131280899048,-3.26242733001709,3.016796112060547,1.36979079246521,-2.051082134246826,-5.0,2.6296401023864748,-2.533768892288208,-3.9934000968933107,2.8298048973083498,-3.0700621604919435,5.0,-0.821110725402832,-0.3835190534591675,2.789778232574463,0.6090759038925171,-4.759701728820801,-4.2461724281311039,1.987014651298523,0.8784546852111816,-1.4439743757247925,-3.9139392375946047,2.87381911277771,-2.4350924491882326,-0.6891465783119202,-2.4819440841674806,0.8179364204406738,1.3452786207199097,3.8141732215881349,2.7867393493652345,-1.6292543411254883,2.9249727725982668,-5.0,0.04435119032859802,5.0,2.784226655960083,-1.032758355140686,2.166625738143921,-3.0734357833862306,-2.485053300857544,3.490595817565918,-4.629912853240967,4.321128845214844,-1.2474915981292725,4.295840263366699,1.45253324508667,3.411104202270508,1.4140686988830567,-3.1974306106567385,-3.444260358810425,-0.043027251958847049,-2.8695175647735597,-0.9908612966537476,1.0017192363739014,-1.2964180707931519,0.11660507321357727,0.9428461790084839],"l_hidden2OutputLayerWeights":[-4.216057777404785,-2.3961777687072756,-2.4156434535980226,1.5602048635482789,1.7666723728179932,5.0,1.9142547845840455,1.3274632692337037,-2.0132222175598146,2.02362060546875,1.7266490459442139,1.7474687099456788,-0.47876620292663576,4.911993503570557,-3.270369529724121,3.797435760498047,2.3854904174804689,-3.150813102722168,-3.061169147491455,-2.356973648071289,-1.8488476276397706,4.860406875610352],"l_hiddenLayersNeuronsBias":[0.0,0.0,0.0,0.0,0.0,0.0,0.0,0.0,0.0,0.0,0.0]},{"i_score":39,"l_input2HiddenLayerWeights":[-0.8141608238220215,3.888545513153076,1.6509572267532349,-1.6380757093429566,-0.9734412431716919,4.899051189422607,2.027068614959717,2.873368740081787,-4.584224224090576,3.2413086891174318,4.845855712890625,1.8624147176742554,1.574752688407898,2.1747255325317385,0.5630652904510498,-3.1774213314056398,1.0490882396697999,3.92140531539917,4.159262657165527,-2.2725439071655275,-2.1960010528564455,2.4924581050872804,2.44648814201355,-0.16327622532844544,-0.19945263862609864,-4.516436576843262,-1.750012993812561,1.4232944250106812,-1.5885765552520753,1.9443433284759522,-0.9725600481033325,4.0170817375183109,-4.233245849609375,2.456759452819824,-3.3059070110321047,0.4346933364868164,-0.24008026719093324,2.4335200786590578,-0.10511243343353272,4.506279945373535,-3.8509678840637209,-0.7911602258682251,-1.739411473274231,0.12700627744197846,4.150437831878662,-1.2301957607269288,5.0,-4.138625621795654,-1.1492242813110352,0.16368639469146729,0.3219432830810547,-0.9326262474060059,-1.419073462486267,-2.3547747135162355,-0.5327448844909668,2.186767101287842,-2.9914591312408449,2.2781271934509279,5.0,4.716832160949707,-3.6611831188201906,-0.28508853912353518,-2.6864843368530275,0.6417808532714844,-2.92474365234375,-4.470740795135498,2.608039379119873,0.042242228984832767,-1.1400803327560425,-4.159366130828857,1.5638866424560547,-1.1200709342956544,-2.961247444152832,3.8922786712646486,-3.5157785415649416,2.4989960193634035,0.10867714881896973,-0.08085763454437256,1.188917636871338,0.09468710422515869,-4.723626136779785,-4.283012866973877,3.3810126781463625,3.5204482078552248,-0.7574878931045532,-3.4022157192230226,2.691847324371338,-2.909273147583008,-0.7777354717254639,-2.0648484230041506,2.3133864402770998,0.2909938097000122,3.1658616065979006,3.057903289794922,-1.1969845294952393,3.662476062774658,-5.0,-1.2563142776489258,4.865361213684082,3.9951744079589845,-2.186065912246704,3.133239984512329,-3.1517834663391115,-3.1856689453125,4.323051452636719,-5.0,5.0,-0.6495037078857422,4.2715654373168949,2.5641794204711916,4.6710615158081059,1.5776344537734986,-4.438258647918701,-2.819794178009033,-2.0092508792877199,-4.465572357177734,-1.5585929155349732,1.021054744720459,-1.0854918956756592,0.5313849449157715,2.446443796157837],"l_hidden2OutputLayerWeights":[-4.249143600463867,-3.008162021636963,-0.16720935702323914,2.5577502250671388,-3.9477267265319826,4.260408878326416,1.2870333194732667,3.6444501876831056,-2.7183914184570314,2.236154317855835,1.647162914276123,1.5358668565750123,0.7770683765411377,3.938361644744873,-3.1513173580169679,3.6187915802001955,2.6722464561462404,-2.833324432373047,-2.558732032775879,-2.4689483642578127,-1.5463472604751588,-2.7227606773376467],"l_hiddenLayersNeuronsBias":[0.0,0.0,0.0,0.0,0.0,0.0,0.0,0.0,0.0,0.0,0.0]},{"i_score":39,"l_input2HiddenLayerWeights":[-0.937739372253418,4.330456733703613,0.7364987134933472,-1.3681702613830567,-0.060428082942962649,2.744567394256592,3.0646817684173586,2.978609561920166,-5.0,2.9634909629821779,5.0,0.05035167932510376,2.9101133346557619,1.832213044166565,-0.2555105984210968,-2.5050759315490724,0.04624924063682556,4.894281387329102,5.0,-0.9581133127212524,-4.194728851318359,3.6350085735321047,1.0559024810791016,1.0810683965682984,-2.298588752746582,-4.070600509643555,-1.3119392395019532,-0.48373010754585268,-1.482125163078308,1.2087795734405518,-0.8081105947494507,4.218905448913574,-4.818782806396484,1.7682738304138184,-2.843618154525757,0.18997323513031007,-0.012780845165252686,2.337684392929077,0.5342775583267212,4.283542156219482,-4.804876327514648,-0.6825563311576843,0.09348216652870178,-1.0535919666290284,4.946690082550049,-2.906519889831543,4.570119380950928,-3.893247604370117,-1.0651824474334717,-0.0018289685249328614,-0.34107884764671328,0.7808782458305359,0.06641647219657898,-3.6767406463623049,-0.16174298524856568,3.083414316177368,-2.356665849685669,2.5141711235046388,4.098966598510742,4.893059730529785,-2.7167141437530519,-0.04988068342208862,-2.70890212059021,2.3633265495300295,-1.4692131280899048,-3.26242733001709,3.016796112060547,1.36979079246521,-2.051082134246826,-5.0,2.6296401023864748,-2.533768892288208,-3.9934000968933107,2.8298048973083498,-3.0700621604919435,5.0,-0.821110725402832,-0.3835190534591675,2.789778232574463,0.6090759038925171,-4.759701728820801,-4.2461724281311039,1.987014651298523,0.8784546852111816,-1.4439743757247925,-3.9139392375946047,2.87381911277771,-2.4350924491882326,-0.6891465783119202,-2.4819440841674806,0.8179364204406738,1.3452786207199097,3.8141732215881349,2.7867393493652345,-1.6292543411254883,2.9249727725982668,-5.0,0.04435119032859802,5.0,2.784226655960083,-1.032758355140686,2.166625738143921,-3.0734357833862306,-2.485053300857544,3.490595817565918,-4.629912853240967,4.321128845214844,-1.2474915981292725,4.295840263366699,1.45253324508667,3.411104202270508,1.4140686988830567,-3.1974306106567385,-3.444260358810425,-0.043027251958847049,-2.8695175647735597,-0.9908612966537476,1.0017192363739014,-1.2964180707931519,0.11660507321357727,0.9428461790084839],"l_hidden2OutputLayerWeights":[-4.216057777404785,-2.3961777687072756,-2.4156434535980226,1.5602048635482789,1.7666723728179932,5.0,1.9142547845840455,1.3274632692337037,-2.0132222175598146,2.02362060546875,1.7266490459442139,1.7474687099456788,-0.47876620292663576,4.911993503570557,-3.270369529724121,3.797435760498047,2.3854904174804689,-3.150813102722168,-3.061169147491455,-2.356973648071289,-1.8488476276397706,4.860406875610352],"l_hiddenLayersNeuronsBias":[0.0,0.0,0.0,0.0,0.0,0.0,0.0,0.0,0.0,0.0,0.0]},{"i_score":39,"l_input2HiddenLayerWeights":[-0.8141608238220215,3.888545513153076,1.6509572267532349,-1.6380757093429566,-0.9734412431716919,4.899051189422607,2.027068614959717,2.873368740081787,-4.584224224090576,3.2413086891174318,4.845855712890625,1.8624147176742554,1.574752688407898,2.1747255325317385,0.5630652904510498,-3.1774213314056398,1.0490882396697999,3.92140531539917,4.159262657165527,-2.2725439071655275,-2.1960010528564455,2.4924581050872804,2.44648814201355,-0.16327622532844544,-0.19945263862609864,-4.516436576843262,-1.750012993812561,1.4232944250106812,-1.5885765552520753,1.9443433284759522,-0.9725600481033325,4.0170817375183109,-4.233245849609375,2.456759452819824,-3.3059070110321047,0.4346933364868164,-0.24008026719093324,2.4335200786590578,-0.10511243343353272,4.506279945373535,-3.8509678840637209,-0.7911602258682251,-1.739411473274231,0.12700627744197846,4.150437831878662,-1.2301957607269288,5.0,-4.138625621795654,-1.1492242813110352,0.16368639469146729,0.3219432830810547,-0.9326262474060059,-1.419073462486267,-2.3547747135162355,-0.5327448844909668,2.186767101287842,-2.9914591312408449,2.2781271934509279,5.0,4.716832160949707,-3.6611831188201906,-0.28508853912353518,-2.6864843368530275,0.6417808532714844,-2.92474365234375,-4.470740795135498,2.608039379119873,0.042242228984832767,-1.1400803327560425,-4.159366130828857,1.5638866424560547,-1.1200709342956544,-2.961247444152832,3.8922786712646486,-3.5157785415649416,2.4989960193634035,0.10867714881896973,-0.08085763454437256,1.188917636871338,0.09468710422515869,-4.723626136779785,-4.283012866973877,3.3810126781463625,3.5204482078552248,-0.7574878931045532,-3.4022157192230226,2.691847324371338,-2.909273147583008,-0.7777354717254639,-2.0648484230041506,2.3133864402770998,0.2909938097000122,3.1658616065979006,3.057903289794922,-1.1969845294952393,3.662476062774658,-5.0,-1.2563142776489258,4.865361213684082,3.9951744079589845,-2.186065912246704,3.133239984512329,-3.1517834663391115,-3.1856689453125,4.323051452636719,-5.0,5.0,-0.6495037078857422,4.2715654373168949,2.5641794204711916,4.6710615158081059,1.5776344537734986,-4.438258647918701,-2.819794178009033,-2.0092508792877199,-4.465572357177734,-1.5585929155349732,1.021054744720459,-1.0854918956756592,0.5313849449157715,2.446443796157837],"l_hidden2OutputLayerWeights":[-4.249143600463867,-3.008162021636963,-0.16720935702323914,2.5577502250671388,-3.9477267265319826,4.260408878326416,1.2870333194732667,3.6444501876831056,-2.7183914184570314,2.236154317855835,1.647162914276123,1.5358668565750123,0.7770683765411377,3.938361644744873,-3.1513173580169679,3.6187915802001955,2.6722464561462404,-2.833324432373047,-2.558732032775879,-2.4689483642578127,-1.5463472604751588,-2.7227606773376467],"l_hiddenLayersNeuronsBias":[0.0,0.0,0.0,0.0,0.0,0.0,0.0,0.0,0.0,0.0,0.0]},{"i_score":37,"l_input2HiddenLayerWeights":[-0.7456926107406616,3.6216471195220949,2.5098884105682375,-1.555029034614563,-0.8008817434310913,3.5519583225250246,3.1040995121002199,4.989150047302246,-4.879556179046631,2.8233799934387209,4.625966548919678,-0.27691537141799929,1.5637352466583253,1.0151351690292359,0.8460431098937988,-2.7332262992858888,-0.11488977074623108,3.57878041267395,4.068696975708008,-1.216469645500183,-3.007338523864746,3.406151294708252,2.3012290000915529,-0.4727790653705597,-1.0056461095809937,-4.523900985717773,-2.236178398132324,0.7086484432220459,-2.9390347003936769,2.9299731254577638,0.38878244161605837,3.9122140407562258,-4.341903209686279,1.5877845287322999,-1.9504977464675904,-0.3400697708129883,0.3810044527053833,2.8509888648986818,-0.9370882511138916,4.793702602386475,-3.842899799346924,-1.1381943225860596,-2.7597527503967287,-0.15667369961738587,3.1921262741088869,-1.9197310209274293,5.0,-4.9759111404418949,-0.5166014432907105,0.38945484161376955,0.7045658826828003,0.04255950450897217,-1.9535303115844727,-1.8888236284255982,0.9106225967407227,2.5797312259674074,-3.1583096981048586,2.2566637992858888,4.382877349853516,4.63879919052124,-4.216572284698486,0.02818000316619873,-2.6491267681121828,1.370619773864746,-1.997137188911438,-3.7415060997009279,2.302689552307129,0.8018065690994263,-1.6987098455429078,-4.626642227172852,2.86468505859375,-1.4620848894119263,-3.229677677154541,3.1680586338043215,-3.8316783905029299,3.421339988708496,0.524436354637146,0.9961902499198914,1.6488755941390992,0.36643272638320925,-4.126493453979492,-3.15643572807312,2.7900447845458986,2.0330026149749758,-2.268951416015625,-1.4730473756790162,1.9613078832626343,-2.9262216091156008,0.43309539556503298,-3.1031649112701418,0.942511796951294,1.5391453504562379,2.506873369216919,2.4494094848632814,-1.2270736694335938,2.6727750301361086,-4.764927864074707,-0.031300246715545657,4.87986946105957,3.836801290512085,-0.8975825309753418,2.3666067123413088,-1.8949265480041505,-2.369708299636841,4.27888298034668,-4.547618389129639,3.9919753074645998,-0.9567815065383911,4.379665374755859,0.30526256561279299,4.299962043762207,0.33320656418800356,-5.0,-1.2071901559829713,-0.8317663669586182,-2.896310329437256,-1.2008310556411744,-0.1863791048526764,-0.6695510745048523,1.0817614793777466,1.9367986917495728],"l_hidden2OutputLayerWeights":[-4.608676910400391,-3.205597162246704,-0.8515865802764893,1.7056230306625367,-4.295760631561279,3.5459671020507814,2.735189437866211,1.9830288887023926,-0.7347878217697144,1.3790374994277955,2.1535794734954836,2.018054723739624,-0.1470976173877716,4.607882022857666,-3.348334550857544,4.540647506713867,2.403865337371826,-2.9530858993530275,-2.9497745037078859,-2.08711314201355,-1.571548581123352,-2.6043806076049806],"l_hiddenLayersNeuronsBias":[0.0,0.0,0.0,0.0,0.0,0.0,0.0,0.0,0.0,0.0,0.0]},{"i_score":32,"l_input2HiddenLayerWeights":[-0.43158602714538576,3.3329215049743654,1.4877345561981202,-2.607950210571289,-0.5256557464599609,4.4415717124938969,1.5292832851409913,2.8564741611480715,-4.830883502960205,3.482724666595459,5.0,1.1737133264541627,1.9459736347198487,0.9537169933319092,1.298042893409729,-3.356433153152466,0.9819700717926025,4.508872032165527,0.6696014404296875,-2.1505789756774904,-3.6145238876342775,4.027705669403076,2.045667886734009,-0.6852880716323853,-0.4204954504966736,-4.424147129058838,-0.6314550638198853,0.5384765863418579,-1.465674638748169,2.655431032180786,-0.5056809186935425,3.67673397064209,-4.278902053833008,1.3290194272994996,-3.315293073654175,0.8073407411575317,-0.36071956157684328,2.5143260955810549,-0.6852535009384155,4.976117134094238,-5.0,-0.24931910634040833,-1.884657621383667,-0.22172167897224427,4.152310371398926,-1.708580732345581,5.0,-3.4187707901000978,-2.1372079849243166,0.5144748687744141,0.3828701972961426,-1.0057635307312012,-1.8365247249603272,-3.3681256771087648,-0.014263510704040528,2.8497838973999025,-3.822636365890503,2.7188780307769777,4.368951320648193,4.9143500328063969,-3.5365560054779054,0.35265567898750307,-1.9214359521865845,0.3976895213127136,-2.042858123779297,-4.311095714569092,4.173357009887695,0.6375268697738648,-1.6649839878082276,-4.677535057067871,2.539322853088379,-1.8968970775604249,-2.674081802368164,3.7868423461914064,-3.222660779953003,3.7284111976623537,-1.3550660610198975,-0.19349771738052369,2.52890682220459,-0.44658565521240237,-4.712227821350098,-3.1795825958251955,2.8899600505828859,2.3001437187194826,-0.28853610157966616,-2.8566956520080568,-3.8567392826080324,-2.6228322982788088,-0.5843824148178101,-2.209639310836792,-0.11023256182670593,0.5652201175689697,3.3453445434570314,3.0306408405303957,-1.0449432134628297,3.620729446411133,-4.305658340454102,-1.1978397369384766,4.292550086975098,3.600419759750366,-0.6100156307220459,2.414243221282959,-1.7149393558502198,-2.7111363410949709,4.405527114868164,-4.401297092437744,3.871838092803955,-0.8138329982757568,4.314136505126953,1.4916274547576905,4.544405937194824,0.3113360106945038,-2.1467370986938478,-2.6273977756500246,-0.30871841311454775,-2.345421075820923,-0.7966223955154419,0.6862046718597412,-1.1996328830718995,0.5959723591804504,2.346661329269409],"l_hidden2OutputLayerWeights":[-4.365973472595215,-2.8351657390594484,-0.8781530857086182,0.9979259967803955,-5.0,4.476616382598877,1.1692631244659424,2.8988795280456545,-2.6545908451080324,2.1060237884521486,1.7250200510025025,2.4910712242126467,-0.22567138075828553,4.388646125793457,-3.4455606937408449,4.593452453613281,2.3385045528411867,-3.18211030960083,-2.6783268451690676,-1.6778837442398072,-1.716614007949829,-2.882441282272339],"l_hiddenLayersNeuronsBias":[0.0,0.0,0.0,0.0,0.0,0.0,0.0,0.0,0.0,0.0,0.0]},{"i_score":31,"l_input2HiddenLayerWeights":[-1.524872064590454,3.4631056785583498,2.371443748474121,-1.2450438737869263,0.06484392285346985,4.481649875640869,2.489697217941284,1.856124997138977,-4.11955451965332,-2.046417713165283,5.0,0.08683401346206665,2.33091139793396,2.0790634155273439,0.2177138328552246,-3.8524301052093508,0.7440083026885986,5.0,5.0,-0.9015549421310425,-3.0970680713653566,3.190674304962158,1.9386385679244996,0.44189712405204775,0.06607183814048767,-4.779225826263428,-0.8690780401229858,0.5551743507385254,-1.0404603481292725,2.2082486152648927,0.06930765509605408,4.585357189178467,-3.8566675186157228,1.2356946468353272,-3.362420082092285,1.4778385162353516,-1.2170194387435914,3.200073719024658,0.2541486918926239,4.549208164215088,-4.522948265075684,-0.5323963165283203,-1.6190001964569092,-3.0833959579467775,5.0,-4.060849189758301,4.879373073577881,-5.0,-0.3367425203323364,0.48609495162963869,-0.5813968777656555,-0.46162962913513186,-1.8283116817474366,-3.413518190383911,-0.6407338380813599,2.143503189086914,-4.0019755363464359,2.5980732440948488,4.960329532623291,4.571627140045166,-4.0466132164001469,-0.09079760313034058,-3.414212226867676,0.9727431535720825,-0.5137642621994019,-5.0,2.381333827972412,1.205592393875122,-1.8407624959945679,-4.121612071990967,3.0183334350585939,-1.3020457029342652,-2.2014224529266359,3.5870280265808107,-4.073674201965332,2.9162240028381349,0.4886949062347412,-0.007012814283370972,2.4529080390930177,-0.7262836694717407,-4.999561309814453,-3.389650821685791,2.5289130210876467,1.4080791473388672,-1.2564520835876465,-3.6144745349884035,2.5444228649139406,-1.8953694105148316,0.1208769902586937,-1.5161243677139283,-0.1260128915309906,1.6686750650405884,2.1183950901031496,3.0354788303375246,-0.5539341568946838,3.0562591552734377,-4.737212657928467,-2.017920970916748,3.9501047134399416,3.0328454971313478,-0.1113896369934082,2.681058168411255,-2.0768299102783205,-2.2508273124694826,2.8368642330169679,-4.680588722229004,4.403038501739502,-0.9591891765594482,4.337738513946533,1.2687591314315797,3.231905460357666,0.7610641717910767,-2.48946475982666,-3.004211902618408,-0.9687918424606323,-1.480216383934021,-1.788607120513916,1.1793957948684693,-0.17202723026275636,0.2380208969116211,2.708832263946533],"l_hidden2OutputLayerWeights":[-3.9229896068573,-2.782531976699829,-1.7795604467391968,1.928144931793213,-4.235086917877197,4.662378787994385,-0.08187535405158997,1.223434329032898,-1.8596608638763428,0.752890944480896,1.4109268188476563,2.5830769538879396,-0.4852311611175537,4.083468914031982,-3.042646884918213,3.9543490409851076,2.9272828102111818,-3.4781672954559328,-1.9646629095077515,-2.227363109588623,-2.772679328918457,-3.116128921508789],"l_hiddenLayersNeuronsBias":[0.0,0.0,0.0,0.0,0.0,0.0,0.0,0.0,0.0,0.0,0.0]},{"i_score":29,"l_input2HiddenLayerWeights":[0.6943202614784241,2.585681438446045,2.117145538330078,-1.47642982006073,0.49863481521606448,3.778674840927124,2.6600399017333986,3.402489185333252,-5.0,3.7023797035217287,5.0,0.2985478937625885,2.41353178024292,1.7853437662124634,-0.5232734680175781,-1.582495093345642,0.16714155673980714,4.219099998474121,3.783005952835083,-1.617875337600708,-3.3531129360198976,3.4215891361236574,1.9004383087158204,-0.18734586238861085,0.40837332606315615,-3.6680822372436525,-0.013177305459976197,0.804645836353302,-1.5298811197280884,2.290597677230835,0.42537081241607668,1.8761811256408692,-4.647386074066162,1.6030378341674805,-2.8730905055999758,0.18505865335464478,-0.6903042793273926,2.1269075870513918,-0.3492316007614136,4.51479959487915,-4.0194268226623539,-0.03801587224006653,-0.5901192426681519,-0.2065090537071228,4.954054355621338,-1.6029983758926392,3.2652342319488527,-4.13120174407959,-0.6096293926239014,0.21014511585235597,-0.15949639678001405,-0.45355069637298586,-1.1141703128814698,-2.4828290939331056,0.019986003637313844,3.5857410430908205,-3.714522123336792,1.570664405822754,5.0,4.340555667877197,-3.857147455215454,-0.0783889889717102,-3.5383460521698,0.07231182605028153,-1.6873141527175904,-3.5367228984832765,3.9223437309265138,0.34758260846138,-1.0947397947311402,-4.968213081359863,2.065274477005005,1.323008418083191,-3.5533199310302736,4.332853317260742,-3.3541324138641359,3.6989893913269045,-0.8879154920578003,0.989560067653656,2.4307191371917726,0.49760711193084719,-4.456430435180664,-2.3609726428985597,2.620335817337036,3.260664463043213,-1.214848518371582,-4.27065372467041,2.5071041584014894,-2.622377395629883,-1.1167211532592774,-1.9605610370635987,0.8558958172798157,0.7619220018386841,1.77778959274292,2.722012758255005,-0.7224847078323364,4.2645745277404789,-5.0,-0.6865177154541016,4.10687255859375,3.916034698486328,-0.4012858271598816,3.1976943016052248,-1.9848018884658814,-3.1137564182281496,2.6636319160461427,-5.0,5.0,-1.2073535919189454,4.9144697189331059,2.4322593212127687,3.984924793243408,-0.16727975010871888,-5.0,-1.8564378023147584,-0.47717511653900149,-2.0097806453704836,-1.5881365537643433,0.3290242552757263,-1.7492457628250123,0.5961872339248657,2.1507062911987306],"l_hidden2OutputLayerWeights":[-4.507844924926758,-2.1050946712493898,-1.3458398580551148,3.0010886192321779,-5.0,4.277530670166016,1.3604850769042969,2.494478702545166,-1.7404851913452149,1.2638604640960694,-1.5781441926956177,2.1646249294281008,0.3424545228481293,4.670255661010742,-3.420849561691284,3.4518396854400636,1.9034836292266846,-3.248603343963623,-3.2726690769195558,-2.452828884124756,-1.8138673305511475,-2.8252487182617189],"l_hiddenLayersNeuronsBias":[0.0,0.0,0.0,0.0,0.0,0.0,0.0,0.0,0.0,0.0,0.0]},{"i_score":27,"l_input2HiddenLayerWeights":[-0.9195780754089356,4.464953422546387,1.9575588703155518,-1.6278022527694703,0.010595560073852539,5.0,3.555030584335327,1.3141368627548218,-4.9965291023254398,3.0690412521362306,5.0,-0.22381195425987245,2.6515746116638185,1.6986329555511475,0.0012758970260620118,-2.199004650115967,0.3678620755672455,4.690375328063965,5.0,-1.3689162731170655,-3.7511134147644045,4.198229789733887,2.1498215198516847,0.8356246948242188,-0.13863980770111085,-4.421624660491943,-1.247895359992981,-0.063498854637146,-1.7231178283691407,3.33660888671875,-0.3645264208316803,4.116188049316406,-3.8160195350646974,1.2849655151367188,-2.406336784362793,0.2693195939064026,-0.27295494079589846,2.7103652954101564,0.8799642324447632,4.622374057769775,-3.519946813583374,-0.578789234161377,-1.2090508937835694,-0.5264686346054077,4.287598133087158,-4.604641914367676,4.198346138000488,-4.005827903747559,-1.5357825756072999,0.5142886638641357,0.8545637726783752,0.5459145903587341,-0.6843541860580444,-3.482542037963867,0.6700435876846314,2.882026433944702,-4.9001288414001469,2.073812246322632,4.620222568511963,3.944298505783081,-3.2583775520324709,0.16177713871002198,-2.8093435764312746,0.6936212778091431,-1.2469422817230225,-4.804196357727051,3.0326552391052248,0.6310980319976807,-2.052774429321289,-4.635911464691162,2.9784867763519289,-2.2227659225463869,-2.9338440895080568,3.4132823944091799,-3.2462143898010256,5.0,0.32219505310058596,0.4042370915412903,3.4198381900787355,0.8187882900238037,-4.501965522766113,-2.5472679138183595,2.486670970916748,0.7021496295928955,-0.6199272871017456,-3.5440587997436525,3.309098482131958,-3.4014534950256349,-1.184852123260498,-2.750796318054199,0.5337089896202087,0.8259499669075012,1.8916107416152955,2.9694056510925295,-1.5338335037231446,3.457592248916626,-3.1886749267578127,1.1831117868423463,5.0,3.89038348197937,-0.5666622519493103,1.849478006362915,-1.5499502420425416,-2.1317203044891359,3.087301731109619,-4.793468475341797,3.8192238807678224,-1.6259689331054688,5.0,-0.3508628010749817,3.390535831451416,0.7537518739700317,-3.5545530319213869,-3.7955374717712404,-0.3593390882015228,-1.22348952293396,-1.123598575592041,1.484682321548462,-0.7777959108352661,0.5424145460128784,2.127624273300171],"l_hidden2OutputLayerWeights":[-3.8004846572875978,-2.0633628368377687,-1.7227073907852173,3.0925559997558595,-4.56988525390625,4.977176666259766,1.718767523765564,3.213839054107666,-1.735131025314331,1.9861798286437989,4.826397895812988,1.2150334119796754,-0.29614925384521487,3.955721378326416,-2.584221839904785,3.7768144607543947,2.3496437072753908,-3.1428701877593996,-2.8723220825195314,-1.9429155588150025,-1.5988540649414063,3.4366374015808107],"l_hiddenLayersNeuronsBias":[0.0,0.0,0.0,0.0,0.0,0.0,0.0,0.0,0.0,0.0,0.0]},{"i_score":26,"l_input2HiddenLayerWeights":[-1.2060414552688599,2.3459632396698,2.453158140182495,-1.5485920906066895,0.015638887882232667,4.414776802062988,3.685518264770508,3.1533126831054689,-3.3403944969177248,2.461717367172241,0.14381638169288636,1.3113791942596436,1.5118707418441773,0.5707942247390747,1.4192404747009278,-2.3024868965148927,1.6376421451568604,4.452449798583984,4.792549133300781,-0.7035351991653442,-3.3247995376586916,2.9615044593811037,2.074059009552002,0.7888808846473694,-0.9718817472457886,-2.4662482738494875,-2.403916120529175,0.7733525633811951,-1.8865326642990113,1.8683183193206788,0.029553234577178956,3.8912620544433595,-3.62349271774292,1.1939575672149659,-3.047107696533203,0.0514601469039917,0.24294275045394898,1.8054076433181763,-0.3855079114437103,4.576424598693848,-3.6511383056640627,0.2994977533817291,-1.9025286436080933,-0.4885733723640442,4.484695911407471,-4.089860439300537,5.0,-3.5800116062164308,-1.3862669467926026,-0.501728892326355,-0.03967481851577759,0.6184605360031128,-0.6451890468597412,3.4387881755828859,-0.40473267436027529,4.1681976318359379,-4.507989883422852,2.5389857292175295,4.602370738983154,3.856198787689209,-3.9314050674438478,0.10694558173418045,-2.616823673248291,1.04818594455719,-1.7858223915100098,-3.3518972396850588,2.4932973384857179,-0.5399320125579834,-1.890504240989685,-4.268622398376465,2.359274387359619,-1.438133955001831,-3.3350276947021486,3.5034890174865724,-3.627865791320801,3.399104118347168,-0.15609058737754823,-0.7365971803665161,1.29563570022583,1.0534390211105347,-5.0,-2.8680498600006105,2.7041001319885256,2.7885708808898927,-0.8660476207733154,-3.4674124717712404,-3.798739433288574,-3.4412856101989748,0.275556355714798,-2.318413257598877,0.5872089862823486,1.355690360069275,2.6976265907287599,2.8243393898010256,-1.5052039623260499,3.4282402992248537,-5.0,-1.478670358657837,3.7598671913146974,3.0109405517578127,-1.257481336593628,1.79434335231781,-1.2801611423492432,-1.900137186050415,2.3680360317230226,-4.341707229614258,4.902751445770264,-0.763298749923706,4.467215061187744,0.16176915168762208,3.6001129150390627,-0.04614958167076111,-3.0235230922698976,-3.0519256591796877,-1.394480586051941,-2.566041946411133,-1.458435297012329,1.1392099857330323,-1.0582388639450074,0.6109548807144165,0.843292236328125],"l_hidden2OutputLayerWeights":[-3.459548234939575,-2.816246271133423,-1.0159069299697877,3.1911392211914064,-4.457553863525391,4.19512939453125,1.789371371269226,2.0655112266540529,-1.5665533542633057,1.5519459247589112,1.151793122291565,1.6759523153305054,-0.3252190351486206,4.091382026672363,-3.6984429359436037,4.898528575897217,2.568877696990967,-3.144843816757202,-2.9544878005981447,-1.9878126382827759,-2.320425271987915,-3.6028249263763429],"l_hiddenLayersNeuronsBias":[0.0,0.0,0.0,0.0,0.0,0.0,0.0,0.0,0.0,0.0,0.0]},{"i_score":26,"l_input2HiddenLayerWeights":[-1.097454309463501,5.0,2.019320011138916,-1.849820613861084,0.13042286038398744,3.571096420288086,3.695993423461914,1.6875017881393433,-4.7886962890625,3.0827622413635256,4.580498695373535,-0.6903542280197144,3.4257068634033205,1.922580361366272,-0.49326083064079287,-2.8749799728393556,-0.27573689818382265,3.656609535217285,4.694343090057373,-2.2162997722625734,-3.7135140895843508,3.290660858154297,1.699550747871399,0.5218175053596497,-0.13959452509880067,-5.0,-1.2512587308883668,2.183332920074463,-2.021467924118042,1.3938512802124024,-0.537283182144165,4.3761749267578129,-3.3795695304870607,0.3465642035007477,-2.172724485397339,0.6053072214126587,0.1028779149055481,1.869210124015808,0.6761701107025147,5.0,-4.840564250946045,-1.0449721813201905,-1.0767590999603272,0.1060495376586914,4.896284580230713,-3.0473432540893556,5.0,-4.241373538970947,-0.7825384140014648,0.33250105381011965,0.23809298872947694,1.0431289672851563,-0.1513429582118988,-3.1494479179382326,-0.2736755609512329,2.5350730419158937,-3.3482418060302736,2.2227325439453127,4.2267069816589359,3.8999037742614748,-2.843209981918335,-0.653260350227356,-1.761412501335144,1.6912121772766114,-1.1689813137054444,-2.992473840713501,3.4826393127441408,1.6261919736862183,-0.8787974119186401,-4.304349899291992,1.4752449989318848,-2.280792236328125,-3.7823963165283205,3.8113455772399904,-3.42641282081604,4.467604160308838,0.510552704334259,0.27321192622184756,2.5546722412109377,-1.4284398555755616,-4.803925514221191,-2.7941389083862306,2.701660394668579,1.2183502912521363,-0.4838256239891052,-4.469782829284668,0.7199201583862305,-2.992757797241211,-1.232210397720337,-3.059839963912964,1.0956469774246216,3.1468682289123537,3.5992281436920168,2.3804261684417726,0.27417561411857607,3.751330614089966,-5.0,-1.2078293561935425,5.0,3.351116895675659,-0.19511732459068299,1.1176540851593018,-2.630645275115967,-3.5851216316223146,4.194540023803711,-4.9576945304870609,2.141558885574341,0.527819037437439,4.235112190246582,2.6301164627075197,3.842982053756714,0.6692627668380737,-3.1952497959136965,-2.2673003673553469,-2.2632498741149904,-1.4462471008300782,-2.4260356426239015,0.4372003376483917,-1.1021665334701539,-0.43591219186782839,1.104803204536438],"l_hidden2OutputLayerWeights":[-5.0,-2.8425350189208986,-2.706568479537964,1.4796525239944459,-4.416740417480469,4.923583984375,3.4040727615356447,3.321805477142334,-3.032498836517334,1.3034906387329102,-0.760650634765625,2.2587108612060549,-0.283582478761673,3.923586368560791,-3.760267496109009,5.0,2.795443296432495,-3.9996438026428224,-3.657308578491211,-1.5483956336975098,-3.802772045135498,-2.6414408683776857],"l_hiddenLayersNeuronsBias":[0.0,0.0,0.0,0.0,0.0,0.0,0.0,0.0,0.0,0.0,0.0]},{"i_score":26,"l_input2HiddenLayerWeights":[-1.3688884973526,5.0,2.2902464866638185,-1.5505207777023316,-0.16589179635047913,4.041680335998535,1.8035342693328858,3.642557144165039,-4.331944465637207,2.9105985164642336,4.6410417556762699,1.0244348049163819,2.4247379302978517,1.358771562576294,-0.16600587964057923,-2.851294994354248,1.3958096504211426,3.8834595680236818,4.771738052368164,-1.7444376945495606,-2.0867345333099367,3.639949321746826,2.015561819076538,0.274566113948822,-0.28062817454338076,-4.208816051483154,-1.267899990081787,0.6243070363998413,-1.8552360534667969,1.901224136352539,-0.29181334376335146,4.373841285705566,-2.990661382675171,-0.6398595571517944,-2.825389862060547,0.407712459564209,0.8413673639297485,2.01611590385437,-0.6652977466583252,3.927083969116211,-4.252450942993164,-0.798757791519165,-1.3964229822158814,-1.461079716682434,4.110907077789307,-1.701088786125183,4.159577369689941,-5.0,-0.5677279233932495,0.3834766149520874,-1.1788078546524048,-0.5802466869354248,0.36912253499031069,-1.9512104988098145,-0.48699915409088137,2.311967372894287,-2.9629130363464357,3.6315507888793947,3.8656387329101564,4.651961803436279,-4.238858699798584,-0.1494428813457489,-1.8102526664733887,0.2905940115451813,-1.9976962804794312,-4.762876510620117,2.977994680404663,1.0751430988311768,-1.3142870664596558,-4.527698993682861,2.342478036880493,-3.843357563018799,-2.7586491107940676,2.5041677951812746,-3.1155879497528078,2.469923973083496,0.09909176826477051,-0.013094209134578705,2.770883321762085,0.5861166715621948,-4.176874160766602,-2.9975390434265138,2.322852611541748,3.376645088195801,-0.6470919847488403,-3.2228145599365236,1.80150306224823,-2.192678451538086,-1.5014212131500245,-1.6809576749801636,0.23343265056610108,0.9332126379013062,2.9311089515686037,2.7873740196228029,-1.1139030456542969,3.808168649673462,-3.7661962509155275,0.5450689792633057,4.283802509307861,2.269620895385742,-0.6058210134506226,3.3649096488952638,-1.274989366531372,-2.788668155670166,3.162851572036743,-4.712267875671387,3.872539520263672,-1.336286187171936,4.20106840133667,2.6424386501312258,4.543955326080322,0.34933120012283327,-5.0,-1.0007015466690064,-0.911258339881897,-2.5293056964874269,-1.773064374923706,-0.4533494710922241,-1.0542811155319214,-0.05055537819862366,2.8948049545288088],"l_hidden2OutputLayerWeights":[-5.0,-3.774108409881592,-2.241222381591797,2.71138858795166,-3.7013518810272219,4.705869674682617,1.4841876029968262,1.5906955003738404,-3.2141828536987306,1.6917896270751954,2.039201021194458,2.3835954666137697,0.06956670433282852,3.4714512825012209,-4.2795915603637699,4.365249156951904,2.8908066749572756,-3.1282591819763185,-1.9788904190063477,-3.103691339492798,-2.5572686195373537,-2.464604377746582],"l_hiddenLayersNeuronsBias":[0.0,0.0,0.0,0.0,0.0,0.0,0.0,0.0,0.0,0.0,0.0]},{"i_score":26,"l_input2HiddenLayerWeights":[0.5902557969093323,3.5819497108459474,1.4906343221664429,-2.3010153770446779,0.9694342613220215,3.7043988704681398,1.2840365171432496,1.470558762550354,-4.690708637237549,3.3900909423828127,4.753127098083496,-0.36733278632164,2.69993257522583,1.5293526649475098,-0.1759413182735443,-3.4861104488372804,1.2035692930221558,4.349709510803223,5.0,-1.392971396446228,-2.2234835624694826,3.5621371269226076,1.714308500289917,-0.03725612163543701,0.33696338534355166,-4.5651092529296879,-1.1046589612960816,0.2349076271057129,-1.975134015083313,1.3277387619018555,0.08336898684501648,1.4891310930252076,-4.225978851318359,1.111222743988037,-2.9553301334381105,1.0194127559661866,-0.11959208548069,2.3578543663024904,-0.6803803443908691,4.406707286834717,-4.699872016906738,-0.3954783082008362,-1.4271986484527588,-0.6979553699493408,4.471035003662109,-2.178250551223755,3.5736637115478517,-4.451886177062988,-0.3916592597961426,0.7045989036560059,-0.8096747398376465,-0.9674426317214966,-1.713532567024231,-2.9566781520843508,0.009753376245498658,2.534369707107544,-3.1535160541534426,2.226752996444702,3.865489959716797,4.546850204467773,-3.973177909851074,-0.2103177309036255,-2.097418785095215,1.743664264678955,-1.5933164358139039,-4.6394195556640629,3.051964044570923,0.6549134254455566,-2.041395664215088,-4.125765800476074,2.522049903869629,-1.7433233261108399,-2.3225672245025636,3.5520687103271486,-3.2489311695098879,4.914565563201904,-0.23383879661560059,-0.09118630737066269,2.6189963817596437,0.9839699268341065,-4.424206256866455,-2.372459888458252,2.4948835372924806,2.200310707092285,-0.9821612238883972,-3.842926502227783,2.5842552185058595,-3.0492916107177736,-0.024728119373321534,-1.9318773746490479,0.30891135334968569,1.029670000076294,3.0422778129577638,3.1654016971588136,-1.1943086385726929,3.8948974609375,-5.0,-0.736356258392334,5.0,3.278933048248291,-0.12391942739486695,1.469193935394287,-2.5026473999023439,-2.353858709335327,2.767772912979126,-4.9858717918396,4.359812259674072,-1.0246779918670655,4.706589698791504,1.497235655784607,4.462062358856201,-0.016287945210933687,-4.601116180419922,-3.314089298248291,-0.7868987321853638,-2.8334217071533205,-1.3333016633987427,0.04296300560235977,-1.4599390029907227,0.9282398223876953,2.584695816040039],"l_hidden2OutputLayerWeights":[-4.7083539962768559,-2.97836971282959,-1.5073091983795167,0.9611668586730957,-5.0,4.587302207946777,1.0673894882202149,2.466653823852539,-2.5370030403137209,2.123673439025879,3.0843584537506105,1.881770372390747,0.040777385234832767,4.438236713409424,-4.230639457702637,3.9466092586517336,2.7988529205322267,-3.3587851524353029,-2.544088840484619,-2.283111572265625,-2.445005416870117,-2.9137024879455568],"l_hiddenLayersNeuronsBias":[0.0,0.0,0.0,0.0,0.0,0.0,0.0,0.0,0.0,0.0,0.0]},{"i_score":26,"l_input2HiddenLayerWeights":[-0.6628755331039429,2.215179204940796,1.4605311155319214,-1.613718032836914,-0.2499043345451355,4.440944671630859,1.9707911014556885,3.8362903594970705,-3.8112034797668459,2.2475996017456056,4.933570861816406,-0.2394993007183075,2.8137946128845217,1.3393360376358033,0.6853656768798828,-1.8816899061203004,0.5228629112243652,4.629550457000732,5.0,-0.88484787940979,-3.3667831420898439,3.8154983520507814,2.217622995376587,-0.6332141160964966,-1.0427799224853516,-4.903468132019043,-1.3445987701416016,0.560296893119812,-1.6061588525772095,1.4420889616012574,-0.6382286548614502,3.6721913814544679,-3.3969857692718508,1.782981514930725,-3.4381465911865236,0.4250037372112274,-0.6080232858657837,2.850266933441162,1.2792224884033204,5.0,-5.0,-0.16909831762313844,-1.782129168510437,-0.5961962938308716,4.224791526794434,-1.6245231628417969,5.0,-4.631075859069824,-0.21117030084133149,0.15122473239898683,0.22457432746887208,-0.6175422668457031,-0.03849750757217407,-2.019670009613037,-0.3101462125778198,2.7200803756713869,-4.62962007522583,2.388519525527954,5.0,4.907707214355469,-3.973177909851074,-0.5475612878799439,-2.0153565406799318,1.7685307264328004,-1.0735112428665162,-3.706993579864502,3.1991231441497804,1.2467217445373536,-1.8476667404174805,-4.736196994781494,2.8434884548187258,-1.0626643896102906,-2.4684367179870607,3.4231789112091066,-3.6440649032592775,3.8232421875,0.5149245858192444,-1.3743911981582642,2.6189963817596437,0.8241610527038574,-5.0,-3.8347158432006838,2.8085989952087404,1.9550353288650513,-1.0504570007324219,-3.3501155376434328,3.188265085220337,-1.870400071144104,0.4294317960739136,-2.9131762981414797,1.8408033847808838,1.0024685859680176,3.0422778129577638,2.834209442138672,-1.890113115310669,3.559980630874634,-4.537454128265381,0.5912958383560181,4.3424577713012699,3.686034679412842,-1.9675215482711793,1.9760570526123047,-1.4580583572387696,-2.2137646675109865,3.227590560913086,-4.639603614807129,3.7889323234558107,-0.5574241876602173,4.518144607543945,1.4978337287902833,4.804221153259277,2.742814064025879,-3.133455991744995,-2.8307409286499025,-0.7868987321853638,-2.8334217071533205,-0.7374796271324158,-0.1395946741104126,-0.4567660093307495,-0.1913423389196396,1.8335728645324708],"l_hidden2OutputLayerWeights":[-4.628842830657959,-2.97836971282959,-1.2806787490844727,1.737524151802063,-4.204636573791504,2.9868407249450685,1.9197683334350587,-1.7711329460144044,-2.5370030403137209,2.0530405044555666,1.835412859916687,2.0412638187408449,-0.6853652000427246,4.13963508605957,-2.78143310546875,4.906496047973633,2.5564403533935549,-4.36490535736084,-2.544088840484619,-1.6978416442871094,-3.8050944805145265,-3.5092029571533205],"l_hiddenLayersNeuronsBias":[0.0,0.0,0.0,0.0,0.0,0.0,0.0,0.0,0.0,0.0,0.0]},{"i_score":26,"l_input2HiddenLayerWeights":[-1.1755926609039307,4.610612392425537,3.0103182792663576,-1.2309132814407349,0.18864452838897706,4.2612762451171879,2.799765110015869,3.857093334197998,-5.0,1.5923291444778443,4.423020839691162,-0.7052726745605469,2.5968363285064699,1.9771767854690552,-0.48350217938423159,-1.7783763408660889,0.2646365165710449,5.0,2.7183268070220949,-2.1468701362609865,-3.5271453857421877,3.9849259853363039,1.879073143005371,-0.028785139322280885,-2.0585811138153078,-3.3720943927764894,-2.111356019973755,0.8119794726371765,-1.5428402423858643,1.0480988025665284,-0.3287978172302246,3.8392493724823,-4.039373397827148,1.5708935260772706,-2.7151191234588625,-0.30560290813446047,-0.567577600479126,2.776319742202759,-0.8116687536239624,4.86855411529541,-4.842820644378662,-0.26086536049842837,-0.5597237348556519,-1.4734705686569214,3.927083969116211,-2.109797954559326,4.400332927703857,-4.584542751312256,-1.2540996074676514,0.4781041741371155,0.5103440284729004,-0.2019369751214981,-0.40537315607070925,-2.610520839691162,0.07441335171461106,2.358254909515381,-4.365598678588867,3.9738547801971437,4.058341979980469,3.9832730293273927,-3.978034257888794,0.5305383801460266,-2.8070790767669679,-0.08902937173843384,-2.8846452236175539,-4.72128438949585,2.5402092933654787,0.957528829574585,-1.5801688432693482,-4.133054733276367,2.4711239337921144,-1.4199100732803345,-3.909966468811035,2.451396942138672,-3.3015151023864748,2.412680149078369,0.054515063762664798,-1.090968132019043,4.340033054351807,0.7928527593612671,-4.654943466186523,-3.888009548187256,2.9854214191436769,2.7731237411499025,-0.6793156862258911,-3.4931724071502687,3.358567714691162,-1.645897626876831,0.43443936109542849,-1.6866133213043213,0.5669903755187988,1.274375081062317,1.66156005859375,2.7661023139953615,-1.3048851490020753,3.021252393722534,-5.0,-0.13727980852127076,4.707054138183594,2.9605326652526857,-0.20153698325157166,1.7318181991577149,-1.8964662551879883,-2.713258981704712,2.510960578918457,-4.588227272033691,4.622824668884277,-1.534303903579712,4.433013916015625,2.734633684158325,4.7492170333862309,0.9852254390716553,-4.991717338562012,-1.0353543758392335,-0.9229313135147095,-2.0213074684143068,-0.7685836553573608,-0.5003247261047363,-1.2323179244995118,-0.5613720417022705,1.481153130531311],"l_hidden2OutputLayerWeights":[-4.736352443695068,-2.318605422973633,-2.182734727859497,2.6461615562438967,-5.0,4.516350269317627,2.0237696170806886,-1.5039139986038209,-3.251298427581787,1.4466660022735596,1.7297459840774537,1.3060625791549683,0.5026960372924805,3.696742534637451,-4.208314895629883,5.0,2.18825101852417,-4.2786664962768559,-2.084139347076416,-1.340054988861084,-3.7255654335021974,-3.437303066253662],"l_hiddenLayersNeuronsBias":[0.0,0.0,0.0,0.0,0.0,0.0,0.0,0.0,0.0,0.0,0.0]},{"i_score":26,"l_input2HiddenLayerWeights":[-1.191806435585022,2.7388827800750734,2.8719606399536135,-1.441617727279663,-0.3806162178516388,5.0,3.57757830619812,2.592472553253174,-5.0,2.970383882522583,4.990078449249268,0.8764513731002808,0.989997386932373,0.7504304647445679,1.2584342956542969,-0.8604090213775635,0.7001723051071167,4.214070796966553,3.5268428325653078,-0.48365873098373415,-3.4031119346618654,3.441352128982544,1.6949305534362794,0.010100841522216797,-1.6743916273117066,-3.0158731937408449,-1.5295121669769288,0.7764867544174194,-1.5234758853912354,1.7538076639175416,1.1687957048416138,1.0309702157974244,-3.550030469894409,0.7989232540130615,-3.525542974472046,0.7208585739135742,-0.7115399837493897,2.6862246990203859,-0.5741780996322632,4.706871509552002,-3.3274261951446535,-0.7527806162834168,0.015438586473464966,-0.11263617873191834,3.501436233520508,-3.614633798599243,4.008478164672852,-4.958944797515869,-0.8328843712806702,-0.30871114134788515,0.5181322693824768,1.2062735557556153,-1.2777881622314454,2.7604894638061525,0.06675252318382263,3.438904285430908,-4.193065643310547,1.6036938428878785,4.2984209060668949,4.463813781738281,-2.99528169631958,-0.13678118586540223,-1.8544474840164185,0.058693595230579379,-2.880763292312622,-3.9341320991516115,3.1654882431030275,-0.40207305550575259,-1.759374737739563,-4.624160289764404,2.6843762397766115,0.7221710681915283,-2.655975103378296,3.2122251987457277,-2.8721046447753908,3.618671417236328,-0.3585805594921112,-0.14074420928955079,2.7622528076171877,1.4610960483551026,-4.6166839599609379,-3.8062894344329836,2.497002601623535,3.7052884101867677,-0.9038037061691284,-3.520359992980957,-3.915971040725708,-2.6840474605560304,-0.46596014499664309,-2.0699894428253176,0.18548229336738587,1.121069312095642,3.4853415489196779,2.8793253898620607,-2.420164108276367,1.8926334381103516,-4.332064151763916,-0.94566810131073,3.8569540977478029,3.2369043827056886,-1.2089911699295045,3.355970621109009,-1.35392165184021,-2.3088040351867677,3.170353651046753,-4.1395344734191898,5.0,-1.663378119468689,4.873653888702393,1.7580875158309937,4.034659385681152,1.3903629779815674,-4.670083999633789,-2.698329448699951,-0.3034309446811676,-3.3626163005828859,-0.9850863218307495,0.5451499819755554,-1.7196948528289796,1.5837407112121583,1.2888754606246949],"l_hidden2OutputLayerWeights":[-4.869269371032715,-2.6072185039520265,-1.2497330904006959,2.272711992263794,-5.0,4.463311195373535,1.112984538078308,-1.9960885047912598,-0.2049327790737152,1.326930284500122,2.7356040477752687,2.358820915222168,-0.36003485321998598,3.216165542602539,-3.450056552886963,3.072305679321289,3.128567934036255,-3.595200538635254,-2.57603120803833,-1.8221032619476319,-2.5936577320098879,-3.48004412651062],"l_hiddenLayersNeuronsBias":[0.0,0.0,0.0,0.0,0.0,0.0,0.0,0.0,0.0,0.0,0.0]},{"i_score":26,"l_input2HiddenLayerWeights":[-0.33548593521118166,4.2246246337890629,2.381939172744751,-1.4303877353668213,-0.6489279270172119,4.068635940551758,1.7490742206573487,3.914595603942871,-3.798880100250244,2.4346187114715578,2.811952829360962,-0.11865052580833435,2.6352243423461916,1.6743950843811036,0.23711690306663514,-2.4080004692077638,1.6977838277816773,4.645659923553467,4.754626750946045,-1.3979779481887818,-3.2246830463409426,3.7390928268432619,1.8734464645385743,-0.7230334877967835,-1.2298994064331055,-4.358523368835449,-1.3181910514831544,1.4674208164215088,-1.4812939167022706,1.4978810548782349,-0.6599421501159668,4.745736122131348,-4.752015590667725,-0.3643503487110138,-2.0920510292053224,0.7565566301345825,0.4403679072856903,2.3185980319976808,1.0470103025436402,4.194477081298828,-4.152194976806641,-0.5924813747406006,-1.0951751470565797,-1.6315507888793946,3.3399734497070314,-2.9164788722991945,4.400832176208496,-4.130677700042725,-0.9364103078842163,-0.020979903638362886,0.7751872539520264,0.03938698023557663,0.09746500849723816,-3.000810146331787,-1.3389439582824708,2.0068483352661135,-3.7759416103363039,3.6956028938293459,4.475826263427734,3.906742572784424,-3.8975160121917726,0.3104049563407898,-1.2496079206466675,0.17786076664924622,-3.0211403369903566,-4.425970077514648,3.1965503692626955,0.6653949022293091,-1.2869988679885865,-4.878688335418701,2.74993634223938,-2.39021635055542,-3.486276865005493,2.9513938426971437,-4.896450996398926,3.057792901992798,0.17898160219192506,-0.6889245510101318,3.020421028137207,0.9991154670715332,-4.585657119750977,-3.0721359252929689,2.8612289428710939,3.5440728664398195,-1.7480977773666382,-3.6109023094177248,1.3651654720306397,-2.0961904525756838,-1.0489606857299805,-1.5392792224884034,0.09464547038078308,1.6091974973678589,2.4428553581237795,3.0400261878967287,-1.1890878677368165,3.5116934776306154,-4.653629302978516,-0.5105267763137817,4.554865837097168,2.6916768550872804,-0.25768551230430605,2.9507226943969728,-2.632518768310547,-2.3639822006225588,0.6390857696533203,-4.411728858947754,4.1744160652160648,-1.8458729982376099,4.890965938568115,2.7413580417633058,4.126183986663818,0.1348363161087036,-3.2399959564208986,-3.1219491958618166,-0.9456145167350769,-1.4463595151901246,-1.8231322765350342,-0.49124500155448916,0.11523181200027466,-0.41452479362487795,2.1944446563720705],"l_hidden2OutputLayerWeights":[-5.0,-3.852436065673828,-0.1375388205051422,2.3479700088500978,-4.762727737426758,4.287712097167969,1.6815768480300904,2.001199722290039,-1.8372751474380494,0.46814703941345217,-0.12749317288398744,2.4944815635681154,-0.43163058161735537,3.868612766265869,-3.7401559352874758,3.786912202835083,2.9656710624694826,-3.4658892154693605,-2.17450213432312,-2.696495294570923,-3.1898155212402345,-2.249619722366333],"l_hiddenLayersNeuronsBias":[0.0,0.0,0.0,0.0,0.0,0.0,0.0,0.0,0.0,0.0,0.0]},{"i_score":26,"l_input2HiddenLayerWeights":[-0.4848300516605377,2.5929088592529299,1.8799185752868653,-1.8994756937026978,0.14144951105117799,3.1939189434051515,2.699000358581543,4.2652907371521,-4.124526500701904,3.983412981033325,4.723599433898926,2.0102896690368654,2.745965003967285,0.6552982330322266,-0.35504093766212466,-2.596710205078125,1.8754938840866089,4.447281360626221,4.979633331298828,-1.0910190343856812,-2.5926408767700197,3.3489556312561037,2.3739824295043947,0.2077016532421112,0.17562171816825868,-3.605642795562744,-1.9433162212371827,-0.6814248561859131,-1.7750743627548218,2.405636787414551,0.13122981786727906,2.7241342067718508,-4.016430854797363,1.3147668838500977,-3.049823522567749,0.1870136260986328,0.3445934057235718,2.368077278137207,0.4533335268497467,4.916314125061035,-5.0,-1.278151273727417,-1.8723546266555787,-1.504206657409668,2.6038753986358644,-0.8951252698898315,3.5013198852539064,-4.498544692993164,-1.219863772392273,0.6386889219284058,0.8336867094039917,0.2550426721572876,-1.8994402885437012,2.725024700164795,-0.11377418041229248,3.9601645469665529,-3.424321174621582,2.704864025115967,5.0,3.8612778186798097,-3.775897264480591,0.17201125621795655,-2.9235334396362306,0.6614184379577637,-2.2963979244232179,-4.54506778717041,3.5836780071258547,1.0155706405639649,-1.7810065746307374,-3.561056613922119,2.065129280090332,-1.8932918310165406,-3.4531478881835939,3.5270044803619386,-3.095582962036133,2.9625072479248049,0.5469574928283691,-0.12318328022956848,1.9346188306808472,0.7701696157455444,-4.893850803375244,-3.193044662475586,2.7154619693756105,1.1022809743881226,-1.176484227180481,-4.729151725769043,2.2227156162261965,-3.334484815597534,-0.9842467308044434,-2.2520432472229006,0.5377408266067505,0.8944793939590454,3.7537810802459719,2.926764726638794,-1.5131672620773316,4.4560546875,-4.29664421081543,-0.6726956963539124,5.0,3.1264944076538088,-0.6007702350616455,2.853910207748413,-1.4702746868133546,-2.5317368507385256,2.8319318294525148,-4.178887367248535,4.564786434173584,-1.237718939781189,4.877089500427246,2.808715581893921,3.6625821590423586,0.45197200775146487,-3.0481066703796388,-1.8833717107772828,-1.028205394744873,-1.2025989294052125,-1.3795377016067505,-0.44563713669776919,-1.0148624181747437,-0.003827109932899475,1.2801607847213746],"l_hidden2OutputLayerWeights":[-3.567134141921997,-3.258646011352539,-2.2464778423309328,3.1775248050689699,-5.0,4.041421890258789,2.3884191513061525,1.800065040588379,-3.452868938446045,1.5363531112670899,0.1747296154499054,2.8126325607299806,-0.6423901915550232,3.7543106079101564,-4.850203514099121,4.763073921203613,2.5999550819396974,-3.972689151763916,-2.923218250274658,-2.499338150024414,-1.2362760305404664,-3.441272497177124],"l_hiddenLayersNeuronsBias":[0.0,0.0,0.0,0.0,0.0,0.0,0.0,0.0,0.0,0.0,0.0]},{"i_score":26,"l_input2HiddenLayerWeights":[-1.1994407176971436,3.9495675563812258,2.637505054473877,-1.1892744302749634,0.3476502001285553,3.2406041622161867,1.6490391492843629,3.3598668575286867,-4.960585594177246,3.4132943153381349,4.370165824890137,0.21737352013587953,2.536304473876953,1.653793454170227,0.9895276427268982,-2.6532254219055177,0.486726850271225,3.976633071899414,3.761641263961792,-2.365817070007324,-2.5445964336395265,3.796149730682373,1.814646601676941,1.0174835920333863,-1.2849713563919068,-4.552173614501953,-1.7420120239257813,-0.9791401624679565,-2.286977767944336,1.3938512802124024,1.0673507452011109,1.4869625568389893,-4.641209602355957,1.6874208450317383,-2.74826717376709,-0.6377367973327637,-0.31919926404953005,1.9868988990783692,0.6164268255233765,4.91428804397583,-5.0,0.006035178899765015,-1.9053304195404053,-1.476867437362671,4.803293704986572,-1.6470355987548829,3.197521209716797,-5.0,-0.24695268273353578,0.46302664279937746,-0.5460260510444641,1.1248724460601807,0.6164877414703369,-1.713997483253479,-0.1909281611442566,2.002203941345215,-3.082442283630371,2.5518875122070314,5.0,3.8994228839874269,-2.545553684234619,-0.39424943923950198,-2.4355862140655519,1.7708266973495484,-1.6941568851470948,-3.2413530349731447,4.057703018188477,-0.23548749089241029,-0.8570945262908936,-4.516122817993164,2.6973447799682619,-2.581862449645996,-3.6265337467193605,3.2536911964416506,-3.031344413757324,5.0,0.45840349793434145,-0.6420351266860962,2.804593563079834,1.3022018671035767,-4.655389308929443,-2.913917064666748,1.3358123302459717,2.335764169692993,-0.6909734010696411,-3.6201319694519045,2.639627456665039,-1.7646716833114625,-0.045622289180755618,-2.425067901611328,0.7907495498657227,2.443788528442383,2.365164041519165,3.1308436393737795,-0.8426042199134827,4.208856105804443,-4.87462043762207,-0.593245267868042,4.466048717498779,2.365248203277588,-1.0001882314682007,2.3631746768951418,-2.1215152740478517,-2.0669243335723879,3.84114408493042,-5.0,4.324646949768066,-1.3276712894439698,3.7813754081726076,2.137888193130493,3.41530442237854,1.0287697315216065,-3.6559090614318849,-3.2146522998809816,-0.6974763870239258,-2.781012535095215,-2.915074586868286,-0.7501649856567383,-1.3035846948623658,0.20451945066452027,2.013462543487549],"l_hidden2OutputLayerWeights":[-4.040341377258301,-3.2151942253112795,-2.574079990386963,2.8013675212860109,-4.9677839279174809,4.199731826782227,1.5716074705123902,1.7412346601486207,-1.1620432138442994,0.6749792098999023,1.730701208114624,1.8083343505859376,0.11616995930671692,4.080391883850098,-4.544873237609863,3.494208574295044,2.5948803424835207,-3.365255832672119,-3.106232166290283,-1.6250427961349488,-2.0845589637756349,4.622869491577148],"l_hiddenLayersNeuronsBias":[0.0,0.0,0.0,0.0,0.0,0.0,0.0,0.0,0.0,0.0,0.0]},{"i_score":26,"l_input2HiddenLayerWeights":[-0.3138999342918396,3.1735634803771974,3.219095468521118,-1.6108955144882203,0.4830944240093231,4.174668788909912,2.8962607383728029,3.9659218788146974,-4.993016242980957,4.101888656616211,4.819576263427734,1.284003496170044,2.8072896003723146,1.4274626970291138,0.9982209205627441,-1.618610143661499,0.7934871912002564,4.158124923706055,4.208317279815674,-0.9265158176422119,-2.1651828289031984,3.795116424560547,0.6215330362319946,-1.3820858001708985,-0.3685656785964966,-3.4534802436828615,-0.9531396627426148,0.7846060991287231,-1.85696280002594,2.4312872886657717,0.17808103561401368,1.2438009977340699,-3.9092154502868654,1.1005347967147828,-1.789340853691101,-1.085767388343811,-0.1882779747247696,1.4046943187713624,0.3652838468551636,4.92338228225708,-4.231415748596191,-0.961132287979126,-1.8919920921325684,-0.5605751276016235,4.302987575531006,-3.4518303871154787,4.924500465393066,-5.0,0.5478729009628296,-0.9559324979782105,0.2170553207397461,-0.8477218151092529,-0.8232645988464356,-2.9914557933807375,0.9647780060768127,2.110506057739258,-3.5766282081604006,2.4303503036499025,5.0,3.3975729942321779,-4.289850234985352,0.35294076800346377,-3.989184856414795,0.10297774523496628,-1.9144139289855958,-4.2686614990234379,3.7661426067352297,-0.28372371196746828,-1.7710669040679932,-4.720216274261475,2.550842761993408,-0.9450100660324097,-3.2943270206451418,2.294935941696167,-4.497371673583984,3.7436070442199709,-0.9483988285064697,-0.1829724907875061,1.6541292667388917,-1.5268125534057618,-4.018406391143799,-3.5250890254974367,0.9873013496398926,3.7348906993865969,-1.2191723585128785,-4.218721866607666,2.5220890045166017,-3.0288281440734865,-1.8009508848190308,-3.0782523155212404,0.06457558274269104,0.6778964996337891,3.1227359771728517,2.9386818408966066,-1.6988153457641602,4.435927391052246,-4.682294845581055,-0.8905344605445862,4.563021659851074,2.506326675415039,-0.3881460428237915,1.970180869102478,-1.4727745056152344,-2.080244779586792,4.829728603363037,-4.298556804656982,4.27698278427124,-1.7206419706344605,3.975945472717285,1.843597412109375,4.814878463745117,-0.1520346701145172,-3.098705530166626,-1.7488322257995606,-0.5165490508079529,-1.0181914567947388,-1.5673121213912964,1.973650336265564,-0.9174230098724365,1.230136752128601,2.8460469245910646],"l_hidden2OutputLayerWeights":[-4.683762073516846,-2.9933605194091799,-1.1866154670715333,2.8912055492401125,-5.0,4.595973491668701,0.47942912578582766,2.123652935028076,-1.3272625207901,1.5864815711975098,1.9216011762619019,2.454328775405884,-0.16261151432991029,2.9724814891815187,-3.801379680633545,4.700172424316406,2.5081992149353029,-2.72550630569458,-2.509120225906372,-2.676994800567627,-1.9713037014007569,-3.4762117862701418],"l_hiddenLayersNeuronsBias":[0.0,0.0,0.0,0.0,0.0,0.0,0.0,0.0,0.0,0.0,0.0]},{"i_score":26,"l_input2HiddenLayerWeights":[-0.05545946955680847,4.336094379425049,1.4352989196777344,-1.3834763765335084,0.7453330755233765,4.665437698364258,2.3756744861602785,4.776061058044434,-4.924026966094971,2.32110333442688,4.547590255737305,1.2218906879425049,1.4426368474960328,1.3251678943634034,-0.6066452264785767,-3.179074764251709,-4.776434898376465,3.9588541984558107,5.0,-2.1029491424560549,-3.39139723777771,3.856997013092041,1.5178872346878052,0.4776949882507324,-0.4631598889827728,-4.374603748321533,-2.4875192642211916,-0.5318983793258667,-1.1674249172210694,3.353879690170288,-0.37065979838371279,5.0,-3.8175277709960939,1.4927395582199097,-2.6090259552001955,1.0317323207855225,-1.06170654296875,2.382640838623047,0.7038875818252564,4.602413177490234,-3.693593978881836,0.04161173105239868,-1.2908494472503663,-0.8171851634979248,3.67037034034729,-1.881808876991272,5.0,-4.138823986053467,-0.9659861326217651,-0.27232825756073,-0.9736932516098023,0.28226912021636965,-1.1563252210617066,-2.9129691123962404,-1.7634403705596924,4.4237380027771,-3.4440908432006838,2.2373738288879396,4.709135055541992,3.842984199523926,-4.127857208251953,0.1448846161365509,-1.7223840951919556,1.5226134061813355,-1.2891576290130616,-4.359922409057617,2.6572704315185549,-0.10657840967178345,-2.726008415222168,-4.858453273773193,2.824054002761841,-0.7480441927909851,-3.384824752807617,4.889821529388428,-3.785287857055664,2.4848389625549318,-0.669161319732666,-0.46244680881500246,2.122537136077881,-0.981268048286438,-4.670294284820557,-3.4454026222229006,2.699589252471924,1.9016680717468262,-0.9741569757461548,-3.804466724395752,2.362142324447632,-2.1844828128814699,-0.2701878547668457,-2.1698126792907717,0.6146125793457031,1.4247698783874512,2.3562588691711427,2.778445243835449,-1.9767682552337647,3.6212263107299806,-3.957711935043335,-1.584240198135376,4.737408638000488,3.0320017337799074,-0.061717838048934939,2.1365156173706056,-2.456918478012085,-2.0608530044555666,1.9731614589691163,-4.867757797241211,4.858979225158691,0.07830727100372315,5.0,2.3204400539398195,3.4009127616882326,-0.9576900005340576,-3.082871913909912,-3.058257818222046,-1.9646022319793702,-2.8450424671173097,-2.116161346435547,0.4538840055465698,-1.095327615737915,1.7694334983825684,0.8123835325241089],"l_hidden2OutputLayerWeights":[-3.7194464206695558,-2.9075868129730226,-0.24389174580574037,2.558061122894287,-4.2914533615112309,3.8486170768737795,1.8759560585021973,2.085643768310547,-0.0171450674533844,1.5597938299179078,1.9095875024795533,1.4887676239013672,-0.1247730553150177,3.0167148113250734,-3.769552230834961,4.388357639312744,1.8361283540725709,-3.6578824520111086,-2.7081990242004396,-1.210431694984436,-3.359328508377075,-2.3363890647888185],"l_hiddenLayersNeuronsBias":[0.0,0.0,0.0,0.0,0.0,0.0,0.0,0.0,0.0,0.0,0.0]},{"i_score":26,"l_input2HiddenLayerWeights":[5.0,2.021040916442871,2.242586135864258,-1.1484391689300538,-0.6456100940704346,3.571096420288086,1.7701786756515504,3.297361373901367,-4.455325603485107,3.0827622413635256,4.580498695373535,-0.32531091570854189,3.888613700866699,1.4782153367996216,0.8056211471557617,-2.1321873664855959,-0.27573689818382265,4.732556343078613,4.80283260345459,-0.8966219425201416,-2.9949517250061037,3.290660858154297,1.699550747871399,-0.27840524911880495,-0.13959452509880067,-5.0,-1.5949594974517823,0.19374895095825196,-2.021467924118042,2.062311887741089,0.23810234665870667,4.3761749267578129,-4.938067436218262,0.7800189256668091,-4.335630416870117,-0.5356888771057129,-0.47709202766418459,2.000411033630371,0.7079592943191528,5.0,-4.7906036376953129,-0.403511106967926,-1.3840633630752564,0.1060495376586914,3.9653377532958986,-1.3205457925796509,5.0,-5.0,-0.7825384140014648,0.7541576623916626,0.23809298872947694,-0.9736031293869019,-0.1513429582118988,-1.582345724105835,-0.1351795494556427,2.5350730419158937,-3.409700393676758,2.7266623973846437,4.661657333374023,4.094531536102295,-4.568863868713379,-0.2690906226634979,-3.677802085876465,1.6912121772766114,-1.1689813137054444,-4.149714946746826,2.664489269256592,1.6261919736862183,-0.8787974119186401,-4.73148250579834,2.111104965209961,-1.4061546325683594,-3.251840114593506,3.9691171646118166,-4.138983249664307,4.467604160308838,0.09821444749832154,-0.8083711862564087,2.3213276863098146,0.45696938037872317,-4.803925514221191,-2.845669746398926,2.943881034851074,0.7809640169143677,-1.168245792388916,4.917793273925781,2.6203832626342775,-3.135791778564453,-1.232210397720337,-1.5435864925384522,0.13217619061470033,0.7632784843444824,2.7945876121520998,3.267820358276367,-4.0004563331604,4.2159624099731449,-4.487720489501953,-1.8250648975372315,5.0,3.5205578804016115,-0.19511732459068299,1.1176540851593018,-1.7666206359863282,-2.358633279800415,4.194540023803711,-3.27500581741333,4.397833347320557,-0.7452750205993652,4.235112190246582,2.6301164627075197,3.842982053756714,0.23152503371238709,-3.1952497959136965,-2.0970988273620607,-0.631050705909729,-1.3875572681427003,-1.1692802906036378,0.25070005655288699,-1.1021665334701539,0.2500905394554138,1.104803204536438],"l_hidden2OutputLayerWeights":[-4.889045238494873,-2.8425350189208986,-1.9150179624557496,2.647256374359131,-4.416740417480469,4.572537422180176,1.0112494230270386,3.321805477142334,-2.6954586505889894,1.0254547595977784,1.4341572523117066,2.137247323989868,0.29917144775390627,3.630502700805664,-2.813807725906372,4.416147232055664,1.615778923034668,-1.9585635662078858,-3.372950315475464,-1.8941088914871216,-3.557483196258545,-2.9958417415618898],"l_hiddenLayersNeuronsBias":[0.0,0.0,0.0,0.0,0.0,0.0,0.0,0.0,0.0,0.0,0.0]},{"i_score":26,"l_input2HiddenLayerWeights":[-1.1990574598312379,3.7543396949768068,0.939960241317749,-1.2366353273391724,-0.39979296922683718,5.0,1.6963825225830079,1.0537811517715455,-4.571190357208252,3.5907585620880129,4.801450252532959,-0.2028159499168396,2.1273107528686525,1.6256531476974488,0.2717055082321167,-2.3333733081817629,1.127685785293579,5.0,4.658752918243408,-2.863208293914795,-4.189223766326904,3.981525421142578,0.7488187551498413,1.009556770324707,-0.138757586479187,-4.254913330078125,-1.4286837577819825,-0.26623237133026125,-2.1192195415496828,0.9014185667037964,-0.4529820680618286,4.3882060050964359,-4.6922502517700199,1.9402357339859009,-1.9746654033660889,0.014860138297080994,0.32429546117782595,1.5482450723648072,0.7931070327758789,5.0,-3.4322726726531984,0.024176836013793947,-1.7452340126037598,-0.5223344564437866,4.316519260406494,-2.3650400638580324,4.5507707595825199,-3.808605194091797,-1.6706457138061524,-0.16020572185516358,-1.3000531196594239,1.1860404014587403,-2.3340775966644289,-2.302952766418457,0.19553536176681519,2.6817235946655275,-3.1860451698303224,2.5379745960235597,4.797525405883789,3.867600917816162,-2.687391519546509,0.0893501341342926,-1.6759259700775147,0.6182509660720825,-0.835249662399292,-4.007926940917969,3.683638095855713,1.500119686126709,-1.6103821992874146,-4.819961071014404,2.855130195617676,-1.927549958229065,-3.985917329788208,2.918935775756836,-3.830911636352539,3.6262409687042238,-1.405339241027832,-0.3978928327560425,1.8396179676055909,1.0004122257232667,-4.471817493438721,-3.6076149940490724,1.5915457010269166,1.85576331615448,-1.10795259475708,-3.689270257949829,2.715780019760132,-3.3276405334472658,-0.5244657397270203,-2.3855090141296388,0.8154950141906738,1.9184693098068238,1.3321443796157838,2.9518046379089357,-1.319209098815918,3.778546094894409,-3.202115535736084,1.1780287027359009,4.027623176574707,3.4197592735290529,-0.8347966074943543,3.1161718368530275,-2.2533023357391359,-2.247490644454956,3.269188404083252,-5.0,4.09273099899292,-1.6624611616134644,3.895754098892212,2.0423874855041506,4.141613960266113,0.8780874013900757,-3.5831737518310549,-3.658094882965088,-0.5588668584823608,-3.2161169052124025,-0.8687068223953247,-0.6895076036453247,-0.9858388900756836,0.6051576733589172,2.0521416664123537],"l_hidden2OutputLayerWeights":[-3.444406270980835,-3.452207088470459,-2.7106213569641115,1.857021689414978,-4.488135814666748,4.527709007263184,0.9278092384338379,1.7883449792861939,-2.7916526794433595,2.2275586128234865,1.819753646850586,1.103156328201294,-0.21214789152145387,5.0,-3.218669891357422,3.5527467727661135,2.367938756942749,-3.7864089012145998,-2.6183414459228517,-1.501700758934021,-1.3494153022766114,3.161020517349243],"l_hiddenLayersNeuronsBias":[0.0,0.0,0.0,0.0,0.0,0.0,0.0,0.0,0.0,0.0,0.0]},{"i_score":26,"l_input2HiddenLayerWeights":[-1.2060414552688599,2.3459632396698,2.453158140182495,-1.5485920906066895,0.015638887882232667,4.414776802062988,3.685518264770508,3.1533126831054689,-3.3403944969177248,2.461717367172241,0.14381638169288636,1.3113791942596436,1.5118707418441773,0.5707942247390747,1.4192404747009278,-2.3024868965148927,1.6376421451568604,4.452449798583984,4.792549133300781,-0.7035351991653442,-3.3247995376586916,2.9615044593811037,2.074059009552002,0.7888808846473694,-0.9718817472457886,-2.4662482738494875,-2.403916120529175,0.7733525633811951,-1.8865326642990113,1.8683183193206788,0.029553234577178956,3.8912620544433595,-3.62349271774292,1.1939575672149659,-3.047107696533203,0.0514601469039917,0.24294275045394898,1.8054076433181763,-0.3855079114437103,4.576424598693848,-3.6511383056640627,0.2994977533817291,-1.9025286436080933,-0.4885733723640442,4.484695911407471,-4.089860439300537,5.0,-3.5800116062164308,-1.3862669467926026,-0.501728892326355,-0.03967481851577759,0.6184605360031128,-0.6451890468597412,3.4387881755828859,-0.40473267436027529,4.1681976318359379,-4.507989883422852,2.5389857292175295,4.602370738983154,3.856198787689209,-3.9314050674438478,0.10694558173418045,-2.616823673248291,1.04818594455719,-1.7858223915100098,-3.3518972396850588,2.4932973384857179,-0.5399320125579834,-1.890504240989685,-4.268622398376465,2.359274387359619,-1.438133955001831,-3.3350276947021486,3.5034890174865724,-3.627865791320801,3.399104118347168,-0.15609058737754823,-0.7365971803665161,1.29563570022583,1.0534390211105347,-5.0,-2.8680498600006105,2.7041001319885256,2.7885708808898927,-0.8660476207733154,-3.4674124717712404,-3.798739433288574,-3.4412856101989748,0.275556355714798,-2.318413257598877,0.5872089862823486,1.355690360069275,2.6976265907287599,2.8243393898010256,-1.5052039623260499,3.4282402992248537,-5.0,-1.478670358657837,3.7598671913146974,3.0109405517578127,-1.257481336593628,1.79434335231781,-1.2801611423492432,-1.900137186050415,2.3680360317230226,-4.341707229614258,4.902751445770264,-0.763298749923706,4.467215061187744,0.16176915168762208,3.6001129150390627,-0.04614958167076111,-3.0235230922698976,-3.0519256591796877,-1.394480586051941,-2.566041946411133,-1.458435297012329,1.1392099857330323,-1.0582388639450074,0.6109548807144165,0.843292236328125],"l_hidden2OutputLayerWeights":[-3.459548234939575,-2.816246271133423,-1.0159069299697877,3.1911392211914064,-4.457553863525391,4.19512939453125,1.789371371269226,2.0655112266540529,-1.5665533542633057,1.5519459247589112,1.151793122291565,1.6759523153305054,-0.3252190351486206,4.091382026672363,-3.6984429359436037,4.898528575897217,2.568877696990967,-3.144843816757202,-2.9544878005981447,-1.9878126382827759,-2.320425271987915,-3.6028249263763429],"l_hiddenLayersNeuronsBias":[0.0,0.0,0.0,0.0,0.0,0.0,0.0,0.0,0.0,0.0,0.0]},{"i_score":26,"l_input2HiddenLayerWeights":[-1.097454309463501,5.0,2.019320011138916,-1.849820613861084,0.13042286038398744,3.571096420288086,3.695993423461914,1.6875017881393433,-4.7886962890625,3.0827622413635256,4.580498695373535,-0.6903542280197144,3.4257068634033205,1.922580361366272,-0.49326083064079287,-2.8749799728393556,-0.27573689818382265,3.656609535217285,4.694343090057373,-2.2162997722625734,-3.7135140895843508,3.290660858154297,1.699550747871399,0.5218175053596497,-0.13959452509880067,-5.0,-1.2512587308883668,2.183332920074463,-2.021467924118042,1.3938512802124024,-0.537283182144165,4.3761749267578129,-3.3795695304870607,0.3465642035007477,-2.172724485397339,0.6053072214126587,0.1028779149055481,1.869210124015808,0.6761701107025147,5.0,-4.840564250946045,-1.0449721813201905,-1.0767590999603272,0.1060495376586914,4.896284580230713,-3.0473432540893556,5.0,-4.241373538970947,-0.7825384140014648,0.33250105381011965,0.23809298872947694,1.0431289672851563,-0.1513429582118988,-3.1494479179382326,-0.2736755609512329,2.5350730419158937,-3.3482418060302736,2.2227325439453127,4.2267069816589359,3.8999037742614748,-2.843209981918335,-0.653260350227356,-1.761412501335144,1.6912121772766114,-1.1689813137054444,-2.992473840713501,3.4826393127441408,1.6261919736862183,-0.8787974119186401,-4.304349899291992,1.4752449989318848,-2.280792236328125,-3.7823963165283205,3.8113455772399904,-3.42641282081604,4.467604160308838,0.510552704334259,0.27321192622184756,2.5546722412109377,-1.4284398555755616,-4.803925514221191,-2.7941389083862306,2.701660394668579,1.2183502912521363,-0.4838256239891052,-4.469782829284668,0.7199201583862305,-2.992757797241211,-1.232210397720337,-3.059839963912964,1.0956469774246216,3.1468682289123537,3.5992281436920168,2.3804261684417726,0.27417561411857607,3.751330614089966,-5.0,-1.2078293561935425,5.0,3.351116895675659,-0.19511732459068299,1.1176540851593018,-2.630645275115967,-3.5851216316223146,4.194540023803711,-4.9576945304870609,2.141558885574341,0.527819037437439,4.235112190246582,2.6301164627075197,3.842982053756714,0.6692627668380737,-3.1952497959136965,-2.2673003673553469,-2.2632498741149904,-1.4462471008300782,-2.4260356426239015,0.4372003376483917,-1.1021665334701539,-0.43591219186782839,1.104803204536438],"l_hidden2OutputLayerWeights":[-5.0,-2.8425350189208986,-2.706568479537964,1.4796525239944459,-4.416740417480469,4.923583984375,3.4040727615356447,3.321805477142334,-3.032498836517334,1.3034906387329102,-0.760650634765625,2.2587108612060549,-0.283582478761673,3.923586368560791,-3.760267496109009,5.0,2.795443296432495,-3.9996438026428224,-3.657308578491211,-1.5483956336975098,-3.802772045135498,-2.6414408683776857],"l_hiddenLayersNeuronsBias":[0.0,0.0,0.0,0.0,0.0,0.0,0.0,0.0,0.0,0.0,0.0]},{"i_score":26,"l_input2HiddenLayerWeights":[-1.3688884973526,5.0,2.2902464866638185,-1.5505207777023316,-0.16589179635047913,4.041680335998535,1.8035342693328858,3.642557144165039,-4.331944465637207,2.9105985164642336,4.6410417556762699,1.0244348049163819,2.4247379302978517,1.358771562576294,-0.16600587964057923,-2.851294994354248,1.3958096504211426,3.8834595680236818,4.771738052368164,-1.7444376945495606,-2.0867345333099367,3.639949321746826,2.015561819076538,0.274566113948822,-0.28062817454338076,-4.208816051483154,-1.267899990081787,0.6243070363998413,-1.8552360534667969,1.901224136352539,-0.29181334376335146,4.373841285705566,-2.990661382675171,-0.6398595571517944,-2.825389862060547,0.407712459564209,0.8413673639297485,2.01611590385437,-0.6652977466583252,3.927083969116211,-4.252450942993164,-0.798757791519165,-1.3964229822158814,-1.461079716682434,4.110907077789307,-1.701088786125183,4.159577369689941,-5.0,-0.5677279233932495,0.3834766149520874,-1.1788078546524048,-0.5802466869354248,0.36912253499031069,-1.9512104988098145,-0.48699915409088137,2.311967372894287,-2.9629130363464357,3.6315507888793947,3.8656387329101564,4.651961803436279,-4.238858699798584,-0.1494428813457489,-1.8102526664733887,0.2905940115451813,-1.9976962804794312,-4.762876510620117,2.977994680404663,1.0751430988311768,-1.3142870664596558,-4.527698993682861,2.342478036880493,-3.843357563018799,-2.7586491107940676,2.5041677951812746,-3.1155879497528078,2.469923973083496,0.09909176826477051,-0.013094209134578705,2.770883321762085,0.5861166715621948,-4.176874160766602,-2.9975390434265138,2.322852611541748,3.376645088195801,-0.6470919847488403,-3.2228145599365236,1.80150306224823,-2.192678451538086,-1.5014212131500245,-1.6809576749801636,0.23343265056610108,0.9332126379013062,2.9311089515686037,2.7873740196228029,-1.1139030456542969,3.808168649673462,-3.7661962509155275,0.5450689792633057,4.283802509307861,2.269620895385742,-0.6058210134506226,3.3649096488952638,-1.274989366531372,-2.788668155670166,3.162851572036743,-4.712267875671387,3.872539520263672,-1.336286187171936,4.20106840133667,2.6424386501312258,4.543955326080322,0.34933120012283327,-5.0,-1.0007015466690064,-0.911258339881897,-2.5293056964874269,-1.773064374923706,-0.4533494710922241,-1.0542811155319214,-0.05055537819862366,2.8948049545288088],"l_hidden2OutputLayerWeights":[-5.0,-3.774108409881592,-2.241222381591797,2.71138858795166,-3.7013518810272219,4.705869674682617,1.4841876029968262,1.5906955003738404,-3.2141828536987306,1.6917896270751954,2.039201021194458,2.3835954666137697,0.06956670433282852,3.4714512825012209,-4.2795915603637699,4.365249156951904,2.8908066749572756,-3.1282591819763185,-1.9788904190063477,-3.103691339492798,-2.5572686195373537,-2.464604377746582],"l_hiddenLayersNeuronsBias":[0.0,0.0,0.0,0.0,0.0,0.0,0.0,0.0,0.0,0.0,0.0]},{"i_score":26,"l_input2HiddenLayerWeights":[0.5902557969093323,3.5819497108459474,1.4906343221664429,-2.3010153770446779,0.9694342613220215,3.7043988704681398,1.2840365171432496,1.470558762550354,-4.690708637237549,3.3900909423828127,4.753127098083496,-0.36733278632164,2.69993257522583,1.5293526649475098,-0.1759413182735443,-3.4861104488372804,1.2035692930221558,4.349709510803223,5.0,-1.392971396446228,-2.2234835624694826,3.5621371269226076,1.714308500289917,-0.03725612163543701,0.33696338534355166,-4.5651092529296879,-1.1046589612960816,0.2349076271057129,-1.975134015083313,1.3277387619018555,0.08336898684501648,1.4891310930252076,-4.225978851318359,1.111222743988037,-2.9553301334381105,1.0194127559661866,-0.11959208548069,2.3578543663024904,-0.6803803443908691,4.406707286834717,-4.699872016906738,-0.3954783082008362,-1.4271986484527588,-0.6979553699493408,4.471035003662109,-2.178250551223755,3.5736637115478517,-4.451886177062988,-0.3916592597961426,0.7045989036560059,-0.8096747398376465,-0.9674426317214966,-1.713532567024231,-2.9566781520843508,0.009753376245498658,2.534369707107544,-3.1535160541534426,2.226752996444702,3.865489959716797,4.546850204467773,-3.973177909851074,-0.2103177309036255,-2.097418785095215,1.743664264678955,-1.5933164358139039,-4.6394195556640629,3.051964044570923,0.6549134254455566,-2.041395664215088,-4.125765800476074,2.522049903869629,-1.7433233261108399,-2.3225672245025636,3.5520687103271486,-3.2489311695098879,4.914565563201904,-0.23383879661560059,-0.09118630737066269,2.6189963817596437,0.9839699268341065,-4.424206256866455,-2.372459888458252,2.4948835372924806,2.200310707092285,-0.9821612238883972,-3.842926502227783,2.5842552185058595,-3.0492916107177736,-0.024728119373321534,-1.9318773746490479,0.30891135334968569,1.029670000076294,3.0422778129577638,3.1654016971588136,-1.1943086385726929,3.8948974609375,-5.0,-0.736356258392334,5.0,3.278933048248291,-0.12391942739486695,1.469193935394287,-2.5026473999023439,-2.353858709335327,2.767772912979126,-4.9858717918396,4.359812259674072,-1.0246779918670655,4.706589698791504,1.497235655784607,4.462062358856201,-0.016287945210933687,-4.601116180419922,-3.314089298248291,-0.7868987321853638,-2.8334217071533205,-1.3333016633987427,0.04296300560235977,-1.4599390029907227,0.9282398223876953,2.584695816040039],"l_hidden2OutputLayerWeights":[-4.7083539962768559,-2.97836971282959,-1.5073091983795167,0.9611668586730957,-5.0,4.587302207946777,1.0673894882202149,2.466653823852539,-2.5370030403137209,2.123673439025879,3.0843584537506105,1.881770372390747,0.040777385234832767,4.438236713409424,-4.230639457702637,3.9466092586517336,2.7988529205322267,-3.3587851524353029,-2.544088840484619,-2.283111572265625,-2.445005416870117,-2.9137024879455568],"l_hiddenLayersNeuronsBias":[0.0,0.0,0.0,0.0,0.0,0.0,0.0,0.0,0.0,0.0,0.0]},{"i_score":26,"l_input2HiddenLayerWeights":[-0.6628755331039429,2.215179204940796,1.4605311155319214,-1.613718032836914,-0.2499043345451355,4.440944671630859,1.9707911014556885,3.8362903594970705,-3.8112034797668459,2.2475996017456056,4.933570861816406,-0.2394993007183075,2.8137946128845217,1.3393360376358033,0.6853656768798828,-1.8816899061203004,0.5228629112243652,4.629550457000732,5.0,-0.88484787940979,-3.3667831420898439,3.8154983520507814,2.217622995376587,-0.6332141160964966,-1.0427799224853516,-4.903468132019043,-1.3445987701416016,0.560296893119812,-1.6061588525772095,1.4420889616012574,-0.6382286548614502,3.6721913814544679,-3.3969857692718508,1.782981514930725,-3.4381465911865236,0.4250037372112274,-0.6080232858657837,2.850266933441162,1.2792224884033204,5.0,-5.0,-0.16909831762313844,-1.782129168510437,-0.5961962938308716,4.224791526794434,-1.6245231628417969,5.0,-4.631075859069824,-0.21117030084133149,0.15122473239898683,0.22457432746887208,-0.6175422668457031,-0.03849750757217407,-2.019670009613037,-0.3101462125778198,2.7200803756713869,-4.62962007522583,2.388519525527954,5.0,4.907707214355469,-3.973177909851074,-0.5475612878799439,-2.0153565406799318,1.7685307264328004,-1.0735112428665162,-3.706993579864502,3.1991231441497804,1.2467217445373536,-1.8476667404174805,-4.736196994781494,2.8434884548187258,-1.0626643896102906,-2.4684367179870607,3.4231789112091066,-3.6440649032592775,3.8232421875,0.5149245858192444,-1.3743911981582642,2.6189963817596437,0.8241610527038574,-5.0,-3.8347158432006838,2.8085989952087404,1.9550353288650513,-1.0504570007324219,-3.3501155376434328,3.188265085220337,-1.870400071144104,0.4294317960739136,-2.9131762981414797,1.8408033847808838,1.0024685859680176,3.0422778129577638,2.834209442138672,-1.890113115310669,3.559980630874634,-4.537454128265381,0.5912958383560181,4.3424577713012699,3.686034679412842,-1.9675215482711793,1.9760570526123047,-1.4580583572387696,-2.2137646675109865,3.227590560913086,-4.639603614807129,3.7889323234558107,-0.5574241876602173,4.518144607543945,1.4978337287902833,4.804221153259277,2.742814064025879,-3.133455991744995,-2.8307409286499025,-0.7868987321853638,-2.8334217071533205,-0.7374796271324158,-0.1395946741104126,-0.4567660093307495,-0.1913423389196396,1.8335728645324708],"l_hidden2OutputLayerWeights":[-4.628842830657959,-2.97836971282959,-1.2806787490844727,1.737524151802063,-4.204636573791504,2.9868407249450685,1.9197683334350587,-1.7711329460144044,-2.5370030403137209,2.0530405044555666,1.835412859916687,2.0412638187408449,-0.6853652000427246,4.13963508605957,-2.78143310546875,4.906496047973633,2.5564403533935549,-4.36490535736084,-2.544088840484619,-1.6978416442871094,-3.8050944805145265,-3.5092029571533205],"l_hiddenLayersNeuronsBias":[0.0,0.0,0.0,0.0,0.0,0.0,0.0,0.0,0.0,0.0,0.0]},{"i_score":26,"l_input2HiddenLayerWeights":[-1.1755926609039307,4.610612392425537,3.0103182792663576,-1.2309132814407349,0.18864452838897706,4.2612762451171879,2.799765110015869,3.857093334197998,-5.0,1.5923291444778443,4.423020839691162,-0.7052726745605469,2.5968363285064699,1.9771767854690552,-0.48350217938423159,-1.7783763408660889,0.2646365165710449,5.0,2.7183268070220949,-2.1468701362609865,-3.5271453857421877,3.9849259853363039,1.879073143005371,-0.028785139322280885,-2.0585811138153078,-3.3720943927764894,-2.111356019973755,0.8119794726371765,-1.5428402423858643,1.0480988025665284,-0.3287978172302246,3.8392493724823,-4.039373397827148,1.5708935260772706,-2.7151191234588625,-0.30560290813446047,-0.567577600479126,2.776319742202759,-0.8116687536239624,4.86855411529541,-4.842820644378662,-0.26086536049842837,-0.5597237348556519,-1.4734705686569214,3.927083969116211,-2.109797954559326,4.400332927703857,-4.584542751312256,-1.2540996074676514,0.4781041741371155,0.5103440284729004,-0.2019369751214981,-0.40537315607070925,-2.610520839691162,0.07441335171461106,2.358254909515381,-4.365598678588867,3.9738547801971437,4.058341979980469,3.9832730293273927,-3.978034257888794,0.5305383801460266,-2.8070790767669679,-0.08902937173843384,-2.8846452236175539,-4.72128438949585,2.5402092933654787,0.957528829574585,-1.5801688432693482,-4.133054733276367,2.4711239337921144,-1.4199100732803345,-3.909966468811035,2.451396942138672,-3.3015151023864748,2.412680149078369,0.054515063762664798,-1.090968132019043,4.340033054351807,0.7928527593612671,-4.654943466186523,-3.888009548187256,2.9854214191436769,2.7731237411499025,-0.6793156862258911,-3.4931724071502687,3.358567714691162,-1.645897626876831,0.43443936109542849,-1.6866133213043213,0.5669903755187988,1.274375081062317,1.66156005859375,2.7661023139953615,-1.3048851490020753,3.021252393722534,-5.0,-0.13727980852127076,4.707054138183594,2.9605326652526857,-0.20153698325157166,1.7318181991577149,-1.8964662551879883,-2.713258981704712,2.510960578918457,-4.588227272033691,4.622824668884277,-1.534303903579712,4.433013916015625,2.734633684158325,4.7492170333862309,0.9852254390716553,-4.991717338562012,-1.0353543758392335,-0.9229313135147095,-2.0213074684143068,-0.7685836553573608,-0.5003247261047363,-1.2323179244995118,-0.5613720417022705,1.481153130531311],"l_hidden2OutputLayerWeights":[-4.736352443695068,-2.318605422973633,-2.182734727859497,2.6461615562438967,-5.0,4.516350269317627,2.0237696170806886,-1.5039139986038209,-3.251298427581787,1.4466660022735596,1.7297459840774537,1.3060625791549683,0.5026960372924805,3.696742534637451,-4.208314895629883,5.0,2.18825101852417,-4.2786664962768559,-2.084139347076416,-1.340054988861084,-3.7255654335021974,-3.437303066253662],"l_hiddenLayersNeuronsBias":[0.0,0.0,0.0,0.0,0.0,0.0,0.0,0.0,0.0,0.0,0.0]},{"i_score":26,"l_input2HiddenLayerWeights":[-1.191806435585022,2.7388827800750734,2.8719606399536135,-1.441617727279663,-0.3806162178516388,5.0,3.57757830619812,2.592472553253174,-5.0,2.970383882522583,4.990078449249268,0.8764513731002808,0.989997386932373,0.7504304647445679,1.2584342956542969,-0.8604090213775635,0.7001723051071167,4.214070796966553,3.5268428325653078,-0.48365873098373415,-3.4031119346618654,3.441352128982544,1.6949305534362794,0.010100841522216797,-1.6743916273117066,-3.0158731937408449,-1.5295121669769288,0.7764867544174194,-1.5234758853912354,1.7538076639175416,1.1687957048416138,1.0309702157974244,-3.550030469894409,0.7989232540130615,-3.525542974472046,0.7208585739135742,-0.7115399837493897,2.6862246990203859,-0.5741780996322632,4.706871509552002,-3.3274261951446535,-0.7527806162834168,0.015438586473464966,-0.11263617873191834,3.501436233520508,-3.614633798599243,4.008478164672852,-4.958944797515869,-0.8328843712806702,-0.30871114134788515,0.5181322693824768,1.2062735557556153,-1.2777881622314454,2.7604894638061525,0.06675252318382263,3.438904285430908,-4.193065643310547,1.6036938428878785,4.2984209060668949,4.463813781738281,-2.99528169631958,-0.13678118586540223,-1.8544474840164185,0.058693595230579379,-2.880763292312622,-3.9341320991516115,3.1654882431030275,-0.40207305550575259,-1.759374737739563,-4.624160289764404,2.6843762397766115,0.7221710681915283,-2.655975103378296,3.2122251987457277,-2.8721046447753908,3.618671417236328,-0.3585805594921112,-0.14074420928955079,2.7622528076171877,1.4610960483551026,-4.6166839599609379,-3.8062894344329836,2.497002601623535,3.7052884101867677,-0.9038037061691284,-3.520359992980957,-3.915971040725708,-2.6840474605560304,-0.46596014499664309,-2.0699894428253176,0.18548229336738587,1.121069312095642,3.4853415489196779,2.8793253898620607,-2.420164108276367,1.8926334381103516,-4.332064151763916,-0.94566810131073,3.8569540977478029,3.2369043827056886,-1.2089911699295045,3.355970621109009,-1.35392165184021,-2.3088040351867677,3.170353651046753,-4.1395344734191898,5.0,-1.663378119468689,4.873653888702393,1.7580875158309937,4.034659385681152,1.3903629779815674,-4.670083999633789,-2.698329448699951,-0.3034309446811676,-3.3626163005828859,-0.9850863218307495,0.5451499819755554,-1.7196948528289796,1.5837407112121583,1.2888754606246949],"l_hidden2OutputLayerWeights":[-4.869269371032715,-2.6072185039520265,-1.2497330904006959,2.272711992263794,-5.0,4.463311195373535,1.112984538078308,-1.9960885047912598,-0.2049327790737152,1.326930284500122,2.7356040477752687,2.358820915222168,-0.36003485321998598,3.216165542602539,-3.450056552886963,3.072305679321289,3.128567934036255,-3.595200538635254,-2.57603120803833,-1.8221032619476319,-2.5936577320098879,-3.48004412651062],"l_hiddenLayersNeuronsBias":[0.0,0.0,0.0,0.0,0.0,0.0,0.0,0.0,0.0,0.0,0.0]},{"i_score":26,"l_input2HiddenLayerWeights":[-0.33548593521118166,4.2246246337890629,2.381939172744751,-1.4303877353668213,-0.6489279270172119,4.068635940551758,1.7490742206573487,3.914595603942871,-3.798880100250244,2.4346187114715578,2.811952829360962,-0.11865052580833435,2.6352243423461916,1.6743950843811036,0.23711690306663514,-2.4080004692077638,1.6977838277816773,4.645659923553467,4.754626750946045,-1.3979779481887818,-3.2246830463409426,3.7390928268432619,1.8734464645385743,-0.7230334877967835,-1.2298994064331055,-4.358523368835449,-1.3181910514831544,1.4674208164215088,-1.4812939167022706,1.4978810548782349,-0.6599421501159668,4.745736122131348,-4.752015590667725,-0.3643503487110138,-2.0920510292053224,0.7565566301345825,0.4403679072856903,2.3185980319976808,1.0470103025436402,4.194477081298828,-4.152194976806641,-0.5924813747406006,-1.0951751470565797,-1.6315507888793946,3.3399734497070314,-2.9164788722991945,4.400832176208496,-4.130677700042725,-0.9364103078842163,-0.020979903638362886,0.7751872539520264,0.03938698023557663,0.09746500849723816,-3.000810146331787,-1.3389439582824708,2.0068483352661135,-3.7759416103363039,3.6956028938293459,4.475826263427734,3.906742572784424,-3.8975160121917726,0.3104049563407898,-1.2496079206466675,0.17786076664924622,-3.0211403369903566,-4.425970077514648,3.1965503692626955,0.6653949022293091,-1.2869988679885865,-4.878688335418701,2.74993634223938,-2.39021635055542,-3.486276865005493,2.9513938426971437,-4.896450996398926,3.057792901992798,0.17898160219192506,-0.6889245510101318,3.020421028137207,0.9991154670715332,-4.585657119750977,-3.0721359252929689,2.8612289428710939,3.5440728664398195,-1.7480977773666382,-3.6109023094177248,1.3651654720306397,-2.0961904525756838,-1.0489606857299805,-1.5392792224884034,0.09464547038078308,1.6091974973678589,2.4428553581237795,3.0400261878967287,-1.1890878677368165,3.5116934776306154,-4.653629302978516,-0.5105267763137817,4.554865837097168,2.6916768550872804,-0.25768551230430605,2.9507226943969728,-2.632518768310547,-2.3639822006225588,0.6390857696533203,-4.411728858947754,4.1744160652160648,-1.8458729982376099,4.890965938568115,2.7413580417633058,4.126183986663818,0.1348363161087036,-3.2399959564208986,-3.1219491958618166,-0.9456145167350769,-1.4463595151901246,-1.8231322765350342,-0.49124500155448916,0.11523181200027466,-0.41452479362487795,2.1944446563720705],"l_hidden2OutputLayerWeights":[-5.0,-3.852436065673828,-0.1375388205051422,2.3479700088500978,-4.762727737426758,4.287712097167969,1.6815768480300904,2.001199722290039,-1.8372751474380494,0.46814703941345217,-0.12749317288398744,2.4944815635681154,-0.43163058161735537,3.868612766265869,-3.7401559352874758,3.786912202835083,2.9656710624694826,-3.4658892154693605,-2.17450213432312,-2.696495294570923,-3.1898155212402345,-2.249619722366333],"l_hiddenLayersNeuronsBias":[0.0,0.0,0.0,0.0,0.0,0.0,0.0,0.0,0.0,0.0,0.0]},{"i_score":26,"l_input2HiddenLayerWeights":[-0.4848300516605377,2.5929088592529299,1.8799185752868653,-1.8994756937026978,0.14144951105117799,3.1939189434051515,2.699000358581543,4.2652907371521,-4.124526500701904,3.983412981033325,4.723599433898926,2.0102896690368654,2.745965003967285,0.6552982330322266,-0.35504093766212466,-2.596710205078125,1.8754938840866089,4.447281360626221,4.979633331298828,-1.0910190343856812,-2.5926408767700197,3.3489556312561037,2.3739824295043947,0.2077016532421112,0.17562171816825868,-3.605642795562744,-1.9433162212371827,-0.6814248561859131,-1.7750743627548218,2.405636787414551,0.13122981786727906,2.7241342067718508,-4.016430854797363,1.3147668838500977,-3.049823522567749,0.1870136260986328,0.3445934057235718,2.368077278137207,0.4533335268497467,4.916314125061035,-5.0,-1.278151273727417,-1.8723546266555787,-1.504206657409668,2.6038753986358644,-0.8951252698898315,3.5013198852539064,-4.498544692993164,-1.219863772392273,0.6386889219284058,0.8336867094039917,0.2550426721572876,-1.8994402885437012,2.725024700164795,-0.11377418041229248,3.9601645469665529,-3.424321174621582,2.704864025115967,5.0,3.8612778186798097,-3.775897264480591,0.17201125621795655,-2.9235334396362306,0.6614184379577637,-2.2963979244232179,-4.54506778717041,3.5836780071258547,1.0155706405639649,-1.7810065746307374,-3.561056613922119,2.065129280090332,-1.8932918310165406,-3.4531478881835939,3.5270044803619386,-3.095582962036133,2.9625072479248049,0.5469574928283691,-0.12318328022956848,1.9346188306808472,0.7701696157455444,-4.893850803375244,-3.193044662475586,2.7154619693756105,1.1022809743881226,-1.176484227180481,-4.729151725769043,2.2227156162261965,-3.334484815597534,-0.9842467308044434,-2.2520432472229006,0.5377408266067505,0.8944793939590454,3.7537810802459719,2.926764726638794,-1.5131672620773316,4.4560546875,-4.29664421081543,-0.6726956963539124,5.0,3.1264944076538088,-0.6007702350616455,2.853910207748413,-1.4702746868133546,-2.5317368507385256,2.8319318294525148,-4.178887367248535,4.564786434173584,-1.237718939781189,4.877089500427246,2.808715581893921,3.6625821590423586,0.45197200775146487,-3.0481066703796388,-1.8833717107772828,-1.028205394744873,-1.2025989294052125,-1.3795377016067505,-0.44563713669776919,-1.0148624181747437,-0.003827109932899475,1.2801607847213746],"l_hidden2OutputLayerWeights":[-3.567134141921997,-3.258646011352539,-2.2464778423309328,3.1775248050689699,-5.0,4.041421890258789,2.3884191513061525,1.800065040588379,-3.452868938446045,1.5363531112670899,0.1747296154499054,2.8126325607299806,-0.6423901915550232,3.7543106079101564,-4.850203514099121,4.763073921203613,2.5999550819396974,-3.972689151763916,-2.923218250274658,-2.499338150024414,-1.2362760305404664,-3.441272497177124],"l_hiddenLayersNeuronsBias":[0.0,0.0,0.0,0.0,0.0,0.0,0.0,0.0,0.0,0.0,0.0]},{"i_score":26,"l_input2HiddenLayerWeights":[-1.1994407176971436,3.9495675563812258,2.637505054473877,-1.1892744302749634,0.3476502001285553,3.2406041622161867,1.6490391492843629,3.3598668575286867,-4.960585594177246,3.4132943153381349,4.370165824890137,0.21737352013587953,2.536304473876953,1.653793454170227,0.9895276427268982,-2.6532254219055177,0.486726850271225,3.976633071899414,3.761641263961792,-2.365817070007324,-2.5445964336395265,3.796149730682373,1.814646601676941,1.0174835920333863,-1.2849713563919068,-4.552173614501953,-1.7420120239257813,-0.9791401624679565,-2.286977767944336,1.3938512802124024,1.0673507452011109,1.4869625568389893,-4.641209602355957,1.6874208450317383,-2.74826717376709,-0.6377367973327637,-0.31919926404953005,1.9868988990783692,0.6164268255233765,4.91428804397583,-5.0,0.006035178899765015,-1.9053304195404053,-1.476867437362671,4.803293704986572,-1.6470355987548829,3.197521209716797,-5.0,-0.24695268273353578,0.46302664279937746,-0.5460260510444641,1.1248724460601807,0.6164877414703369,-1.713997483253479,-0.1909281611442566,2.002203941345215,-3.082442283630371,2.5518875122070314,5.0,3.8994228839874269,-2.545553684234619,-0.39424943923950198,-2.4355862140655519,1.7708266973495484,-1.6941568851470948,-3.2413530349731447,4.057703018188477,-0.23548749089241029,-0.8570945262908936,-4.516122817993164,2.6973447799682619,-2.581862449645996,-3.6265337467193605,3.2536911964416506,-3.031344413757324,5.0,0.45840349793434145,-0.6420351266860962,2.804593563079834,1.3022018671035767,-4.655389308929443,-2.913917064666748,1.3358123302459717,2.335764169692993,-0.6909734010696411,-3.6201319694519045,2.639627456665039,-1.7646716833114625,-0.045622289180755618,-2.425067901611328,0.7907495498657227,2.443788528442383,2.365164041519165,3.1308436393737795,-0.8426042199134827,4.208856105804443,-4.87462043762207,-0.593245267868042,4.466048717498779,2.365248203277588,-1.0001882314682007,2.3631746768951418,-2.1215152740478517,-2.0669243335723879,3.84114408493042,-5.0,4.324646949768066,-1.3276712894439698,3.7813754081726076,2.137888193130493,3.41530442237854,1.0287697315216065,-3.6559090614318849,-3.2146522998809816,-0.6974763870239258,-2.781012535095215,-2.915074586868286,-0.7501649856567383,-1.3035846948623658,0.20451945066452027,2.013462543487549],"l_hidden2OutputLayerWeights":[-4.040341377258301,-3.2151942253112795,-2.574079990386963,2.8013675212860109,-4.9677839279174809,4.199731826782227,1.5716074705123902,1.7412346601486207,-1.1620432138442994,0.6749792098999023,1.730701208114624,1.8083343505859376,0.11616995930671692,4.080391883850098,-4.544873237609863,3.494208574295044,2.5948803424835207,-3.365255832672119,-3.106232166290283,-1.6250427961349488,-2.0845589637756349,4.622869491577148],"l_hiddenLayersNeuronsBias":[0.0,0.0,0.0,0.0,0.0,0.0,0.0,0.0,0.0,0.0,0.0]},{"i_score":26,"l_input2HiddenLayerWeights":[-0.3138999342918396,3.1735634803771974,3.219095468521118,-1.6108955144882203,0.4830944240093231,4.174668788909912,2.8962607383728029,3.9659218788146974,-4.993016242980957,4.101888656616211,4.819576263427734,1.284003496170044,2.8072896003723146,1.4274626970291138,0.9982209205627441,-1.618610143661499,0.7934871912002564,4.158124923706055,4.208317279815674,-0.9265158176422119,-2.1651828289031984,3.795116424560547,0.6215330362319946,-1.3820858001708985,-0.3685656785964966,-3.4534802436828615,-0.9531396627426148,0.7846060991287231,-1.85696280002594,2.4312872886657717,0.17808103561401368,1.2438009977340699,-3.9092154502868654,1.1005347967147828,-1.789340853691101,-1.085767388343811,-0.1882779747247696,1.4046943187713624,0.3652838468551636,4.92338228225708,-4.231415748596191,-0.961132287979126,-1.8919920921325684,-0.5605751276016235,4.302987575531006,-3.4518303871154787,4.924500465393066,-5.0,0.5478729009628296,-0.9559324979782105,0.2170553207397461,-0.8477218151092529,-0.8232645988464356,-2.9914557933807375,0.9647780060768127,2.110506057739258,-3.5766282081604006,2.4303503036499025,5.0,3.3975729942321779,-4.289850234985352,0.35294076800346377,-3.989184856414795,0.10297774523496628,-1.9144139289855958,-4.2686614990234379,3.7661426067352297,-0.28372371196746828,-1.7710669040679932,-4.720216274261475,2.550842761993408,-0.9450100660324097,-3.2943270206451418,2.294935941696167,-4.497371673583984,3.7436070442199709,-0.9483988285064697,-0.1829724907875061,1.6541292667388917,-1.5268125534057618,-4.018406391143799,-3.5250890254974367,0.9873013496398926,3.7348906993865969,-1.2191723585128785,-4.218721866607666,2.5220890045166017,-3.0288281440734865,-1.8009508848190308,-3.0782523155212404,0.06457558274269104,0.6778964996337891,3.1227359771728517,2.9386818408966066,-1.6988153457641602,4.435927391052246,-4.682294845581055,-0.8905344605445862,4.563021659851074,2.506326675415039,-0.3881460428237915,1.970180869102478,-1.4727745056152344,-2.080244779586792,4.829728603363037,-4.298556804656982,4.27698278427124,-1.7206419706344605,3.975945472717285,1.843597412109375,4.814878463745117,-0.1520346701145172,-3.098705530166626,-1.7488322257995606,-0.5165490508079529,-1.0181914567947388,-1.5673121213912964,1.973650336265564,-0.9174230098724365,1.230136752128601,2.8460469245910646],"l_hidden2OutputLayerWeights":[-4.683762073516846,-2.9933605194091799,-1.1866154670715333,2.8912055492401125,-5.0,4.595973491668701,0.47942912578582766,2.123652935028076,-1.3272625207901,1.5864815711975098,1.9216011762619019,2.454328775405884,-0.16261151432991029,2.9724814891815187,-3.801379680633545,4.700172424316406,2.5081992149353029,-2.72550630569458,-2.509120225906372,-2.676994800567627,-1.9713037014007569,-3.4762117862701418],"l_hiddenLayersNeuronsBias":[0.0,0.0,0.0,0.0,0.0,0.0,0.0,0.0,0.0,0.0,0.0]},{"i_score":26,"l_input2HiddenLayerWeights":[-0.05545946955680847,4.336094379425049,1.4352989196777344,-1.3834763765335084,0.7453330755233765,4.665437698364258,2.3756744861602785,4.776061058044434,-4.924026966094971,2.32110333442688,4.547590255737305,1.2218906879425049,1.4426368474960328,1.3251678943634034,-0.6066452264785767,-3.179074764251709,-4.776434898376465,3.9588541984558107,5.0,-2.1029491424560549,-3.39139723777771,3.856997013092041,1.5178872346878052,0.4776949882507324,-0.4631598889827728,-4.374603748321533,-2.4875192642211916,-0.5318983793258667,-1.1674249172210694,3.353879690170288,-0.37065979838371279,5.0,-3.8175277709960939,1.4927395582199097,-2.6090259552001955,1.0317323207855225,-1.06170654296875,2.382640838623047,0.7038875818252564,4.602413177490234,-3.693593978881836,0.04161173105239868,-1.2908494472503663,-0.8171851634979248,3.67037034034729,-1.881808876991272,5.0,-4.138823986053467,-0.9659861326217651,-0.27232825756073,-0.9736932516098023,0.28226912021636965,-1.1563252210617066,-2.9129691123962404,-1.7634403705596924,4.4237380027771,-3.4440908432006838,2.2373738288879396,4.709135055541992,3.842984199523926,-4.127857208251953,0.1448846161365509,-1.7223840951919556,