{"l_brains":[{"i_score":26,"l_input2HiddenLayerWeights":[-1.5451446771621705,3.152207851409912,2.071840763092041,-1.6738165616989136,1.5619829893112183,4.334114074707031,2.728769540786743,1.8162165880203248,-4.0271830558776859,2.747293710708618,5.0,0.7162913084030151,1.3782386779785157,0.9947857856750488,0.3294990062713623,-1.8145066499710084,1.8611156940460206,4.256627559661865,4.029760360717773,-1.62212336063385,-2.5696656703948976,4.23939847946167,1.5887583494186402,-0.5200701951980591,-0.6794120073318481,-4.467401504516602,-1.8150572776794434,-0.09734580665826798,-1.2469087839126588,0.6851245164871216,-0.24171707034111024,2.29677152633667,-4.554230690002441,1.3425190448760987,-2.7779908180236818,0.4217146635055542,0.6280136108398438,1.4610813856124879,0.2145545482635498,4.880068778991699,-4.346720218658447,-0.23152783513069154,-1.3724383115768433,0.19263345003128053,5.0,-1.056946039199829,4.707345485687256,-3.205595016479492,-0.8457672595977783,-0.4778349697589874,-1.4277269840240479,-0.5737175941467285,-2.0183358192443849,-2.433234930038452,-1.3372949361801148,2.5573954582214357,-5.0,2.771601676940918,4.755036354064941,4.075552463531494,-4.895134925842285,-0.9080212116241455,-2.6349620819091799,1.367794156074524,-1.192723274230957,-3.210341453552246,2.760646343231201,0.545189380645752,-0.24919024109840394,-4.679927825927734,2.8251867294311525,-1.8198972940444947,-2.43756365776062,3.5434353351593019,-3.1733968257904054,4.972067832946777,0.592151939868927,-0.822437047958374,2.4131932258605959,-0.5153157711029053,-4.5742506980896,-3.443664312362671,2.476844072341919,1.6387423276901246,-1.600455641746521,-3.6123013496398927,2.8017895221710207,-3.213320255279541,-0.857288122177124,-1.6831519603729249,1.4055060148239136,1.3244487047195435,3.5572752952575685,3.276723861694336,-1.2561053037643433,3.4248247146606447,-4.579982757568359,-1.316741704940796,4.683110237121582,2.380120277404785,-2.0141801834106447,2.374235153198242,-1.5818759202957154,-2.527117967605591,2.8760108947753908,-4.640509605407715,3.1512537002563478,-0.9640435576438904,4.052373886108398,3.2197892665863039,4.901243209838867,0.8078974485397339,-2.5877134799957277,-1.484139084815979,-0.7827187776565552,-2.472871780395508,-1.284024715423584,0.9994903802871704,-0.8177447319030762,1.3294061422348023,2.175980806350708],"l_hidden2OutputLayerWeights":[-4.9357428550720219,-2.511460304260254,-1.8768366575241089,1.0876593589782715,-5.0,4.546144962310791,1.5831389427185059,1.7558844089508057,-1.772720456123352,2.154454231262207,0.5251264572143555,2.3781676292419435,-0.29680749773979189,2.9612531661987306,-3.0869078636169435,4.039041519165039,3.5052318572998049,-3.8399407863616945,-3.685638904571533,-2.5240116119384767,-1.3088510036468506,-3.5266385078430177],"l_hiddenLayersNeuronsBias":[0.0,0.0,0.0,0.0,0.0,0.0,0.0,0.0,0.0,0.0,0.0]},{"i_score":26,"l_input2HiddenLayerWeights":[-1.6421220302581788,4.893408298492432,2.332456111907959,-1.4350565671920777,-1.1671199798583985,4.5336995124816898,1.6519641876220704,1.9752812385559083,-4.236209392547607,-2.5473692417144777,4.583996772766113,1.291476845741272,2.2246639728546144,1.25066339969635,0.1987033486366272,-3.27252197265625,1.1194217205047608,3.4769699573516847,5.0,-1.56582772731781,-3.6462817192077638,3.448115587234497,1.541477084159851,-0.08915293216705322,-0.7521144151687622,-4.291198253631592,-2.8006913661956789,1.0213323831558228,-2.7375574111938478,1.88871431350708,-1.167952060699463,3.951441764831543,-4.640878677368164,0.8139969110488892,-2.872431755065918,-0.2422609031200409,-0.01313820481300354,2.317944288253784,0.29676902294158938,4.523343086242676,-4.0870184898376469,-1.0477397441864014,-1.2764809131622315,-1.4138857126235963,3.080805778503418,-1.7361745834350587,4.964433670043945,-4.187002182006836,-2.4755148887634279,1.3741511106491089,-0.051693230867385867,-0.7223186492919922,-1.534388542175293,-3.679859161376953,-0.02127307653427124,1.6443039178848267,-3.4024343490600588,2.535055160522461,5.0,4.145068168640137,-3.963306427001953,0.39277932047843935,-3.697512626647949,0.5370045900344849,-2.2484917640686037,-3.931654453277588,2.9508578777313234,0.4776942729949951,-1.5603770017623902,-3.7960739135742189,2.6585566997528078,-1.5903152227401734,-3.4503536224365236,2.06831693649292,-4.695974349975586,4.011108875274658,0.24292436242103578,0.8633182048797607,0.7787102460861206,0.6636134386062622,-4.945864200592041,-2.8964359760284426,2.446364641189575,1.571138858795166,-0.8568111658096314,-3.0025625228881838,3.1087374687194826,-1.463729739189148,-1.3677051067352296,-2.0196468830108644,0.4702965319156647,0.7483946084976196,2.5728678703308107,2.2709107398986818,-0.12495821714401245,2.12583589553833,-4.60185432434082,-0.9009472131729126,3.313897132873535,3.103489875793457,-0.41752976179122927,0.920121431350708,-2.260626792907715,-2.4802117347717287,4.343105316162109,-5.0,4.534088134765625,-1.132325291633606,4.7375264167785648,1.7712308168411255,2.8664538860321047,0.25732699036598208,-2.249116897583008,-1.7055740356445313,-1.1601204872131348,-2.8046982288360597,-2.058053970336914,-0.5914989709854126,-1.375683069229126,0.6144636869430542,1.5610113143920899],"l_hidden2OutputLayerWeights":[-3.3128607273101808,-1.6551778316497803,-0.4302600622177124,2.6289186477661135,-4.272350311279297,4.573816299438477,0.7081750631332398,3.0383660793304445,-2.4708056449890138,0.3369264602661133,0.4424757957458496,2.5068869590759279,0.03190118074417114,3.5733604431152345,-3.559643268585205,3.9681339263916017,1.7539005279541016,-3.5581932067871095,-2.9373490810394289,-2.0814948081970217,-3.0715296268463136,-2.945258855819702],"l_hiddenLayersNeuronsBias":[0.0,0.0,0.0,0.0,0.0,0.0,0.0,0.0,0.0,0.0,0.0]},{"i_score":26,"l_input2HiddenLayerWeights":[-0.05545946955680847,3.623779773712158,1.4352989196777344,-1.7218343019485474,-0.6590563058853149,4.665437698364258,3.371112108230591,2.1260855197906496,-4.999297142028809,3.7023539543151857,4.9560346603393559,1.2218906879425049,2.710602045059204,0.9937828779220581,1.4035176038742066,-3.50524640083313,2.242952585220337,4.7168779373168949,3.613070487976074,-2.9919300079345705,-3.711920738220215,4.113135814666748,1.8195563554763795,-0.5018984079360962,-1.5714648962020875,-3.578080177307129,-1.627846598625183,1.9362399578094483,-3.062955379486084,1.4531702995300294,-1.5757758617401124,5.0,-3.955244302749634,1.4144299030303956,-2.1413090229034426,0.48938116431236269,0.13359427452087403,2.382640838623047,-0.732632040977478,4.909015655517578,-4.385994911193848,0.15866521000862122,-1.3441215753555298,-0.3559569716453552,3.67037034034729,-1.7617650032043458,4.419693470001221,-4.623784065246582,-0.2808769643306732,0.3304615616798401,1.0966445207595826,-0.9090107679367065,-1.528942584991455,-3.830449342727661,0.7323873043060303,3.321686029434204,-3.3418190479278566,3.060664653778076,4.709135055541992,5.0,-4.1777496337890629,-0.3523300290107727,-2.1377391815185549,0.20944911241531373,-1.6484867334365845,-3.9121296405792238,1.9990003108978272,0.5228755474090576,-0.26250985264778139,-3.7311739921569826,2.522916316986084,-0.7480441927909851,-3.801896333694458,1.7798842191696168,-3.14752459526062,4.612438201904297,-0.6979199647903442,-0.38828012347221377,3.808258533477783,0.04884883761405945,-4.794276714324951,-2.3548572063446047,2.710862159729004,1.9016680717468262,-2.8645832538604738,-3.9321846961975099,2.362142324447632,-2.5789690017700197,0.5885848999023438,-2.6097187995910646,0.6146125793457031,2.0886664390563967,2.9210152626037599,3.552203893661499,-1.3307925462722779,3.0764453411102297,-3.5251660346984865,0.06981014460325241,3.6871016025543215,3.830397605895996,-1.4581046104431153,1.0249643325805665,-1.1974196434020997,-2.19260573387146,2.718050241470337,-4.441301345825195,4.353516578674316,-1.0740966796875,3.5524425506591799,1.679152250289917,4.651466369628906,0.03322601318359375,-4.7078094482421879,-0.7881075143814087,-0.13434290885925294,-1.5504697561264039,-2.556675910949707,-0.37637990713119509,-0.851484477519989,1.1483932733535767,0.8123835325241089],"l_hidden2OutputLayerWeights":[-4.669703006744385,-2.3027560710906984,-2.4185304641723635,1.3206803798675538,-4.931064605712891,3.930197238922119,-1.8553811311721802,3.68560791015625,-3.3103690147399904,0.7117185592651367,1.989478588104248,1.670982837677002,0.15040236711502076,5.0,-4.077080726623535,4.388357639312744,3.816167116165161,-3.3868606090545656,-0.9240963459014893,-2.4328536987304689,-2.1373534202575685,-2.6614904403686525],"l_hiddenLayersNeuronsBias":[0.0,0.0,0.0,0.0,0.0,0.0,0.0,0.0,0.0,0.0,0.0]},{"i_score":26,"l_input2HiddenLayerWeights":[-0.4769042432308197,4.0194549560546879,2.452923059463501,-1.6362009048461915,-0.5343531370162964,3.649610757827759,3.2126450538635256,1.7288626432418824,-4.909992218017578,3.222654104232788,4.748382568359375,1.585976243019104,1.681006908416748,1.539696216583252,0.6545917987823486,-2.495511531829834,0.5519093871116638,4.336423873901367,3.621316432952881,-1.3855528831481934,-3.4877426624298097,3.3246982097625734,2.154055595397949,-0.0881633460521698,-0.15690666437149049,-3.1154561042785646,-1.334346890449524,2.1477134227752687,-1.4742375612258912,1.9669146537780762,0.28370237350463869,4.523481369018555,-4.763250827789307,1.3064550161361695,-2.3937675952911379,0.22892805933952332,-0.5125962495803833,3.2873361110687258,0.6553201675415039,4.081550598144531,-5.0,-0.4848530888557434,-1.714902400970459,-0.40852436423301699,3.5741190910339357,-2.7774620056152345,4.607093811035156,-4.0500030517578129,-1.2328636646270753,-0.6417019367218018,-0.21230408549308778,0.9494129419326782,-2.3193092346191408,-2.275559902191162,0.45326316356658938,2.826728105545044,-3.680449962615967,2.575730085372925,4.927290916442871,3.447082042694092,-4.757264137268066,0.28403937816619875,-2.115753412246704,1.5808029174804688,-2.0091209411621095,-4.014235496520996,3.787614583969116,0.7283358573913574,2.8672685623168947,-4.16126823425293,2.59753155708313,-1.3840408325195313,-2.9695119857788088,2.8335232734680177,-3.0481724739074709,3.3489937782287599,-0.8736356496810913,0.0054396092891693119,2.3644638061523439,0.5727373361587524,-5.0,-3.688495635986328,2.5204992294311525,1.5433950424194337,-2.0103442668914797,-3.625147581100464,2.3066375255584719,-2.391033411026001,-1.0198742151260377,-2.4818685054779054,0.31040242314338686,1.4870671033859254,2.371384382247925,3.6695704460144045,-1.3811719417572022,3.4112837314605715,-4.066781044006348,-0.0024499595165252687,4.294360160827637,3.0932836532592775,-0.7744463682174683,1.6211384534835816,-2.348155975341797,-2.771488666534424,3.6274871826171877,-5.0,3.340150833129883,-1.0628981590270997,4.5699286460876469,1.5401140451431275,3.8177030086517336,-0.265885591506958,-5.0,-1.280220866203308,-1.7999461889266968,-3.170030117034912,-1.3502038717269898,-0.5940520763397217,-0.6030312180519104,0.41585010290145876,0.9725745916366577],"l_hidden2OutputLayerWeights":[-4.477398872375488,-1.9144341945648194,-0.8292890787124634,2.6048967838287355,-4.247636318206787,4.650191307067871,2.8959193229675295,1.9289307594299317,-1.5590518712997437,1.3531582355499268,2.5305020809173586,2.3659324645996095,-1.4271847009658814,4.016347885131836,-4.156067371368408,4.052698135375977,2.8793725967407228,-3.3240394592285158,-2.220738172531128,-1.606231927871704,-2.997314691543579,-2.7603981494903566],"l_hiddenLayersNeuronsBias":[0.0,0.0,0.0,0.0,0.0,0.0,0.0,0.0,0.0,0.0,0.0]},{"i_score":26,"l_input2HiddenLayerWeights":[-0.7912353277206421,4.127896785736084,2.3104407787323,-1.356603980064392,-0.00145760178565979,4.253393650054932,1.6837810277938843,3.494239568710327,-3.5440545082092287,-2.2967448234558107,4.987807273864746,-0.09679803252220154,3.6364426612854006,1.606330394744873,-0.06795147061347962,-3.021888494491577,1.7546217441558838,3.4483821392059328,4.663524627685547,-1.8579128980636597,-2.0528292655944826,4.157149314880371,1.8878514766693116,0.7902148962020874,-0.8228522539138794,-3.6375269889831545,-1.3799455165863038,0.7767359018325806,-2.7277259826660158,1.719993233680725,-1.0707510709762574,5.0,-4.741282939910889,1.2025216817855836,-2.6936144828796388,1.2000808715820313,0.3112151324748993,2.9421772956848146,-0.6912504434585571,4.366894721984863,-4.365076065063477,-0.9065191745758057,-1.8049120903015137,-2.2926745414733888,4.528580665588379,-2.593735456466675,5.0,-4.98793888092041,-1.4842718839645386,0.09422779083251953,-0.17952433228492738,0.18066556751728059,-2.199873447418213,-3.4791359901428224,-1.5366942882537842,2.0774645805358888,-3.805748224258423,2.0998752117156984,4.842848777770996,4.597640514373779,-4.902215957641602,0.3385255038738251,-2.4956507682800295,1.260427713394165,-1.691776990890503,-3.761178970336914,2.8568012714385988,1.0859979391098023,-1.2340189218521119,-3.9099082946777345,2.551105260848999,-1.3960131406784058,-2.5961036682128908,2.506304979324341,-3.6975860595703127,3.8976001739501955,0.07903691381216049,-0.5413867235183716,3.209048271179199,0.14158698916435243,-5.0,-3.4804282188415529,2.2004175186157228,2.4021012783050539,-1.6906750202178956,-3.3721795082092287,2.591945171356201,-1.7692787647247315,-0.23984068632125855,-1.623499870300293,1.308353066444397,1.7664399147033692,2.881424903869629,2.9016847610473635,-1.200286626815796,3.897914409637451,-3.517826557159424,-0.5637549161911011,5.0,3.2669925689697267,-1.8494553565979005,1.041819453239441,-2.2459495067596437,-2.732675790786743,2.5519723892211916,-5.0,2.464808940887451,-0.8064504861831665,4.360771179199219,1.80996835231781,4.486673355102539,1.2318148612976075,-4.099583625793457,-2.6202149391174318,-1.4344439506530762,-1.6327528953552247,-1.4501895904541016,-0.18258413672447205,-0.3321773409843445,1.1681599617004395,2.1917905807495119],"l_hidden2OutputLayerWeights":[-4.118224143981934,-1.9395174980163575,-1.3045463562011719,3.096940517425537,-4.390584945678711,4.578449249267578,2.464618444442749,2.147613525390625,-1.5335863828659058,1.0048539638519288,1.640705943107605,2.597356081008911,-0.7179421186447144,4.4875898361206059,-3.313887596130371,4.400712966918945,2.8239126205444338,-3.5751945972442629,-2.114470958709717,-2.305021286010742,-3.130035877227783,-2.8986423015594484],"l_hiddenLayersNeuronsBias":[0.0,0.0,0.0,0.0,0.0,0.0,0.0,0.0,0.0,0.0,0.0]},{"i_score":26,"l_input2HiddenLayerWeights":[-1.3731238842010499,4.049110412597656,2.1497883796691896,-1.844918966293335,-0.2051108479499817,4.33777379989624,1.733571171760559,3.6893088817596437,-3.730785608291626,-2.2965869903564455,4.30040168762207,0.8210145235061646,2.6035070419311525,1.1979010105133057,1.6997437477111817,-3.3567862510681154,0.2793677747249603,3.5116636753082277,4.574639320373535,-1.2255756855010987,-2.7133798599243166,3.5308327674865724,2.59452223777771,0.6991214752197266,-0.2437419593334198,-4.409963607788086,-2.62738299369812,1.4657174348831177,-2.7763381004333498,2.024383783340454,-0.11345767974853516,2.565896987915039,-5.0,0.5403481721878052,-1.39702308177948,0.3440011739730835,0.14142820239067079,2.533456802368164,0.8985593318939209,4.500981330871582,-3.4519357681274416,-0.33973291516304018,-1.5658329725265504,-1.720012903213501,3.6744518280029299,-2.467343330383301,4.705569267272949,-3.490633487701416,-1.1882801055908204,0.23006752133369447,-0.6852881908416748,-0.7587167024612427,-0.8298479318618774,-3.218627452850342,-0.39751842617988589,1.9746259450912476,-3.4365792274475099,1.9467064142227173,4.525599479675293,3.512871503829956,-4.440859317779541,0.19986197352409364,-1.8995720148086548,-0.6050551533699036,-1.697022557258606,-3.115053653717041,2.9182894229888918,1.7392354011535645,-1.6078529357910157,-4.879523277282715,2.699467658996582,-1.0682939291000367,-3.0265984535217287,3.4705259799957277,-3.6237945556640627,3.0524067878723146,-0.8099569082260132,-0.6148574352264404,2.5081546306610109,0.5110313892364502,-4.807663440704346,-2.4749932289123537,2.895493745803833,2.513761043548584,-1.66347336769104,-3.4505577087402345,2.8260858058929445,-2.290860176086426,-0.20735657215118409,-1.8046684265136719,-1.3441158533096314,0.8360918760299683,3.257803440093994,2.7886054515838625,-0.27058687806129458,3.3470895290374758,-4.2420334815979,-0.14457227289676667,5.0,2.8631067276000978,-2.054875135421753,2.249725818634033,-2.306810140609741,-3.0148251056671144,3.5531280040740969,-4.941734313964844,4.300422191619873,-1.0320967435836793,4.135252952575684,2.228799819946289,4.173507213592529,0.18694400787353517,-4.06208610534668,-2.25862193107605,-0.6286006569862366,-3.294734477996826,-1.4621068239212037,1.1487239599227906,-0.8600214719772339,0.9105719327926636,1.94068443775177],"l_hidden2OutputLayerWeights":[-4.008872985839844,-3.1224746704101564,-0.5823934674263,2.708162307739258,-3.8961634635925295,5.0,0.9566493034362793,2.156956195831299,-1.3208709955215455,1.3468472957611085,2.4271669387817385,1.8912190198898316,0.44193676114082339,4.538211822509766,-3.4809908866882326,4.391964912414551,3.226004123687744,-3.9043970108032228,-2.150066375732422,-1.696083903312683,-1.6640772819519044,3.5308327674865724],"l_hiddenLayersNeuronsBias":[0.0,0.0,0.0,0.0,0.0,0.0,0.0,0.0,0.0,0.0,0.0]},{"i_score":26,"l_input2HiddenLayerWeights":[-0.8790463209152222,3.593250274658203,1.6913655996322632,-2.8061323165893556,-1.5262409448623658,4.032037734985352,2.2547857761383058,4.707571983337402,-4.720368385314941,2.3482375144958498,4.647368431091309,-0.17846235632896424,3.072831153869629,1.8431456089019776,-0.7320003509521484,-1.6156078577041627,0.5505462884902954,3.906297445297241,4.402888774871826,-2.3406777381896974,-2.8996224403381349,3.6854138374328615,1.2239426374435425,1.5676944255828858,-0.629928469657898,-4.485679626464844,-3.043801784515381,-0.10020849108695984,-1.391366958618164,1.588919758796692,-0.20116713643074037,4.68093204498291,-4.086064338684082,0.6817855834960938,-3.5489420890808107,0.14760184288024903,-0.20724503695964814,2.1230428218841554,-1.7543457746505738,4.571974754333496,-4.317691802978516,-0.5610553622245789,-1.9025596380233765,0.810501217842102,4.923313617706299,-1.8300561904907227,5.0,-4.009344577789307,-1.2613621950149537,0.8154444694519043,-0.7445175647735596,0.10442092269659043,-0.18056491017341615,-3.0639026165008547,-0.18645909428596497,2.8620777130126955,-3.7731966972351076,2.307835578918457,4.588279724121094,4.583148956298828,-4.160696506500244,-0.64314866065979,-1.4011971950531006,0.6728081703186035,-1.812220573425293,-2.5970382690429689,2.1875016689300539,0.7736347913742065,-0.8335475921630859,-4.3466949462890629,2.189754009246826,-1.6762858629226685,-2.83890700340271,4.342318058013916,-3.8348777294158937,4.430480003356934,0.41145655512809756,-0.26869699358940127,2.7092208862304689,0.38104796409606936,-4.439225196838379,-3.529754400253296,1.873793363571167,0.4220981299877167,0.1294504702091217,-3.170670747756958,-3.4430065155029299,-2.7173402309417726,-0.2334890365600586,-3.7201650142669679,0.3558960258960724,1.609169363975525,3.3099896907806398,2.8848888874053957,-0.9732743501663208,3.5690531730651857,-4.62522029876709,-0.17864859104156495,4.804165840148926,2.185901641845703,-0.3325998783111572,2.4855148792266847,-1.1443270444869996,-1.826328992843628,3.7598445415496828,-4.93110466003418,3.9037094116210939,-1.3019342422485352,4.648490905761719,2.289658784866333,3.9623546600341799,0.9741441011428833,-3.0413992404937746,-1.5221092700958253,-2.679136276245117,-2.525383710861206,-1.0130282640457154,0.5128116607666016,0.7160876393318176,0.6564068794250488,2.9399614334106447],"l_hidden2OutputLayerWeights":[-4.640547752380371,-2.9625906944274904,-1.7161755561828614,1.3357406854629517,-5.0,4.6091132164001469,2.0477285385131838,1.6916046142578126,-2.6477718353271486,1.4608920812606812,-0.050528451800346377,3.082597017288208,-1.2371165752410889,4.889256954193115,-2.5525238513946535,4.97858190536499,2.982697010040283,-2.714015245437622,-1.935270071029663,-3.1290512084960939,-2.601195812225342,-2.474128484725952],"l_hiddenLayersNeuronsBias":[0.0,0.0,0.0,0.0,0.0,0.0,0.0,0.0,0.0,0.0,0.0]},{"i_score":26,"l_input2HiddenLayerWeights":[-1.1257727146148682,5.0,1.2835818529129029,-1.0722790956497193,-0.02315390110015869,3.2334089279174806,2.1310477256774904,1.8966057300567628,-4.502264499664307,1.3523904085159302,4.066666603088379,-0.4501781761646271,2.6152265071868898,1.0795137882232667,0.3429764211177826,-2.844761610031128,1.2231111526489258,4.140899658203125,5.0,-1.2867493629455567,-3.12252140045166,3.759218454360962,2.255770444869995,0.3055557310581207,-1.0461816787719727,-5.0,-2.1017236709594728,0.369059294462204,-2.008005142211914,1.5313063859939576,0.40506136417388918,1.7941076755523682,-3.623741626739502,0.6292438507080078,-3.2191836833953859,0.6778386831283569,-0.39714816212654116,1.590518832206726,0.31407320499420168,4.156017303466797,-3.7825632095336916,-1.0991626977920533,-2.5972323417663576,-0.2907215356826782,4.731780052185059,-1.5792714357376099,4.811163902282715,-5.0,-1.4851229190826417,-0.4466845691204071,-0.5922912359237671,-0.388168603181839,-1.7706809043884278,-3.659522771835327,-0.037507563829422,1.2726777791976929,-3.8243484497070314,2.4242117404937746,3.917844772338867,4.902431488037109,-3.1031692028045656,-0.5464329719543457,-1.470840334892273,1.0695130825042725,-1.2557344436645508,-3.8116722106933595,3.305123805999756,0.8801048994064331,-1.5664067268371583,-5.0,1.7841514348983765,0.17985764145851136,-3.5735902786254885,2.5358340740203859,-3.001770496368408,4.177555084228516,-0.6543878316879273,-0.28763067722320559,3.042574882507324,-0.9616217613220215,-4.6768598556518559,-3.1704535484313967,1.9609849452972413,0.6869000196456909,-0.2860047221183777,-4.111088752746582,2.5882256031036379,-1.4481910467147828,-0.9516655206680298,-3.016515016555786,-1.382856845855713,2.7833476066589357,3.9619765281677248,2.790370225906372,-1.577393889427185,3.649791717529297,-5.0,-1.3010467290878297,3.411900281906128,3.401261568069458,-2.3987061977386476,2.858057737350464,-2.3060975074768068,-1.3124098777770997,2.141254186630249,-5.0,4.631462097167969,-1.691386342048645,3.859393835067749,2.214773654937744,4.11408805847168,0.8436263799667358,-3.6247096061706545,-2.519366502761841,-0.8903741836547852,-2.4393458366394045,-0.6267044544219971,0.46432194113731387,-0.5903948545455933,0.961173415184021,2.8322229385375978],"l_hidden2OutputLayerWeights":[-4.508318901062012,-2.7965145111083986,-1.565112829208374,1.8890436887741089,-5.0,4.345661163330078,0.703075647354126,3.006967067718506,-1.438563585281372,0.9260687828063965,-0.33089324831962588,1.826662540435791,0.03735710680484772,4.1024041175842289,-3.3461356163024904,3.6721925735473635,2.3207709789276125,-3.9630303382873537,-1.9590710401535035,-1.7801297903060914,-2.452303409576416,-3.1276350021362306],"l_hiddenLayersNeuronsBias":[0.0,0.0,0.0,0.0,0.0,0.0,0.0,0.0,0.0,0.0,0.0]},{"i_score":26,"l_input2HiddenLayerWeights":[-0.6329396963119507,2.6478946208953859,2.139575958251953,-1.4551194906234742,-0.44469302892684939,3.9884650707244875,2.115250825881958,3.512254238128662,-4.551968574523926,2.613708734512329,4.655946731567383,1.11136794090271,2.8972439765930177,2.3310914039611818,0.31492292881011965,-2.644890546798706,0.06094852089881897,4.291882038116455,4.27200174331665,-1.6013123989105225,-2.7704532146453859,4.007341384887695,2.4455318450927736,-0.3737771511077881,-0.9461836814880371,-4.420882701873779,-1.600213885307312,-0.32912835478782656,-2.474428653717041,2.5745952129364015,-0.12755423784255982,3.797910213470459,-4.838369846343994,0.9982424974441528,-2.5169196128845217,0.5473339557647705,-0.3358544111251831,2.1731255054473879,0.36837589740753176,4.878654479980469,-3.9678845405578615,0.10926744341850281,-1.5704129934310914,-0.5037788152694702,4.247361660003662,-1.4026600122451783,4.96205997467041,-4.481299877166748,-1.5148183107376099,0.4980911910533905,-0.06391680985689163,-0.848955512046814,-1.3674736022949219,-2.299506425857544,-0.1344512701034546,1.429477334022522,-4.095617771148682,1.9172298908233643,4.082309246063232,4.708059787750244,-3.908202648162842,0.22648808360099793,-2.253291130065918,-0.5439190864562988,-2.3378212451934816,-3.4843766689300539,2.382568359375,1.135301113128662,-1.5434494018554688,-4.754846096038818,2.251218795776367,-1.5198650360107422,-2.988067626953125,3.935608148574829,-3.718158721923828,2.9775643348693849,-0.2249915599822998,-0.10347285866737366,2.71051025390625,1.160883903503418,-4.916928291320801,-2.9963560104370119,2.2248332500457765,1.2778555154800416,-2.2311339378356935,-3.3805222511291506,3.1136276721954347,-2.6148834228515627,-0.46189966797828677,-3.177903652191162,0.8422549962997437,0.6164038181304932,2.4682037830352785,2.6475138664245607,-0.45362821221351626,3.404747247695923,-4.554356575012207,-1.2906564474105836,4.971927165985107,2.4604454040527345,-1.569380760192871,2.1337764263153078,-2.9638028144836427,-2.3525185585021974,3.9422342777252199,-5.0,5.0,-0.7825695276260376,4.651577472686768,1.4345407485961915,3.9796061515808107,0.03549075871706009,-4.032947063446045,-2.8401246070861818,-1.4346383810043336,-2.3569514751434328,-1.806662917137146,0.8522083759307861,-1.3009259700775147,-0.17531916499137879,1.8324799537658692],"l_hidden2OutputLayerWeights":[-3.369345188140869,-3.6317362785339357,-0.6656192541122437,2.7168750762939455,-4.347374439239502,4.898746490478516,0.9560744762420654,3.5528604984283449,-1.3475112915039063,1.5938796997070313,1.9657868146896363,1.3608345985412598,-0.12314918637275696,4.373554229736328,-2.2889180183410646,4.670710563659668,2.6379799842834474,-3.455024242401123,-2.5383548736572267,-1.6910234689712525,-3.327650785446167,3.797346830368042],"l_hiddenLayersNeuronsBias":[0.0,0.0,0.0,0.0,0.0,0.0,0.0,0.0,0.0,0.0,0.0]},{"i_score":26,"l_input2HiddenLayerWeights":[-1.318995475769043,4.450128555297852,2.121180534362793,-1.1940171718597413,-0.8351751565933228,3.968311071395874,2.4854440689086916,1.8061854839324952,-3.3158998489379885,3.530225992202759,4.246297359466553,0.09744316339492798,3.1325786113739015,1.4080358743667603,0.5679579973220825,-2.7468175888061525,1.0371484756469727,5.0,5.0,-1.947585940361023,-4.125317573547363,4.198622703552246,1.4665324687957764,0.8682187795639038,-1.7030971050262452,-3.0654046535491945,-2.3227462768554689,-0.01245717704296112,-0.5448691844940186,2.0523970127105715,-0.7088279128074646,3.044955253601074,-3.3904905319213869,1.4293397665023804,-2.9784443378448488,0.9245225191116333,-0.19152700901031495,2.329586982727051,-0.1646045297384262,4.594501495361328,-5.0,-0.8543134331703186,-1.696109652519226,0.2746592164039612,3.761195182800293,-2.250044345855713,5.0,-5.0,-0.3281000554561615,0.6838338375091553,1.0090913772583008,0.46433866024017336,-1.5389025211334229,-3.8791697025299074,0.20060911774635316,1.795120358467102,-5.0,2.4763760566711427,4.837022304534912,4.492388725280762,-4.815240383148193,-0.2211729884147644,-3.0672249794006349,1.0201301574707032,-3.301035165786743,-3.869536876678467,3.108264923095703,1.1754865646362305,-0.4195893108844757,-4.815636157989502,2.301618814468384,0.2416878044605255,-3.520501136779785,2.5043954849243166,-3.866973876953125,4.5836591720581059,1.4811053276062012,-0.3940994441509247,1.7208589315414429,0.9693683385848999,-4.534248352050781,-2.8313348293304445,1.5393973588943482,1.0140632390975953,-1.6270513534545899,-3.7059690952301027,-3.525299310684204,-2.8599905967712404,-0.6959726810455322,-0.7641807794570923,-0.5784084796905518,1.2796015739440919,2.506394624710083,2.4709250926971437,-0.8864140510559082,4.213596343994141,-5.0,-0.02875196933746338,5.0,2.6120810508728029,0.46254754066467287,2.7525761127471926,-1.4848339557647706,-1.2900643348693848,2.1820003986358644,-5.0,2.8413374423980715,-1.4005274772644044,3.9464335441589357,2.5420773029327394,4.199419021606445,2.04823637008667,-3.5333123207092287,-1.590888500213623,-2.018432140350342,-0.8746875524520874,-2.199838161468506,-0.6133555173873901,0.14839011430740357,1.0649584531784058,3.3609650135040285],"l_hidden2OutputLayerWeights":[-4.203274726867676,-2.2507827281951906,-1.3865026235580445,0.9561781883239746,-5.0,4.389701843261719,1.2715065479278565,2.6095190048217775,-1.0403085947036744,0.0205366387963295,2.0144882202148439,2.6581978797912599,-0.20788967609405518,4.356457710266113,-3.907165050506592,3.763232946395874,2.835242986679077,-4.049687385559082,-2.086970329284668,-2.56575870513916,-3.189763069152832,-1.8794734477996827],"l_hiddenLayersNeuronsBias":[0.0,0.0,0.0,0.0,0.0,0.0,0.0,0.0,0.0,0.0,0.0]},{"i_score":26,"l_input2HiddenLayerWeights":[0.40536049008369448,2.765289783477783,1.6166518926620484,-1.0899816751480103,-0.6478478908538818,4.288296222686768,3.4011402130126955,2.3125524520874025,-4.680425643920898,-2.4683220386505129,4.263443946838379,-0.7590345144271851,3.071251153945923,1.090718150138855,0.8260881900787354,-2.3296194076538088,0.6159109473228455,3.2354378700256349,3.809401273727417,-1.0663281679153443,-3.404900074005127,3.3332605361938478,2.0456337928771974,-0.27082744240760805,0.20723497867584229,-3.9653756618499758,-1.2006608247756959,1.9865273237228394,-0.9682091474533081,0.49160313606262209,-0.5145338773727417,3.783524990081787,-4.2851972579956059,0.3750433921813965,-2.4670145511627199,0.1723264753818512,-0.2131931185722351,2.5404343605041506,0.4026005268096924,4.598902225494385,-5.0,-0.5650473237037659,-2.1023802757263185,-0.26814720034599306,3.5810253620147707,-2.7694199085235597,4.930539608001709,-3.705852508544922,-0.17138150334358216,-0.5467126369476318,-0.44961118698120119,0.7109241485595703,-2.2593016624450685,-2.9054441452026369,-1.0365285873413087,2.9473788738250734,-3.4441442489624025,2.4030861854553224,4.189575672149658,3.854381799697876,-5.0,-0.45237112045288088,-2.674649238586426,1.3876252174377442,-1.5587642192840577,-3.9198055267333986,2.9170665740966799,0.3945683240890503,0.5407377481460571,-4.721549987792969,2.317148208618164,-2.1052956581115724,-2.6379005908966066,2.960526943206787,-4.780893325805664,4.097272872924805,0.40768787264823916,0.44497689604759219,2.054889678955078,0.18907341361045838,-5.0,-2.9203357696533205,2.7878663539886476,1.061299443244934,-2.415428638458252,-2.9380295276641847,2.141653060913086,-3.2724204063415529,-1.2887885570526124,-1.9482005834579468,0.9635816812515259,2.092534065246582,1.960540771484375,2.7926833629608156,-0.6277639865875244,3.2179434299468996,-4.844446659088135,-0.3646911382675171,5.0,2.8599777221679689,-0.9151031970977783,2.2221314907073976,-0.9636955261230469,-2.7296957969665529,3.083700180053711,-4.719040393829346,3.26692533493042,-1.2034103870391846,4.210882186889648,2.7511017322540285,4.407309055328369,0.8145580291748047,-4.772289752960205,-2.7515368461608888,-1.9021217823028565,-3.251436233520508,-0.7349222898483276,1.6090532541275025,-0.42144304513931277,0.002359330654144287,1.4715169668197632],"l_hidden2OutputLayerWeights":[-5.0,-2.2344443798065187,-2.6805222034454347,2.692807197570801,-5.0,5.0,3.224048614501953,2.072496175765991,-1.7883808612823487,0.9276467561721802,2.04807186126709,2.5983829498291017,0.023860514163970948,3.7329487800598146,-4.3075151443481449,4.795463562011719,1.7890583276748658,-3.1088290214538576,-3.325105905532837,-1.4198710918426514,-3.567383289337158,-2.917708396911621],"l_hiddenLayersNeuronsBias":[0.0,0.0,0.0,0.0,0.0,0.0,0.0,0.0,0.0,0.0,0.0]},{"i_score":26,"l_input2HiddenLayerWeights":[-0.13925909996032716,4.336094379425049,2.4613962173461916,-2.0507936477661135,-0.7982487678527832,3.111229181289673,2.5520949363708498,4.776061058044434,-4.145480632781982,2.959176540374756,4.835234642028809,0.7128329873085022,3.1939339637756349,0.8021231889724731,1.0050755739212037,-2.6568405628204347,0.33505186438560488,3.4304897785186769,4.408502578735352,-1.741369366645813,-2.8617899417877199,3.4632859230041506,1.472720742225647,-0.32305896282196047,-1.0754868984222413,-2.760694980621338,-2.4875192642211916,-0.3613646626472473,-2.264042377471924,2.7553842067718508,-0.37065979838371279,3.1084978580474855,-3.831355571746826,1.1951332092285157,-2.0557029247283937,0.2229541391134262,-0.4321993589401245,2.939573287963867,-1.0349195003509522,4.841333866119385,-5.0,0.04161173105239868,-1.547203779220581,-0.020773082971572877,3.900052309036255,-2.0012874603271486,4.7469048500061039,-4.25789737701416,-0.9659861326217651,-0.23636901378631593,0.9258667230606079,0.28226912021636965,-0.42136937379837038,-3.53855562210083,-0.23374080657958985,2.7019214630126955,-4.45962381362915,3.140756607055664,5.0,3.842984199523926,-3.5881752967834474,-0.32508182525634768,-3.1817197799682619,0.8877317905426025,-1.6692556142807007,-3.7506203651428224,2.676130771636963,-0.10657840967178345,-1.9237107038497925,-4.69875955581665,2.824054002761841,0.7349640130996704,-1.9606781005859376,2.9141480922698976,-4.129184722900391,3.9664132595062258,1.3562341928482056,0.007107304409146309,3.4886667728424074,1.5604631900787354,-5.0,-3.509605884552002,1.7879568338394166,0.4855005741119385,-0.9741569757461548,-3.437981605529785,1.654957890510559,-1.9966970682144166,-1.6506949663162232,-3.204453468322754,0.3996719717979431,1.7319021224975587,2.3704333305358888,3.6185288429260256,-1.6885014772415162,-1.0561425685882569,-3.6997933387756349,-0.1515502631664276,4.96497106552124,2.5093419551849367,0.22837629914283753,2.1911420822143556,-1.5940845012664796,-2.0608530044555666,1.304581880569458,-4.867757797241211,4.795748233795166,0.07830727100372315,4.282556533813477,0.9172617197036743,3.694131851196289,1.6129264831542969,-2.921844720840454,-1.939109444618225,-1.3770338296890259,-1.4580899477005005,-2.116161346435547,0.7426471710205078,0.31748878955841067,1.224239706993103,1.4710185527801514],"l_hidden2OutputLayerWeights":[-3.379500150680542,-2.4207146167755129,-1.7285161018371583,1.9222761392593384,-5.0,3.525519847869873,2.3147265911102297,1.4069865942001343,-1.484142541885376,2.2452077865600588,2.480588674545288,2.126526117324829,-0.6618696451187134,3.4615859985351564,-4.286960601806641,4.651039123535156,3.3360960483551027,-3.1405673027038576,-1.9046964645385743,-2.0822458267211916,-2.928316593170166,-3.3057730197906496],"l_hiddenLayersNeuronsBias":[0.0,0.0,0.0,0.0,0.0,0.0,0.0,0.0,0.0,0.0,0.0]},{"i_score":26,"l_input2HiddenLayerWeights":[-2.9836363792419435,4.231396198272705,2.943427085876465,-2.4304981231689455,-0.8166394233703613,4.932021141052246,2.483003616333008,1.7643941640853882,-3.8877787590026857,-2.4932403564453127,4.809595108032227,-0.08193311095237732,2.515049457550049,0.7802002429962158,-0.051056861877441409,-2.353766441345215,1.0973491668701172,5.0,4.654290676116943,-1.3223989009857178,-3.005115032196045,3.21842622756958,1.4573606252670289,-0.8663462996482849,-0.5410076975822449,-4.2565765380859379,-2.1167590618133547,0.5857869386672974,-1.5183446407318116,1.991010308265686,-0.20285215973854066,3.361285924911499,-4.017543315887451,1.4804633855819703,-2.4223246574401857,1.1170310974121094,-0.29574882984161379,3.2173969745635988,-0.08226421475410462,4.616470813751221,-4.21489953994751,-0.10667139291763306,-1.3033978939056397,-2.283994674682617,3.6153666973114015,-2.497926950454712,4.9109930992126469,-5.0,-1.5143351554870606,0.892894983291626,0.2534090280532837,0.2908762991428375,-0.44917744398117068,-3.0813372135162355,-0.2409978210926056,2.272580146789551,-3.8035740852355959,3.4647064208984377,5.0,5.0,-5.0,-0.4737526774406433,-2.6038308143615724,0.6114322543144226,-0.862364649772644,-3.778904676437378,3.434699535369873,0.9404363632202148,-0.9600670337677002,-5.0,2.5146024227142336,-1.6148271560668946,-3.0301363468170168,3.108262062072754,-4.202528953552246,2.8595762252807619,0.02429637312889099,-0.4673928916454315,2.6359682083129885,0.7721743583679199,-3.795797824859619,-3.467308759689331,2.986691951751709,1.821208119392395,-1.2885526418685914,-3.725165367126465,2.762009620666504,-1.7357728481292725,-0.7253360748291016,-1.1532737016677857,0.4951203465461731,2.016996145248413,2.861182928085327,2.5775105953216554,-1.6790269613265992,3.318509578704834,-5.0,-0.6678100824356079,5.0,2.794356346130371,-2.057295799255371,3.0188844203948976,-2.4796719551086427,-2.1080126762390138,1.5990023612976075,-4.804332733154297,4.428968906402588,-1.0505404472351075,5.0,1.8065903186798096,3.455721855163574,0.2402024269104004,-2.392557144165039,-2.987183094024658,-3.7843990325927736,-1.6849595308303834,-1.6860990524291993,0.868511438369751,0.22692623734474183,0.6784329414367676,3.0184707641601564],"l_hidden2OutputLayerWeights":[-4.094969272613525,-2.786773681640625,-0.21604019403457642,2.372554302215576,-4.960509300231934,4.744050025939941,0.7280185222625732,2.7607970237731935,-2.679368257522583,0.58805251121521,2.6938703060150148,1.7242624759674073,-0.19544005393981934,4.42018461227417,-3.9903976917266847,4.909451484680176,3.6447219848632814,-3.601325511932373,-2.8043360710144045,-2.037708282470703,-2.5915558338165285,-2.05633282661438],"l_hiddenLayersNeuronsBias":[0.0,0.0,0.0,0.0,0.0,0.0,0.0,0.0,0.0,0.0,0.0]},{"i_score":26,"l_input2HiddenLayerWeights":[-0.39793646335601809,3.3277995586395265,1.1347317695617676,-0.8920127153396606,0.05889439210295677,4.456531047821045,1.6520799398422242,1.5125283002853394,-4.901210784912109,3.318549633026123,5.0,0.44859734177589419,3.0938100814819338,1.3429521322250367,-0.2775079011917114,-3.0194203853607179,0.3923952877521515,3.595842123031616,5.0,-1.4849519729614258,-3.207169532775879,3.002326011657715,2.7283241748809816,-0.47520339488983157,-0.36404457688331606,-4.096070766448975,-1.4311376810073853,2.0653414726257326,-1.7550160884857178,1.8865602016448975,-0.26288554072380068,3.894643545150757,-3.9782967567443849,0.9614355564117432,-2.083523750305176,-0.0986083522439003,-0.13555949926376344,1.7571589946746827,0.33694279193878176,4.5563063621521,-4.79171085357666,-0.7429802417755127,-1.6809329986572266,-0.18930038809776307,3.797396183013916,-1.867392659187317,4.812129974365234,-3.838827133178711,-1.0508346557617188,0.059690117835998538,-0.4924112558364868,-0.5083324909210205,-2.7057723999023439,-2.5750203132629396,-0.27830570936203005,2.407562017440796,-3.992793321609497,1.9652564525604249,5.0,4.0707855224609379,-3.586071729660034,0.3216201961040497,-2.0462570190429689,1.4867714643478394,-1.478981375694275,-3.7182729244232179,2.3588569164276125,0.851198673248291,-2.0860981941223146,-5.0,2.3286709785461427,0.006033450365066528,-2.528250217437744,3.8942453861236574,-4.0134782791137699,4.075739860534668,0.6102288961410523,0.14319376647472382,2.42209529876709,1.585671067237854,-4.876548767089844,-3.4574851989746095,1.9657857418060303,0.7228500843048096,-1.780432105064392,-2.3066325187683107,2.1082262992858888,-1.9603458642959595,-1.0204100608825684,-2.728672981262207,1.7379770278930665,1.5115458965301514,3.434940814971924,2.955624580383301,-0.4759944677352905,4.28420877456665,-4.95412540435791,-1.1517750024795533,3.9478249549865724,3.0006163120269777,0.6097386479377747,2.1439971923828127,-1.7369078397750855,-1.79183030128479,2.948451280593872,-4.285516262054443,4.5585618019104,0.11464464664459229,3.974316120147705,1.7825560569763184,2.966301441192627,-0.24248802661895753,-2.6290087699890138,-1.1509413719177247,-0.30689993500709536,-2.485457420349121,-1.048756718635559,0.8059717416763306,-1.0190765857696534,0.8234442472457886,2.531704902648926],"l_hidden2OutputLayerWeights":[-3.734774589538574,-3.2286884784698488,-0.7879114747047424,2.346433639526367,-4.626924991607666,5.0,1.1766712665557862,3.138157367706299,-2.6833817958831789,1.4783604145050049,2.2556910514831545,2.174121379852295,0.23906567692756654,3.1811892986297609,-2.692478895187378,4.272113800048828,1.7892509698867798,-3.0210297107696535,-3.881169319152832,-2.075073480606079,-3.457401990890503,-2.0679099559783937],"l_hiddenLayersNeuronsBias":[0.0,0.0,0.0,0.0,0.0,0.0,0.0,0.0,0.0,0.0,0.0]},{"i_score":26,"l_input2HiddenLayerWeights":[-0.5727622509002686,3.534147024154663,2.180115222930908,-1.5375723838806153,-0.7995638847351074,4.326384544372559,1.8969913721084595,3.623105049133301,-4.488232135772705,2.4674758911132814,4.753127098083496,0.44004201889038088,2.69993257522583,1.3393360376358033,0.014113545417785645,-2.4159626960754396,0.37848353385925295,4.349709510803223,4.6962971687316898,-0.88484787940979,-3.3667831420898439,3.92759370803833,1.714308500289917,-0.5001463890075684,-0.4240955710411072,-4.472851753234863,-1.723596453666687,0.15051937103271485,-2.2548277378082277,2.1779558658599855,-0.26164761185646059,2.114163875579834,-4.482116222381592,1.111222743988037,-2.5463576316833498,0.3073228597640991,0.12993872165679933,2.41176700592041,0.7706953287124634,4.708571434020996,-4.533740043640137,-0.16909831762313844,-1.782129168510437,-0.5961962938308716,4.85560417175293,-1.7967544794082642,4.636903285980225,-4.432034492492676,-2.0790634155273439,0.043744027614593509,0.031839966773986819,0.21515218913555146,-1.5448793172836304,-2.91904878616333,-0.3101462125778198,3.714240789413452,-4.15677547454834,2.2358920574188234,4.3169684410095219,4.024456977844238,-3.973177909851074,-0.2103177309036255,-1.9187171459197999,0.9633612632751465,-0.9849140644073486,-3.706993579864502,2.8211417198181154,1.2467217445373536,-2.041395664215088,-4.385448932647705,2.522049903869629,-1.6234771013259888,-2.932584762573242,3.5520687103271486,-3.6440649032592775,4.637979507446289,-0.5517556667327881,-0.3313232958316803,2.6189963817596437,0.7618750333786011,-5.0,-3.004523992538452,2.4948835372924806,2.122199773788452,0.042535483837127689,-3.3738038539886476,2.823047399520874,-3.0532093048095705,-0.03531503677368164,-2.9016289710998537,0.30891135334968569,1.0024685859680176,2.727200746536255,2.782921314239502,-1.1804299354553223,3.862182855606079,-3.9032230377197267,-1.4135876893997193,4.3424577713012699,2.8372411727905275,-0.905677080154419,2.2877182960510256,-2.5026473999023439,-2.353858709335327,3.4448368549346926,-5.0,4.141605377197266,-1.1670054197311402,4.556447982788086,0.10649928450584412,3.6886725425720217,0.4812358617782593,-3.133455991744995,-1.2611032724380494,-0.7868987321853638,-2.3379201889038088,-1.4511072635650635,1.0571320056915284,-1.1968774795532227,0.810017466545105,2.2013397216796877],"l_hidden2OutputLayerWeights":[-5.0,-3.288391590118408,-2.22218656539917,2.7893333435058595,-5.0,4.633692741394043,-1.0467278957366944,2.2226226329803469,-1.6661959886550904,1.0861399173736573,2.2348544597625734,1.7960988283157349,0.17902079224586488,4.027516841888428,-2.9840235710144045,4.242405891418457,2.2579832077026369,-3.3587851524353029,-2.6491284370422365,-1.736297607421875,-1.9035353660583497,-2.7503857612609865],"l_hiddenLayersNeuronsBias":[0.0,0.0,0.0,0.0,0.0,0.0,0.0,0.0,0.0,0.0,0.0]},{"i_score":26,"l_input2HiddenLayerWeights":[-1.1656298637390137,4.611449241638184,1.7972317934036255,-1.5309550762176514,0.2497430443763733,4.394474983215332,2.7884929180145265,3.4667258262634279,-3.246398448944092,2.5185019969940187,4.750457763671875,1.6605067253112794,2.7197933197021486,0.8425726890563965,-0.06326892971992493,-2.8163952827453615,0.6855148077011108,4.8003249168396,4.744826793670654,-1.5421757698059083,-3.7316489219665529,3.6246461868286135,2.164849281311035,0.44764944911003115,-0.125937819480896,-4.528562545776367,-1.6737494468688965,1.9359753131866456,-0.6041827201843262,1.541873812675476,0.19414609670639039,1.995361328125,-4.0886006355285648,1.5151358842849732,-2.6376872062683107,0.3808175325393677,0.3715125322341919,2.3803281784057619,0.030152082443237306,4.736385345458984,-3.8986029624938967,-0.2529556155204773,-2.189528226852417,-1.2722444534301758,4.125888347625732,-3.8051493167877199,4.3738250732421879,-4.969101428985596,-1.7075536251068116,0.6516808271408081,0.36880722641944888,-0.6755346059799194,-1.8000365495681763,-3.411996841430664,-0.2680360674858093,2.2424449920654299,-4.957394599914551,2.239988088607788,4.779331684112549,3.8783063888549806,-3.6787869930267336,-0.48479968309402468,-2.1255884170532228,0.30442434549331667,-2.094109535217285,-4.2172980308532719,2.849437713623047,0.9226218461990356,-1.6847349405288697,-4.238882541656494,2.1187310218811037,0.6794431209564209,-3.4184398651123049,3.4454963207244875,-3.5035622119903566,3.6050877571105959,0.2179965078830719,-0.03931605815887451,1.2583491802215577,0.92210853099823,-4.516164302825928,-3.0794689655303957,2.29917049407959,3.4791553020477297,-1.6933469772338868,-3.2752175331115724,2.091791868209839,-3.256026029586792,-1.0937862396240235,-1.7962181568145753,0.16045358777046204,0.8399723768234253,2.432375431060791,3.594025135040283,-0.6597806811332703,3.6256091594696047,-4.691901206970215,-0.11665484309196472,4.546485900878906,2.7980480194091799,-0.0037289559841156008,1.9217820167541505,-1.0511837005615235,-2.865750789642334,3.2418265342712404,-4.607903003692627,3.9967541694641115,-2.076392650604248,5.0,2.2811806201934816,3.2392020225524904,1.2076743841171265,-3.6652753353118898,-1.88523268699646,-0.6927921772003174,-2.7784876823425295,-1.3751559257507325,0.8145550489425659,-1.1291149854660035,0.8902651071548462,2.372955799102783],"l_hidden2OutputLayerWeights":[-3.9236669540405275,-2.5564117431640627,-1.925036072731018,2.379163980484009,-4.006490230560303,4.20274543762207,2.0104575157165529,1.8972562551498414,-3.0984840393066408,0.3218884766101837,0.49061229825019839,2.3459434509277345,-0.1093185544013977,4.191354751586914,-3.723923683166504,3.581841468811035,2.7100048065185549,-3.617867946624756,-2.9472744464874269,-2.240016460418701,-3.068387031555176,-3.001600503921509],"l_hiddenLayersNeuronsBias":[0.0,0.0,0.0,0.0,0.0,0.0,0.0,0.0,0.0,0.0,0.0]},{"i_score":26,"l_input2HiddenLayerWeights":[0.016672611236572267,3.880823850631714,1.9980567693710328,-2.0656509399414064,-0.8771424293518066,3.938123941421509,2.94181752204895,3.370741128921509,-4.772658824920654,1.5939804315567017,4.862890243530273,1.0499595403671265,2.665156841278076,1.7191870212554932,0.3296372890472412,-2.5181734561920168,0.46984386444091799,3.769819974899292,4.166364669799805,-1.030861735343933,-3.248927116394043,3.1093053817749025,1.1173704862594605,-1.1533432006835938,-0.13488858938217164,-4.540485382080078,-1.912105679512024,1.1663051843643189,-2.8548998832702638,1.8664320707321168,-0.6059938073158264,1.8376333713531495,-4.052350997924805,1.8956403732299805,-2.4110512733459474,0.7710751295089722,0.11752665042877197,2.8430662155151369,1.004589319229126,5.0,-3.827401638031006,-0.7447027564048767,-1.7358840703964234,0.1432308852672577,5.0,-1.9977047443389893,4.802061080932617,-4.529167175292969,-1.9117906093597413,0.36583948135375979,0.3120771646499634,0.4766923785209656,-0.43705520033836367,-1.9667143821716309,-0.38242995738983157,2.765187978744507,-4.545653343200684,3.396390914916992,4.84420919418335,4.994261741638184,-3.603292465209961,-0.19876861572265626,-3.0052623748779299,0.3496774435043335,-0.3919323682785034,-4.332295894622803,3.501979351043701,1.213015079498291,-1.604927659034729,-4.347214698791504,2.2155354022979738,-0.010978400707244873,-2.674860715866089,3.31984281539917,-4.015386581420898,4.176428318023682,0.3323860168457031,-0.8942877054214478,3.2229163646698,1.3759396076202393,-4.97327995300293,-3.0606861114501955,2.6401329040527345,2.396115779876709,-0.5723745822906494,-3.2753076553344728,3.1904728412628176,-3.63763427734375,-0.8651623725891113,-1.9761091470718384,1.1333216428756714,1.742503046989441,2.521777629852295,2.939483165740967,-0.6775464415550232,3.5645298957824709,-4.0772294998168949,-1.7096582651138306,4.167979717254639,3.026280164718628,0.18111121654510499,2.527693748474121,-1.955231785774231,-2.824686288833618,2.9505417346954347,-4.506510257720947,4.413717746734619,-1.8878406286239625,4.871884346008301,2.229620933532715,3.988863706588745,0.48424336314201357,-3.1126391887664797,-2.415059804916382,-0.582465648651123,-1.9351768493652344,-1.5962060689926148,0.531554102897644,-2.034756660461426,1.0830498933792115,2.0029618740081789],"l_hidden2OutputLayerWeights":[-4.408043384552002,-1.757035732269287,0.6075982451438904,3.1576671600341799,-4.938989639282227,4.339259624481201,0.7348998785018921,3.7504804134368898,-2.3034753799438478,0.8274943828582764,1.8296376466751099,1.8172913789749146,-0.3526160418987274,3.8364505767822267,-2.808884859085083,4.2632293701171879,2.8095242977142336,-3.092343330383301,-2.5056705474853517,-2.1796164512634279,-1.5612058639526368,-2.9385242462158205],"l_hiddenLayersNeuronsBias":[0.0,0.0,0.0,0.0,0.0,0.0,0.0,0.0,0.0,0.0,0.0]},{"i_score":26,"l_input2HiddenLayerWeights":[0.04969266057014465,3.5547235012054445,2.835198163986206,-2.4022817611694338,0.1522289514541626,3.658339738845825,2.1833229064941408,3.9849538803100588,-4.477588176727295,2.353921413421631,4.959956169128418,0.329181969165802,3.164365291595459,0.9696608781814575,1.0044902563095093,-2.3381049633026125,0.4906961917877197,3.3803036212921144,5.0,-1.6785528659820557,-2.568612575531006,3.673015594482422,1.088320016860962,0.07979431748390198,-0.11223319172859192,-4.330140590667725,-2.1046900749206545,0.12467214465141297,-2.6549274921417238,1.5585719347000123,-0.0017497837543487549,3.5793955326080324,-3.6041948795318605,1.3488273620605469,-2.181265354156494,0.7361156940460205,-0.10958680510520935,3.329292058944702,0.6399677991867065,5.0,-4.604966163635254,-1.190863013267517,-2.1009769439697267,-0.5271366834640503,5.0,-1.6062004566192628,4.817454814910889,-3.376533269882202,-1.7483972311019898,0.40680092573165896,0.11322762817144394,-0.7349414825439453,-1.6220569610595704,-3.141869306564331,0.41151517629623415,3.1973934173583986,-3.6677298545837404,1.662782907485962,3.9687716960906984,4.372791767120361,-4.613155841827393,-1.2374268770217896,-2.3764891624450685,1.3487474918365479,-1.1487603187561036,-3.7745890617370607,2.784985065460205,1.52805757522583,-1.6419991254806519,-4.405309200286865,1.927298665046692,-1.2243901491165162,-3.6108033657073976,4.450653553009033,-4.461310386657715,4.074906826019287,0.5166577100753784,0.31796351075172427,2.2095906734466554,-0.2446404993534088,-4.6770124435424809,-2.06219744682312,2.835214138031006,1.0191893577575684,-2.3593130111694338,-3.796973943710327,-4.177606582641602,-2.693347930908203,-0.4842921495437622,-2.859454393386841,-0.9988735914230347,0.8654245734214783,4.117897033691406,3.449934482574463,-0.11220607161521912,3.824061155319214,-4.64102840423584,-0.764323890209198,5.0,2.3044049739837648,-0.18991133570671082,1.551382303237915,-2.1798534393310549,-0.21667861938476563,3.3983359336853029,-5.0,4.02726936340332,-0.6496078968048096,4.494658470153809,1.9788789749145508,3.5488226413726808,0.6269584894180298,-3.1672279834747316,-3.2691562175750734,-0.2773180305957794,-2.678187370300293,-1.2760618925094605,0.6138964295387268,-0.07029613852500916,0.9396880865097046,3.0775742530822756],"l_hidden2OutputLayerWeights":[-5.0,-2.5413289070129396,-2.340066909790039,2.6940526962280275,-4.94035005569458,4.807315349578857,2.184678077697754,3.785964250564575,-2.0383477210998537,0.09933879971504212,0.5927491188049316,3.2559704780578615,-0.6293171048164368,4.18246603012085,-2.7396559715270998,4.185601234436035,2.826958179473877,-3.323044538497925,-3.050123453140259,-1.5905120372772217,-3.501983165740967,-2.8755319118499758],"l_hiddenLayersNeuronsBias":[0.0,0.0,0.0,0.0,0.0,0.0,0.0,0.0,0.0,0.0,0.0]},{"i_score":26,"l_input2HiddenLayerWeights":[-1.3358367681503297,3.734564781188965,2.3460536003112795,-2.0842204093933107,-0.8008817434310913,3.5024166107177736,2.9556994438171388,2.0164289474487306,-3.969493865966797,2.7479448318481447,5.0,-0.27691537141799929,1.5637352466583253,1.800583839416504,1.104034662246704,-2.345022201538086,-0.11488977074623108,3.57878041267395,3.552549362182617,-1.216469645500183,-3.672062873840332,3.8424277305603029,2.3012290000915529,-0.4727790653705597,0.26469409465789797,-4.523900985717773,-0.8300489187240601,1.4902081489562989,-1.1840829849243165,1.8888839483261109,-1.0110934972763062,4.087911128997803,-4.353224754333496,1.2221828699111939,-2.0074679851531984,0.055982232093811038,-0.10895863175392151,2.4946088790893556,0.19004812836647035,5.0,-4.81321382522583,0.23158162832260133,-1.889365315437317,-0.21437224745750428,3.6824898719787599,-1.9197310209274293,4.70009183883667,-4.9759111404418949,-0.5166014432907105,0.38945484161376955,0.32784411311149599,0.6256076097488403,-1.2259713411331177,-3.0560994148254396,0.9106225967407227,3.4644546508789064,-4.418507099151611,2.7024166584014894,4.698195457458496,3.4838006496429445,-4.524677753448486,0.06502573192119599,-2.312047004699707,1.6607186794281006,-2.4494290351867677,-4.039710998535156,3.0488266944885256,-0.23144999146461488,-0.986292839050293,-4.128873348236084,2.5883595943450929,-0.04432472586631775,-3.1511197090148927,3.1556901931762697,-3.9936161041259767,3.421339988708496,0.10366049408912659,-0.20386937260627747,2.3432652950286867,1.365015983581543,-4.95328426361084,-2.9068520069122316,2.7900447845458986,2.8072526454925539,0.20454639196395875,-1.4730473756790162,2.77042818069458,-2.1504409313201906,-1.1696707010269166,-1.863089919090271,0.8762087821960449,1.5391453504562379,2.7527241706848146,2.4494094848632814,-1.2270736694335938,3.0796825885772707,-5.0,0.1312178373336792,5.0,3.106496572494507,-0.8007932901382446,1.40038001537323,-1.3989720344543458,-3.340282440185547,2.6449451446533205,-4.547618389129639,2.853142261505127,-1.6126970052719117,5.0,1.2379387617111207,3.763270854949951,0.8299624919891357,-5.0,-2.281177043914795,-1.9926996231079102,-2.896310329437256,-1.2008310556411744,-0.6708440780639648,-0.6695510745048523,-0.015330374240875245,1.4987378120422364],"l_hidden2OutputLayerWeights":[-5.0,-2.4688100814819338,-0.8515865802764893,0.26866865158081057,-5.0,4.837788105010986,0.9048624038696289,1.8928120136260987,-1.938214659690857,1.6047216653823853,2.1549808979034426,2.018054723739624,-0.8162378668785095,3.939500331878662,-3.292571544647217,4.540647506713867,2.0349974632263185,-3.0531153678894045,-3.2407007217407228,-1.596996545791626,-1.571548581123352,-3.4382259845733644],"l_hiddenLayersNeuronsBias":[0.0,0.0,0.0,0.0,0.0,0.0,0.0,0.0,0.0,0.0,0.0]},{"i_score":26,"l_input2HiddenLayerWeights":[0.06164830923080444,2.846282958984375,1.442267894744873,-2.674283504486084,0.33709031343460085,3.9808106422424318,3.155226945877075,4.473424911499023,-4.886564254760742,2.517110824584961,5.0,1.522945523262024,1.6494613885879517,1.0799461603164673,1.1895512342453004,-1.7787054777145386,1.3513675928115845,3.7483696937561037,4.269529819488525,-1.8795808553695679,-3.1612987518310549,3.310028553009033,2.269190788269043,0.5666652917861939,-1.2595913410186768,-4.7937493324279789,-0.8764883279800415,0.3784651756286621,-1.6546201705932618,2.649240732192993,0.0450480580329895,1.5391554832458497,-4.53480863571167,-0.09280318021774292,-2.4691286087036135,-0.22107183933258058,-0.2734670639038086,2.2044734954833986,0.9498041868209839,5.0,-4.2451605796813969,-1.225414752960205,-1.8587368726730347,0.04303598403930664,4.757697582244873,-1.5098330974578858,4.438225746154785,-3.251559019088745,-1.8864442110061646,0.32219815254211428,-0.018262386322021486,-0.9614766836166382,-1.3379733562469483,-3.846829891204834,0.8614424467086792,2.5570473670959474,-4.580759525299072,2.149439811706543,4.547274589538574,4.154545783996582,-3.973527431488037,0.053279101848602298,-3.224076271057129,1.318002462387085,-1.7934761047363282,-3.3888330459594728,3.089176893234253,0.14439141750335694,-1.1487157344818116,-5.0,2.455807685852051,-2.072988986968994,-3.010517120361328,3.527238607406616,-3.37054443359375,4.1766037940979,-0.9777576923370361,-0.22152772545814515,2.4869706630706789,-1.5247644186019898,-4.949405193328857,-3.53645658493042,2.4060566425323488,1.6330981254577637,-0.47230005264282229,-3.4929466247558595,-3.650966167449951,-3.1535091400146486,-0.7665543556213379,-2.2043347358703615,-0.04237988591194153,0.930748701095581,3.254868507385254,3.0085666179656984,-0.5673854947090149,3.465947151184082,-5.0,-0.3866073489189148,5.0,3.6016745567321779,-0.06142958998680115,2.711089611053467,-1.2958418130874634,-2.5631649494171144,3.334681987762451,-3.9651694297790529,4.5254364013671879,-1.5354474782943726,4.718931674957275,1.922699213027954,4.655555248260498,0.9832769632339478,-3.434619903564453,-2.1492981910705568,-0.8483365774154663,-3.027090549468994,-1.2393382787704468,1.7149152755737305,-0.4848478436470032,0.5373086333274841,1.8274567127227784],"l_hidden2OutputLayerWeights":[-4.233054161071777,-3.270216464996338,-1.3764517307281495,2.9738574028015138,-4.881019592285156,4.3239922523498539,1.6628278493881226,1.8817692995071412,-1.5310418605804444,1.5032706260681153,-0.11588573455810547,1.9483448266983033,-0.3294469714164734,4.261782646179199,-4.027504920959473,4.508530139923096,3.0432446002960207,-2.744697093963623,-3.1410634517669679,-2.1317639350891115,-2.1370043754577638,-3.2388155460357668],"l_hiddenLayersNeuronsBias":[0.0,0.0,0.0,0.0,0.0,0.0,0.0,0.0,0.0,0.0,0.0]},{"i_score":26,"l_input2HiddenLayerWeights":[-2.723701000213623,4.611449241638184,1.7716602087020875,-2.04691481590271,-0.7977060079574585,4.7244768142700199,2.42219614982605,3.4667258262634279,-3.7437081336975099,2.8536436557769777,4.542468070983887,0.1661471426486969,1.570119023323059,0.9927686452865601,0.44579076766967776,-3.112997531890869,0.7226248979568481,3.374918222427368,4.332235813140869,-2.093808650970459,-2.6936302185058595,3.6716928482055666,2.1910743713378908,-0.39340633153915408,-0.3222429156303406,-3.880866050720215,-1.9488445520401,0.9441970586776733,-1.1255640983581544,1.9760899543762208,-0.9568271636962891,3.313004732131958,-4.357478141784668,1.714496374130249,-2.517798900604248,0.6823376417160034,0.35150063037872317,2.5852622985839845,1.0018278360366822,5.0,-4.0685248374938969,-0.4732486307621002,-2.0857315063476564,-2.3478221893310549,5.0,-2.090420961380005,5.0,-3.700118064880371,-1.164662480354309,0.49904441833496096,-1.2038439512252808,0.2902712821960449,-1.7862285375595093,-3.912839412689209,-0.2081611156463623,2.251666784286499,-3.4580109119415285,3.7598416805267336,4.3214111328125,5.0,-4.454013824462891,-0.9532618522644043,-2.710583209991455,0.9782540798187256,-1.275923252105713,-3.5620615482330324,3.2304725646972658,0.6562350988388062,-1.2620855569839478,-5.0,2.1406736373901369,-1.3259793519973755,-3.1557977199554445,2.999422073364258,-3.6618995666503908,3.524232864379883,0.27841874957084658,-1.0801525115966797,2.7896175384521486,0.12584316730499268,-5.0,-3.6807613372802736,2.510016441345215,2.142843723297119,-0.17104306817054749,-3.4835426807403566,2.5856800079345705,-2.001586437225342,-0.47572624683380129,-1.4753015041351319,0.7290818095207214,1.2823822498321534,3.217191219329834,3.2319045066833498,-1.016818642616272,3.9018728733062746,-4.803116321563721,-1.1558372974395753,4.753555774688721,3.2897634506225588,-2.2359511852264406,2.731067657470703,-1.5160497426986695,-2.5308263301849367,2.0512032508850099,-3.8985977172851564,3.494269609451294,-1.0231842994689942,5.0,1.851536512374878,3.677743673324585,0.578673243522644,-2.780643939971924,-3.3814005851745607,-3.621795177459717,-2.500734567642212,-1.218833088874817,0.6544468998908997,-0.04432496428489685,0.43254008889198305,2.426506757736206],"l_hidden2OutputLayerWeights":[-4.075003623962402,-2.6249778270721437,-0.486117422580719,0.9003955125808716,-4.748418807983398,5.0,2.0589253902435304,2.526935577392578,-2.257612466812134,1.0858548879623414,1.556452989578247,1.7076785564422608,-0.16007661819458009,4.006590366363525,-3.43239164352417,4.3859663009643559,3.386927843093872,-3.3267476558685304,-2.838359832763672,-2.126617431640625,-2.113306760787964,-2.4768354892730715],"l_hiddenLayersNeuronsBias":[0.0,0.0,0.0,0.0,0.0,0.0,0.0,0.0,0.0,0.0,0.0]},{"i_score":26,"l_input2HiddenLayerWeights":[-0.4795556962490082,3.57405948638916,1.9566876888275147,-1.314809799194336,-0.10205823183059693,4.430506229400635,2.7607216835021974,2.185559034347534,-4.203380107879639,1.9707573652267457,4.111851215362549,-0.13937999308109284,3.272815704345703,0.8392223119735718,0.6044557094573975,-2.013357400894165,0.016127288341522218,4.655386447906494,5.0,-0.6273013353347778,-2.2040247917175295,3.6432278156280519,1.984361171722412,-0.7966408729553223,-1.1224124431610108,-3.1814441680908205,-1.3396074771881104,0.6488085985183716,-2.5197033882141115,1.6391054391860963,-0.7560721635818481,4.268414497375488,-3.8120675086975099,1.3116761445999146,-3.272731304168701,0.07718592137098313,0.5496208667755127,2.506740093231201,0.9623377323150635,4.998353481292725,-5.0,-0.5719843506813049,-2.179521083831787,-0.29579731822013857,4.476508617401123,-3.0187416076660158,4.2141618728637699,-5.0,-1.5255582332611085,-0.23915040493011475,0.5257910490036011,0.09496946632862091,-0.519680380821228,-2.7052698135375978,0.6639975309371948,1.926404595375061,-4.163669586181641,2.8057384490966799,4.870113372802734,4.478937149047852,-4.160904884338379,0.015984997153282167,-2.715698719024658,2.238431453704834,-1.3630825281143189,-4.314097881317139,3.5998144149780275,-0.3837032616138458,-1.1221733093261719,-4.065824031829834,2.820648193359375,-1.7918553352355958,-3.659580707550049,2.0298235416412355,-4.053406715393066,3.3578882217407228,-0.12292417883872986,0.30142030119895937,1.6042652130126954,0.9329791069030762,-4.9449005126953129,-3.8328933715820314,2.7058610916137697,0.9618861675262451,-1.5261095762252808,-3.7648987770080568,2.5489230155944826,-2.172708749771118,-1.2499048709869385,-2.495708703994751,0.0963982343673706,1.9347983598709107,3.1443748474121095,3.3245677947998049,-0.608764111995697,3.5272536277770998,-3.975109577178955,-0.771147608757019,4.082897186279297,2.823054790496826,0.5236252546310425,2.792139768600464,-2.350555419921875,-2.062248945236206,1.8393867015838624,-4.49394416809082,2.4639830589294435,-1.188676357269287,4.39070987701416,0.5173827409744263,3.831265926361084,1.1502821445465088,-2.8445873260498049,-2.6701927185058595,-1.3533238172531129,-0.9280099868774414,-1.2035706043243409,-0.16815638542175294,-1.1976559162139893,1.3417688608169556,0.9545462131500244],"l_hidden2OutputLayerWeights":[-5.0,-2.733271598815918,-1.2678236961364747,2.861476182937622,-4.25752592086792,4.034189224243164,3.296907901763916,1.5140897035598755,-1.8139296770095826,0.9434903860092163,2.066485643386841,2.287310838699341,-0.3599977493286133,3.8855197429656984,-2.653721332550049,4.190412521362305,2.0596392154693605,-2.947648048400879,-2.0201990604400636,-1.478895902633667,-3.456549644470215,-2.593172550201416],"l_hiddenLayersNeuronsBias":[0.0,0.0,0.0,0.0,0.0,0.0,0.0,0.0,0.0,0.0,0.0]},{"i_score":26,"l_input2HiddenLayerWeights":[-0.7456926107406616,3.6107263565063478,1.9309638738632203,-0.9262645244598389,0.7687187194824219,3.5519583225250246,3.1040995121002199,4.989150047302246,-4.879556179046631,2.8233799934387209,4.625966548919678,0.5630614757537842,2.4554972648620607,1.8127973079681397,0.8460431098937988,-2.7332262992858888,0.5255268812179565,4.23872184753418,4.068696975708008,-1.05959951877594,-3.007338523864746,3.406151294708252,2.4101204872131349,-1.2535346746444703,-1.0056461095809937,-4.20205020904541,-1.361315131187439,-0.45263147354125979,-2.9390347003936769,2.9299731254577638,0.808495044708252,3.9122140407562258,-4.44814920425415,1.5877845287322999,-1.9504977464675904,-0.3400697708129883,-0.5408116579055786,2.8509888648986818,-0.9370882511138916,4.616538047790527,-3.842899799346924,-0.2511626183986664,-2.7597527503967287,-0.15667369961738587,4.206699371337891,-1.2770648002624512,5.0,-3.6042776107788088,-1.6105412244796754,0.2834405303001404,0.7045658826828003,0.04255950450897217,-2.2293739318847658,-2.5167431831359865,-0.40626823902130129,1.9955179691314698,-3.1583096981048586,3.093472957611084,4.382877349853516,4.63879919052124,-4.216572284698486,-0.4782804846763611,-2.6491267681121828,1.370619773864746,-1.997137188911438,-3.7415060997009279,2.302689552307129,1.0212616920471192,-1.6987098455429078,-4.626642227172852,2.560884952545166,-0.5819116830825806,-3.229677677154541,3.1131210327148439,-3.7341222763061525,4.168739318847656,0.524436354637146,0.9961902499198914,1.6488755941390992,0.36643272638320925,-4.126493453979492,-3.4619650840759279,1.2087860107421876,2.0330026149749758,-0.8934004306793213,-2.884945869445801,1.9613078832626343,-2.9262216091156008,0.43309539556503298,-3.1031649112701418,0.942511796951294,2.511265754699707,2.262873411178589,3.239661693572998,-2.3226914405822756,2.6727750301361086,-4.764927864074707,-0.12709318101406098,4.87986946105957,3.836801290512085,-0.17189565300941468,2.3666067123413088,0.00014394521713256836,-2.369708299636841,2.871751546859741,-4.785083770751953,4.8012471199035648,-0.9567815065383911,4.379665374755859,0.30526256561279299,4.463132858276367,0.030006952583789827,-3.1324803829193117,-1.2071901559829713,-0.24633240699768067,-0.9882030487060547,-1.8450144529342652,-0.1863791048526764,-1.0829746723175049,1.0817614793777466,1.9367986917495728],"l_hidden2OutputLayerWeights":[-4.608676910400391,-3.205597162246704,-1.9628568887710572,1.7056230306625367,-4.295760631561279,3.5459671020507814,1.671505093574524,1.9830288887023926,-0.7347878217697144,1.3790374994277955,2.1535794734954836,1.5641932487487794,-0.1470976173877716,4.607882022857666,-3.348334550857544,4.27509069442749,2.403865337371826,-2.9530858993530275,-2.9497745037078859,-2.08711314201355,-2.1086108684539797,-2.6043806076049806],"l_hiddenLayersNeuronsBias":[0.0,0.0,0.0,0.0,0.0,0.0,0.0,0.0,0.0,0.0,0.0]},{"i_score":26,"l_input2HiddenLayerWeights":[-0.35173606872558596,2.913165330886841,2.27528715133667,-1.445005178451538,-0.4837411046028137,4.538843631744385,1.9708542823791505,3.437483787536621,-3.5625035762786867,3.31022572517395,3.074370861053467,0.23963338136672975,2.1986982822418215,1.181787133216858,0.6209166646003723,-3.3095741271972658,1.2485556602478028,4.639776229858398,3.1848902702331545,-2.881455421447754,-2.2634034156799318,4.082612037658691,2.6953330039978029,-0.03040418028831482,-0.5801740884780884,-4.200211048126221,-1.568969488143921,0.32162660360336306,-1.955460786819458,2.0905673503875734,-0.44786763191223147,3.283224105834961,-4.051243305206299,-0.4618316888809204,-2.5503787994384767,1.038341999053955,-0.3006027936935425,2.7478740215301515,0.8952596187591553,4.871441841125488,-4.6273345947265629,-0.13702359795570374,-1.4442776441574097,-0.9273809194564819,4.745641708374023,-2.0743520259857179,4.515100002288818,-3.1175880432128908,-1.1930077075958253,-0.12911522388458253,-1.263641357421875,0.6557320356369019,-2.098710298538208,-2.7685935497283937,-1.0790680646896363,1.9188998937606812,-4.093111515045166,3.7605295181274416,4.5438232421875,3.6095285415649416,-3.3769824504852297,-0.25788772106170657,-1.271019458770752,-0.2995263338088989,-3.145920515060425,-3.84053897857666,2.764957904815674,1.169966459274292,-1.0009281635284424,-4.9257683753967289,3.3434367179870607,-1.554884433746338,-3.7175583839416506,2.8803844451904299,-3.463634967803955,4.123946189880371,-0.13780051469802857,0.40275827050209048,1.4878478050231934,0.28343629837036135,-4.536074638366699,-2.8185391426086427,3.1831212043762209,2.283339262008667,-0.8030780553817749,-3.990077018737793,1.6445447206497193,-2.2514023780822756,-0.698817253112793,-2.0286293029785158,0.512107253074646,1.4136552810668946,2.612649917602539,2.140286445617676,-1.5131758451461793,3.338040351867676,-4.216926097869873,0.3088579773902893,4.294951915740967,2.8619065284729006,-2.953320026397705,2.94033145904541,-2.313754081726074,-2.1654856204986574,2.6503002643585207,-4.056347370147705,2.5084054470062258,-1.7209601402282715,4.861073970794678,1.4773828983306885,4.318031311035156,1.2408004999160767,-3.535635471343994,-2.048032760620117,-0.6949412226676941,-3.508039712905884,-0.8390601873397827,-0.7243701219558716,-0.7621010541915894,0.36378514766693118,1.3174556493759156],"l_hidden2OutputLayerWeights":[-3.5676705837249758,-3.68015193939209,-1.6300551891326905,2.6755735874176027,-4.343198299407959,4.7620744705200199,1.159301519393921,2.7786195278167726,-2.206852436065674,0.4206075668334961,-0.40148913860321047,1.5765460729599,-0.8959530591964722,4.06613826751709,-2.272204875946045,3.3996798992156984,3.9295125007629396,-3.4787604808807375,-2.5937280654907228,-2.8241381645202638,-2.685177803039551,-3.089432954788208],"l_hiddenLayersNeuronsBias":[0.0,0.0,0.0,0.0,0.0,0.0,0.0,0.0,0.0,0.0,0.0]},{"i_score":26,"l_input2HiddenLayerWeights":[-1.0494704246520997,3.965271472930908,1.4385427236557007,-1.074156403541565,-0.09618526697158814,4.242448806762695,3.6028804779052736,4.325129508972168,-4.394614219665527,-2.5470125675201418,5.0,0.8371222019195557,2.786585807800293,1.3868411779403687,-0.774203896522522,-2.663274049758911,-0.047495484352111819,4.317481994628906,5.0,-1.4539730548858643,-3.2504591941833498,4.586663246154785,1.6994355916976929,0.26826146245002749,-1.272750973701477,-4.324031352996826,-1.016093373298645,0.8662379384040833,-3.036970615386963,1.4801212549209595,-0.5853270888328552,3.370882987976074,-3.6972506046295168,1.050419569015503,-2.4510602951049806,1.0732356309890748,0.22310851514339448,3.1482224464416506,-0.3288309574127197,4.468960762023926,-4.583356857299805,0.6270898580551148,-1.9596331119537354,-0.656213641166687,4.357368469238281,-1.3946400880813599,5.0,-4.753660202026367,-0.3152045011520386,-0.4129132032394409,0.20882269740104676,0.21118533611297608,-0.6248997449874878,-3.306191921234131,-0.15202346444129945,2.3134191036224367,-4.988320827484131,3.3207409381866457,5.0,4.37403678894043,-5.0,-1.445694088935852,-1.6227761507034302,1.3195815086364747,-1.6681429147720338,-3.940056324005127,2.993908643722534,1.5965707302093506,-1.5852943658828736,-4.5796661376953129,2.9538331031799318,-0.18155044317245484,-3.2177822589874269,4.124436378479004,-4.8059797286987309,4.090278625488281,0.6826313138008118,-0.6509050130844116,3.040663719177246,1.4737989902496338,-4.638111114501953,-2.995225191116333,1.5464133024215699,1.6997541189193726,-2.183709144592285,-3.3703551292419435,2.4706873893737795,-1.6684069633483887,-1.747728705406189,-2.7670042514801027,0.7752147912979126,0.9552849531173706,1.8430505990982056,3.3820695877075197,-0.21183887124061585,3.0793330669403078,-3.9185376167297365,-1.7714580297470093,4.630216598510742,3.315014362335205,-3.011537551879883,2.735370397567749,-2.70526123046875,-2.8880398273468019,2.1268773078918459,-5.0,3.7670788764953615,-1.1281594038009644,4.890856742858887,1.407447099685669,3.4066696166992189,0.9885863065719605,-2.5528764724731447,-1.0861434936523438,-0.7425941228866577,-2.7469632625579836,-2.0847086906433107,0.7987736463546753,-1.1405370235443116,0.6166425943374634,2.538581132888794],"l_hidden2OutputLayerWeights":[-4.630066871643066,-3.3641982078552248,-0.8627010583877564,0.7331060171127319,-4.341749668121338,4.221117973327637,0.4958212971687317,1.3248469829559327,-1.8905043601989747,1.239410638809204,1.5843619108200074,2.1330342292785646,-0.2752763032913208,3.966108560562134,-4.477567195892334,3.9619979858398439,2.417079448699951,-3.07367205619812,-2.4209580421447756,-1.8702282905578614,-2.4515020847320558,-3.503490447998047],"l_hiddenLayersNeuronsBias":[0.0,0.0,0.0,0.0,0.0,0.0,0.0,0.0,0.0,0.0,0.0]},{"i_score":26,"l_input2HiddenLayerWeights":[-0.8790484666824341,3.6216471195220949,2.5098884105682375,-1.555029034614563,-0.6898273229598999,4.711912155151367,1.3440132141113282,3.8233659267425539,-3.8351874351501467,-2.4595658779144289,4.8310227394104,1.009972095489502,2.472757339477539,1.0151351690292359,0.5321971774101257,-1.7882529497146607,0.6283270120620728,3.4563119411468508,3.1540136337280275,-1.8708925247192383,-2.4703569412231447,3.018554925918579,1.3755407333374024,-0.0990212932229042,-1.1986756324768067,-4.470903396606445,-2.236178398132324,0.7086484432220459,-2.6706833839416506,2.32255220413208,0.38878244161605837,4.085474967956543,-4.341903209686279,-0.09955930709838867,-3.028693199157715,0.8707627058029175,0.3810044527053833,3.002531051635742,0.7420189380645752,4.793702602386475,-3.6366100311279299,-1.1381943225860596,-1.4157220125198365,-2.697767972946167,3.1921262741088869,-1.6890602111816407,4.990130424499512,-4.601986885070801,-2.0833306312561037,1.274491310119629,-0.16361412405967713,1.8433117866516114,-1.9535303115844727,-1.8888236284255982,1.2298192977905274,2.5797312259674074,-3.780785083770752,2.2566637992858888,4.943930149078369,3.6508617401123049,-4.126581192016602,0.02818000316619873,-2.215494155883789,0.6567933559417725,-1.8326563835144044,-4.058403968811035,3.2661736011505129,0.8018065690994263,-2.017012357711792,-5.0,2.86468505859375,-1.4620848894119263,-3.797062397003174,3.1680586338043215,-3.8316783905029299,2.8568978309631349,-0.05566677451133728,0.7863354682922363,1.2722824811935425,0.016797423362731935,-5.0,-3.15643572807312,2.400275230407715,1.8698394298553467,-2.268951416015625,-3.6063120365142824,2.576061964035034,-3.006525993347168,-1.674756646156311,-2.3788135051727297,-0.6253000497817993,0.7321429252624512,2.506873369216919,2.4769155979156496,-0.5758897662162781,2.234586238861084,-4.2827911376953129,-0.031300246715545657,3.9457523822784426,2.855250835418701,-0.8975825309753418,2.2050113677978517,-1.8949265480041505,-2.5746920108795168,4.27888298034668,-4.65431022644043,3.9919753074645998,-1.3837891817092896,5.0,1.8462227582931519,4.299962043762207,0.33320656418800356,-3.416781425476074,-1.4254733324050904,-0.8317663669586182,-3.026139259338379,-0.7251337766647339,-0.49520793557167055,-1.558463454246521,0.8596533536911011,1.7747160196304322],"l_hidden2OutputLayerWeights":[-3.5278892517089845,-1.5127428770065308,-0.42905184626579287,2.4367032051086427,-4.572903156280518,4.412871360778809,0.7445763349533081,2.129030704498291,-2.58628511428833,1.0898796319961548,0.6317962408065796,2.216529607772827,0.32987135648727419,3.5416178703308107,-3.415099859237671,4.356081008911133,2.070650577545166,-3.293456792831421,-2.4080522060394289,-2.742657423019409,-3.242509126663208,-3.113802194595337],"l_hiddenLayersNeuronsBias":[0.0,0.0,0.0,0.0,0.0,0.0,0.0,0.0,0.0,0.0,0.0]},{"i_score":26,"l_input2HiddenLayerWeights":[-1.1576522588729859,4.880602836608887,2.413407802581787,-1.265910029411316,-0.11355313658714295,4.576357841491699,2.0368759632110597,2.1379408836364748,-4.280524730682373,3.4603271484375,4.8744354248046879,0.8877359628677368,3.082695960998535,1.469546914100647,-0.16575804352760316,-2.8163952827453615,1.2775318622589112,3.9021918773651125,5.0,-1.0888384580612183,-3.3587217330932619,3.2129549980163576,1.9589118957519532,0.06549978256225586,0.3256792724132538,-3.526167631149292,-2.498849391937256,0.5817075967788696,-2.601947546005249,1.7756270170211793,-1.0379817485809327,4.397017478942871,-4.0886006355285648,1.194997787475586,-3.211808919906616,-0.1189778745174408,0.47137245535850527,2.7582247257232668,0.6734601259231567,5.0,-4.48130989074707,-0.61700439453125,-1.3464577198028565,-0.9580985307693481,4.161707878112793,-3.8051493167877199,4.675207138061523,-3.8098044395446779,0.31721633672714236,-0.13023468852043153,0.3678237199783325,-0.6755346059799194,-1.158555269241333,-3.714900493621826,-0.36326393485069277,2.059638023376465,-3.995453357696533,2.7240867614746095,5.0,3.8783063888549806,-3.860546350479126,0.20829541981220246,-3.2035417556762697,0.1518957018852234,-1.5066003799438477,-4.662886619567871,2.7726051807403566,0.7770888805389404,-0.9771262407302856,-4.21481466293335,2.6636335849761965,-0.44311898946762087,-3.057586908340454,2.126133918762207,-4.386166572570801,3.6050877571105959,-0.5268701314926148,-0.03931605815887451,2.404609441757202,0.6985554695129395,-4.515824794769287,-2.7935142517089845,2.437056064605713,1.225082278251648,-1.3421263694763184,-3.2752175331115724,2.671487808227539,-1.8463921546936036,0.032087624073028567,-2.1291346549987795,0.3078698217868805,1.627060055732727,2.8488683700561525,2.70855975151062,-1.4751408100128174,3.169046640396118,-4.720650672912598,-0.9248818159103394,3.79146146774292,3.022331714630127,-0.6045485734939575,1.3679136037826539,-2.2280216217041017,-2.405146598815918,3.934593439102173,-5.0,4.43717622756958,-1.6963529586791993,4.160387992858887,1.3429707288742066,3.1758360862731935,0.4337746798992157,-2.6916136741638185,-1.3439546823501588,-0.7546000480651856,-1.5124331712722779,-1.671523094177246,-0.4429389238357544,-0.9783751368522644,1.0787599086761475,1.6455848217010499],"l_hidden2OutputLayerWeights":[-3.630171537399292,-2.9272100925445558,-1.163590431213379,2.379163980484009,-4.006490230560303,4.262242794036865,0.720763087272644,2.6799521446228029,-3.0984840393066408,0.6634507179260254,1.1961838006973267,2.0021324157714845,-0.054770246148109439,4.041523456573486,-3.308016300201416,4.021472454071045,3.168999671936035,-3.617867946624756,-3.2129735946655275,-2.266753673553467,-2.021512746810913,-3.001600503921509],"l_hiddenLayersNeuronsBias":[0.0,0.0,0.0,0.0,0.0,0.0,0.0,0.0,0.0,0.0,0.0]},{"i_score":26,"l_input2HiddenLayerWeights":[-0.7881859540939331,4.044587135314941,2.3676466941833498,-2.1329169273376467,-0.4263409376144409,3.868344783782959,1.649591326713562,1.792976975440979,-4.097967624664307,3.159616708755493,5.0,-0.3876872956752777,2.6938836574554445,2.214632987976074,0.7300537824630737,-2.906707525253296,1.7010716199874879,4.451771259307861,4.939763069152832,-1.0799970626831055,-1.9876576662063599,3.851437568664551,2.177739143371582,-0.8861492872238159,-0.4338029623031616,-3.3291544914245607,-1.7758355140686036,0.8616775274276733,-1.2171844244003297,2.289496660232544,-0.19816270470619203,-2.161937952041626,-4.794612884521484,1.5914109945297242,-4.170413017272949,0.5718278884887695,-0.40686583518981936,2.2894678115844728,0.995404064655304,4.807461738586426,-4.55740213394165,0.04076296091079712,-1.91484534740448,-0.8100436925888062,3.5152530670166017,-2.6145870685577394,5.0,-5.0,-0.3532412052154541,0.10347217321395874,-0.10082539916038513,0.3373253345489502,-1.6443947553634644,-2.807300329208374,-0.3779958486557007,2.8655848503112795,-2.578688383102417,4.182572841644287,5.0,3.1792044639587404,-3.9981484413146974,-0.5465110540390015,-1.9036035537719727,1.524876356124878,-0.5376476049423218,-4.123170375823975,3.4645626544952394,1.723340630531311,-1.9963513612747193,-4.488707065582275,3.065640926361084,-0.637223482131958,-4.944565773010254,2.6899890899658205,-3.7026162147521974,3.622194290161133,-0.4640766680240631,0.3810117244720459,3.138706684112549,0.7596050500869751,-5.0,-2.823983907699585,2.144010543823242,1.3723865747451783,-1.5219312906265259,-3.6333909034729006,2.0287351608276369,-3.133819580078125,-0.9387814998626709,-3.0742785930633547,-0.7732536792755127,1.761389136314392,2.194317102432251,3.606882095336914,-1.1744980812072755,3.661917209625244,-4.500288009643555,-0.42709362506866457,3.978040933609009,3.289904832839966,-2.2030603885650636,2.7119266986846926,-2.939502716064453,-2.4079439640045168,2.2223689556121828,-3.8992762565612795,3.2822699546813967,-1.4543403387069703,4.664754390716553,2.2278358936309816,4.865718364715576,0.7595610618591309,-3.280557632446289,-0.9532712697982788,-1.0379042625427247,-2.5572423934936525,-0.9349831342697144,-0.8874015808105469,-0.5316498279571533,0.4363343119621277,1.3273829221725464],"l_hidden2OutputLayerWeights":[-5.0,-2.2109899520874025,-0.2996121346950531,1.3756524324417115,-5.0,4.174508094787598,1.5207157135009766,1.8222706317901612,-2.1113200187683107,0.7679047584533691,1.918697714805603,1.935246229171753,-0.24411270022392274,3.882899284362793,-2.931105136871338,4.6003265380859379,2.519378185272217,-3.1454200744628908,-3.2502095699310304,-1.4180562496185303,-2.996812105178833,-2.950495719909668],"l_hiddenLayersNeuronsBias":[0.0,0.0,0.0,0.0,0.0,0.0,0.0,0.0,0.0,0.0,0.0]},{"i_score":26,"l_input2HiddenLayerWeights":[-0.6406345367431641,3.944577217102051,1.8550792932510377,-1.0645867586135865,-0.5123485326766968,4.494544506072998,2.1586270332336427,1.601730227470398,-5.0,3.7690186500549318,4.4693284034729,1.0101592540740967,1.8636192083358765,1.515690803527832,-0.45956552028656008,-3.5120725631713869,0.5054984092712402,5.0,4.968114376068115,-1.367875099182129,-2.6226468086242677,3.896805763244629,2.434516429901123,-1.2651379108428956,-0.7612437605857849,-3.8162307739257814,-1.7039477825164796,-0.23830461502075196,-2.054737091064453,3.155217409133911,-0.6982072591781616,2.714123487472534,-4.046711444854736,1.578705072402954,-2.0661051273345949,-0.21288347244262696,-0.02438085526227951,2.3610310554504396,0.7780694365501404,5.0,-4.2612714767456059,-0.35691899061203005,-1.3112452030181885,-0.48259514570236208,4.29775333404541,-2.1651906967163088,3.871476650238037,-4.403606414794922,-0.6944825649261475,0.4261544942855835,0.061685800552368167,0.011865369975566864,-0.10336318612098694,-2.494770050048828,-0.24608084559440614,2.814354419708252,-2.793879508972168,3.7820520401000978,4.888434410095215,5.0,-3.848686695098877,0.08733156323432923,-2.6106457710266115,0.46492406725883486,-2.1136529445648195,-3.7512869834899904,3.0243053436279299,0.48021602630615237,-1.1882081031799317,-4.452774524688721,2.8740439414978029,0.5092989802360535,-3.865426778793335,3.7428054809570314,-4.661068439483643,4.084965229034424,-0.9083576202392578,-1.04037606716156,1.8507870435714722,0.9860553741455078,-4.918591499328613,-3.4391911029815676,2.879641056060791,1.600844144821167,-1.4275097846984864,-4.033541679382324,1.9956204891204835,-1.916813611984253,-1.4744441509246827,-1.719464898109436,-0.09841257333755493,0.9712615013122559,2.224581718444824,2.4476253986358644,-2.467327833175659,3.4630320072174074,-3.7159252166748049,-1.5221352577209473,5.0,3.8612046241760256,0.020160526037216188,1.5281184911727906,-2.651956558227539,-2.737105131149292,2.9129600524902345,-4.881351470947266,4.551231384277344,-1.5852620601654053,4.3308186531066898,0.6998891830444336,3.8970890045166017,0.46235620975494387,-3.108278751373291,-1.2146568298339844,-0.97986900806427,-1.709264874458313,-1.0340944528579713,0.11093908548355103,-0.6277275681495667,1.439220905303955,2.3178975582122804],"l_hidden2OutputLayerWeights":[-4.968522548675537,-1.6991430521011353,-1.8153505325317383,1.8235384225845338,-4.578667163848877,4.569705963134766,1.365809440612793,1.6870061159133912,-2.2981371879577638,0.9976774454116821,1.9769892692565919,1.5577205419540406,-0.14794987440109254,3.4672014713287355,-2.823289155960083,3.724677085876465,2.079749345779419,-2.9894614219665529,-2.882845878601074,-2.0305402278900148,-2.0055599212646486,-2.5583510398864748],"l_hiddenLayersNeuronsBias":[0.0,0.0,0.0,0.0,0.0,0.0,0.0,0.0,0.0,0.0,0.0]},{"i_score":26,"l_input2HiddenLayerWeights":[-0.7883189916610718,4.46578311920166,1.0838370323181153,-2.3369321823120119,-0.8080395460128784,3.6588425636291506,3.648322105407715,2.511889696121216,-3.6565017700195314,4.000348091125488,4.9858245849609379,0.6119054555892944,2.3787436485290529,0.49986135959625246,-0.6818349361419678,-1.6919522285461426,-0.01702365279197693,4.2342071533203129,5.0,-1.4726953506469727,-3.521768808364868,3.628376007080078,2.2523245811462404,-0.5214074850082398,-0.4230090379714966,-4.167708396911621,-0.9368619918823242,0.9320307970046997,-0.9755762815475464,2.0287952423095705,-0.3630308210849762,1.362054467201233,-4.968170166015625,0.572798490524292,-3.2829461097717287,0.10147333890199661,-0.6338317394256592,2.9738950729370119,0.09320494532585144,4.958718299865723,-4.414391040802002,-0.514015793800354,-1.484631896018982,-0.31093424558639529,3.67515230178833,-2.7765021324157717,4.832953453063965,-5.0,-1.1299890279769898,0.5908373594284058,-0.5417085886001587,-0.24831163883209229,-2.3040523529052736,-4.293894290924072,1.3426239490509034,2.8979263305664064,-3.270312786102295,4.020010948181152,5.0,4.070028305053711,-4.442567825317383,-0.06391829997301102,-2.937755584716797,0.6975677013397217,-2.077944755554199,-3.6292412281036379,2.609758138656616,-0.041824162006378177,-2.044843912124634,-3.7557373046875,1.8837306499481202,-1.46641206741333,-2.530534267425537,2.5562500953674318,-4.198300361633301,3.924433708190918,-0.08782599866390228,-0.6327967643737793,3.3899037837982179,-1.053268313407898,-4.596585750579834,-3.0079407691955568,2.916320323944092,4.224496364593506,-0.20322516560554505,-3.6124582290649416,2.389410972595215,-2.5911669731140138,0.08353379368782044,-2.285215139389038,1.3514959812164307,1.755645990371704,3.2835636138916017,3.5506904125213625,-0.9856000542640686,3.7855443954467775,-4.553241729736328,-0.007043957710266113,4.372005939483643,3.3348236083984377,0.36615628004074099,2.2481796741485597,-1.848179817199707,-2.05316162109375,2.5676674842834474,-4.075007915496826,4.633273601531982,-1.7374324798583985,4.501878261566162,1.9408215284347535,4.582932949066162,0.20249417424201966,-2.6267073154449465,-1.363147497177124,-1.2958064079284669,-2.072681427001953,-1.1709461212158204,-0.43805205821990969,-1.5302972793579102,0.3537263870239258,1.6170427799224854],"l_hidden2OutputLayerWeights":[-4.225406169891357,-2.3047218322753908,-0.5314996242523193,3.0664594173431398,-4.192758560180664,4.380081653594971,2.0330452919006349,2.679300546646118,-3.3688430786132814,-0.4677848517894745,2.033825397491455,2.8199939727783205,-0.7546038627624512,4.289457321166992,-2.3612751960754396,3.903872013092041,2.498798370361328,-2.990957736968994,-2.989042282104492,-2.347804069519043,-3.500845193862915,-2.0481536388397219],"l_hiddenLayersNeuronsBias":[0.0,0.0,0.0,0.0,0.0,0.0,0.0,0.0,0.0,0.0,0.0]},{"i_score":27,"l_input2HiddenLayerWeights":[0.06812331080436707,3.965214729309082,2.1340551376342775,-1.6811131238937379,0.270400732755661,4.046048641204834,2.6904327869415285,1.691467523574829,-4.037714958190918,3.607607364654541,4.490808010101318,0.33055129647254946,2.7879836559295656,1.112350344657898,0.8609025478363037,-2.4089226722717287,1.3368912935256959,5.0,4.496129035949707,-1.2946733236312867,-3.1502254009246828,3.462798595428467,1.574044942855835,-0.28332316875457766,0.21516939997673036,-3.5071969032287599,-1.899588704109192,1.4182186126708985,-1.0737192630767823,2.422069549560547,-0.862848162651062,3.922269821166992,-3.901252269744873,0.6815977096557617,-2.770202875137329,-0.12956508994102479,-0.07153964042663574,2.277390241622925,0.24471759796142579,5.0,-4.208950996398926,-0.4012669324874878,-1.3159676790237427,-0.11634320020675659,3.8269858360290529,-1.3258295059204102,3.833434581756592,-4.237478733062744,0.09251970052719116,-0.5105463266372681,0.6431199312210083,-0.22430051863193513,-0.049036890268325809,-3.515453577041626,0.5374066829681397,3.63885498046875,-3.5230026245117189,3.406902313232422,5.0,4.550509452819824,-3.8996386528015138,-0.003639504313468933,-3.3053770065307619,1.08525550365448,-1.4682867527008057,-4.290898323059082,2.685106039047241,0.15367209911346436,-0.7260633707046509,-3.9595143795013429,2.854743480682373,-0.321410208940506,-3.2950351238250734,2.5823636054992677,-3.8353168964385988,3.9103102684020998,-0.47126734256744387,-0.790225625038147,2.449918508529663,1.0836139917373658,-4.063328266143799,-2.6889572143554689,2.559835433959961,1.0744620561599732,-0.5266598463058472,-3.6590323448181154,1.9922819137573243,-2.1520466804504396,-0.06516414880752564,-2.247836112976074,0.9917470216751099,1.2807711362838746,2.2905845642089845,2.9866790771484377,-1.7355717420578004,3.1349823474884035,-4.085322380065918,-0.5086027383804321,3.9589385986328127,3.454174757003784,-0.5992861986160278,1.5025213956832886,-0.8815198540687561,-2.3242721557617189,2.943159341812134,-5.0,3.2981247901916506,-1.212308645248413,4.355939865112305,1.0849922895431519,3.462648391723633,0.07334384322166443,-2.8373069763183595,-0.8256937265396118,-0.35105428099632265,-1.6240780353546143,-2.2179887294769289,0.04542863368988037,-1.045433759689331,1.1229435205459595,1.3869805335998536],"l_hidden2OutputLayerWeights":[-4.791297912597656,-2.960865020751953,-1.9441275596618653,1.1712182760238648,-4.967227935791016,4.054207801818848,1.0619041919708253,1.3261890411376954,-1.7083426713943482,0.708754301071167,2.7028801441192629,1.828858494758606,0.434600293636322,4.3905253410339359,-4.092457294464111,3.6254148483276369,2.4389355182647707,-3.4084386825561525,-3.053840160369873,-1.5233635902404786,-2.3249611854553224,-1.4980690479278565],"l_hiddenLayersNeuronsBias":[0.0,0.0,0.0,0.0,0.0,0.0,0.0,0.0,0.0,0.0,0.0]},{"i_score":27,"l_input2HiddenLayerWeights":[-1.0200830698013306,3.803462028503418,1.4868812561035157,-1.6293389797210694,-0.1588321030139923,4.871054172515869,3.1858139038085939,3.1845579147338869,-5.0,2.891294002532959,4.986574649810791,0.6733782291412354,1.9623817205429078,0.9812482595443726,1.5254995822906495,-3.346064805984497,0.4124453067779541,4.773228645324707,3.8647403717041017,-1.1090558767318726,-3.7371485233306886,3.695448398590088,1.7410537004470826,0.9765727519989014,-1.5672383308410645,-5.0,-2.452672004699707,0.962894856929779,-1.5149426460266114,3.149174213409424,-1.2003660202026368,4.191262722015381,-4.549075126647949,1.1439874172210694,-3.066970109939575,0.27829864621162417,0.46566906571388247,2.8078560829162599,-0.7241079807281494,4.899723529815674,-4.26417875289917,0.20739451050758363,-0.853095531463623,-0.11484178900718689,4.2156171798706059,-3.0895872116088869,4.662069797515869,-4.719676971435547,-1.2698065042495728,-0.4569990336894989,1.0489377975463868,-0.9431616067886353,-1.1682965755462647,-3.6924262046813967,0.6190478801727295,2.440889835357666,-3.3347930908203127,2.52925443649292,4.341483116149902,4.718560218811035,-3.392058849334717,0.21889808773994447,-2.491832733154297,0.38228362798690798,-1.1964716911315919,-3.7506041526794435,2.079648971557617,0.4841885566711426,-0.7872694730758667,-5.0,2.5838475227355959,-1.5481253862380982,-3.9344162940979006,3.1179044246673586,-3.58034610748291,4.0473432540893559,0.3079075515270233,-0.2818039655685425,3.5022878646850588,0.6861265897750855,-4.312859058380127,-3.378887414932251,2.518611431121826,0.7011642456054688,-1.1475566625595093,-3.894777774810791,1.665216088294983,-3.159475326538086,-0.3562363386154175,-2.567758321762085,1.2939103841781617,2.0507264137268068,2.2830066680908205,2.6565210819244386,-1.231637954711914,2.8836302757263185,-3.941495418548584,0.3382986783981323,4.425296783447266,2.5673747062683107,-0.31736066937446597,2.025987148284912,-2.4568982124328615,-2.3254005908966066,4.304413795471191,-4.563180923461914,2.9800257682800295,-1.8162415027618409,4.559029579162598,2.1580324172973635,3.7773401737213136,-0.20588815212249757,-3.593594789505005,-1.192822813987732,-1.1689354181289673,-1.1422898769378663,-1.2448878288269044,-0.5733428001403809,-1.0487803220748902,0.6046873927116394,2.343968629837036],"l_hidden2OutputLayerWeights":[-4.036048889160156,-3.786120891571045,-2.068251609802246,1.3244595527648926,-4.733165740966797,4.423386096954346,1.1409902572631837,3.9872732162475588,-0.5025763511657715,1.459242820739746,1.8800530433654786,1.8029358386993409,0.5570907592773438,4.57017707824707,-4.297343730926514,4.558525085449219,3.2343127727508547,-3.8869435787200929,-2.9356610774993898,-2.198225498199463,-2.185260772705078,3.695448398590088],"l_hiddenLayersNeuronsBias":[0.0,0.0,0.0,0.0,0.0,0.0,0.0,0.0,0.0,0.0,0.0]},{"i_score":27,"l_input2HiddenLayerWeights":[-1.0226918458938599,3.198854923248291,2.464755058288574,-1.557854175567627,0.9694342613220215,3.7043988704681398,2.34733510017395,3.764477491378784,-4.0932135581970219,1.7633877992630005,4.837019443511963,0.21737352013587953,3.470381736755371,1.5293526649475098,-0.1759413182735443,-3.081082582473755,0.04401335120201111,4.332065105438232,4.891872406005859,-2.264187812805176,-2.872612953186035,3.647146701812744,1.9781055450439454,-0.021330416202545167,-0.20725905895233155,-5.0,-1.9616854190826417,0.2349076271057129,-1.975134015083313,1.9945234060287476,-0.3233632445335388,1.9420983791351319,-4.9161553382873539,1.2925903797149659,-3.1552250385284426,1.169701099395752,-0.7259682416915894,2.7929415702819826,-1.279443621635437,4.930053234100342,-4.316524982452393,-0.3954783082008362,-1.5957037210464478,-1.0159106254577637,4.471035003662109,-1.6578563451766968,4.826303958892822,-4.451886177062988,-0.3916592597961426,0.013266772031784058,-0.9023290872573853,-0.9674426317214966,-1.121016025543213,-3.3134634494781496,-0.6377243399620056,2.3006045818328859,-3.8021504878997804,2.9899990558624269,4.8434062004089359,3.972710609436035,-4.47735071182251,-0.373867005109787,-1.718536138534546,1.743664264678955,-2.215075969696045,-3.423642873764038,2.821606159210205,0.632458508014679,-0.5754885673522949,-4.754810810089111,2.5541882514953615,-1.037937879562378,-3.594472646713257,3.3323216438293459,-4.066504955291748,3.6337380409240724,-0.11247715353965759,-0.9622936248779297,2.718777656555176,0.07237160205841065,-5.0,-2.6324644088745119,3.1253528594970705,0.588053822517395,-1.2893273830413819,-4.009380340576172,3.5499422550201418,-3.0492916107177736,0.06654470413923264,-2.5802407264709474,0.8108465075492859,1.029670000076294,2.4332692623138429,3.3396284580230715,-1.1943086385726929,3.1144964694976808,-4.570460796356201,-0.838817298412323,5.0,3.278933048248291,-0.12391942739486695,1.469193935394287,-2.466392993927002,-2.5305941104888918,3.9572434425354006,-4.833528518676758,4.736301422119141,0.04976540803909302,3.845576047897339,1.2454136610031129,3.827237844467163,-0.016287945210933687,-4.601116180419922,-2.029383420944214,-0.7531625032424927,-1.607180118560791,-2.6792449951171877,0.8761387467384338,-1.0878783464431763,-0.10979368537664414,2.064208745956421],"l_hidden2OutputLayerWeights":[-4.7083539962768559,-2.4306540489196779,-0.46836811304092409,1.7777526378631592,-3.2364211082458498,4.587302207946777,2.875844955444336,2.466653823852539,-2.7041678428649904,0.2508488595485687,2.9465372562408449,1.971203088760376,0.1387368142604828,4.438236713409424,-3.1600944995880129,5.0,2.493021011352539,-3.9294426441192629,-1.7266446352005005,-1.8291138410568238,-3.758169174194336,-3.0642850399017336],"l_hiddenLayersNeuronsBias":[0.0,0.0,0.0,0.0,0.0,0.0,0.0,0.0,0.0,0.0,0.0]},{"i_score":27,"l_input2HiddenLayerWeights":[-0.8302558660507202,4.423060417175293,2.180115222930908,-1.8782626390457154,0.46506500244140627,5.0,1.6621127128601075,3.623105049133301,-4.801013469696045,2.4674758911132814,5.0,0.9336351156234741,2.69993257522583,2.403827667236328,1.3402687311172486,-3.2300758361816408,0.37848353385925295,4.349709510803223,4.952613353729248,-1.5458725690841675,-3.101925849914551,3.3870487213134767,1.714308500289917,-0.885653018951416,-0.5115799903869629,-4.472851753234863,-2.1514997482299806,1.168091893196106,-2.0340287685394289,2.061690330505371,0.6434511542320252,2.6100587844848635,-4.8566741943359379,1.257229208946228,-3.2108805179595949,0.3494964838027954,0.12993872165679933,2.5614094734191896,-0.8191350698471069,5.0,-3.7502999305725099,-0.5645865797996521,-1.569757103919983,-0.5961962938308716,3.6911582946777345,-4.073791980743408,4.84006404876709,-4.595548629760742,-1.1955233812332154,0.259612113237381,-0.5323671102523804,-0.5706944465637207,-0.8707791566848755,3.1877975463867189,-0.3451322913169861,2.0230250358581545,-4.15677547454834,2.2177157402038576,4.3169684410095219,4.129245758056641,-3.973177909851074,-0.05029210448265076,-1.3336609601974488,-0.543287456035614,-1.0082765817642213,-2.7684860229492189,2.8211417198181154,1.2467217445373536,-1.657027244567871,-4.411299228668213,2.5866150856018068,-1.0169106721878052,-3.4987268447875978,2.4495351314544679,-3.6440649032592775,3.1229984760284426,0.2513539493083954,-0.4399758577346802,3.0416388511657717,0.3022944927215576,-5.0,-2.7840781211853029,2.4948835372924806,1.3017585277557374,-1.5459349155426026,-3.337446451187134,2.1042656898498537,-1.4686981439590455,0.12863996624946595,-2.2877655029296877,0.031277209520339969,1.0024685859680176,3.4198496341705324,2.782921314239502,-1.4629387855529786,2.735745906829834,-4.524392604827881,-0.2293524444103241,4.8910112380981449,3.2460927963256838,0.20119184255599976,2.113086700439453,-2.781310558319092,-2.353858709335327,4.266120910644531,-5.0,4.448674201965332,-1.6451114416122437,4.556447982788086,1.3184492588043213,3.7624149322509767,2.8014745712280275,-3.5926077365875246,-1.3051140308380128,-0.32951968908309939,-2.232952356338501,-1.2161216735839844,1.0571320056915284,-1.9910085201263428,-0.1803833246231079,2.2013397216796877],"l_hidden2OutputLayerWeights":[-4.610324859619141,-3.0555176734924318,-0.0918923020362854,2.7893333435058595,-4.667043209075928,3.774942636489868,1.820488691329956,2.166715145111084,-1.6661959886550904,1.0403460264205933,-0.26264631748199465,1.7960988283157349,0.11250379681587219,4.027516841888428,-3.175543785095215,4.703592777252197,3.6617703437805177,-3.536879777908325,-1.3003888130187989,-2.088639736175537,-1.9035353660583497,-2.7503857612609865],"l_hiddenLayersNeuronsBias":[0.0,0.0,0.0,0.0,0.0,0.0,0.0,0.0,0.0,0.0,0.0]},{"i_score":32,"l_input2HiddenLayerWeights":[-0.6726045608520508,4.590618133544922,2.622722864151001,-2.251086711883545,0.18069899082183839,4.9269232749938969,1.77228581905365,3.6779673099517824,-4.780398845672607,2.8481059074401857,4.727337837219238,0.17889633774757386,4.005517959594727,1.1779208183288575,-0.11477819085121155,-2.8270721435546877,1.5988552570343018,4.5970964431762699,4.703547954559326,-2.7957510948181154,-3.013554334640503,3.2172508239746095,1.6808099746704102,-0.2716063857078552,-0.2489793598651886,-5.0,-1.549489140510559,1.6978709697723389,-2.1038906574249269,1.887557029724121,0.23174601793289185,5.0,-4.1839799880981449,1.2014878988265992,-3.2477571964263918,0.009318947792053223,-0.68996262550354,1.3124775886535645,-0.1403237283229828,5.0,-4.359753608703613,-0.19637525081634522,-1.9158484935760499,0.08011359721422196,4.008333683013916,-4.33460807800293,4.60087776184082,-3.589036464691162,-0.6328558921813965,0.24242350459098817,-1.4439088106155396,-0.4226282835006714,-1.1941392421722413,-3.741159439086914,-1.1840816736221314,3.3801145553588869,-3.705148935317993,2.1043496131896974,5.0,4.380288600921631,-5.0,0.41874027252197268,-2.8548412322998049,0.681665301322937,-1.3836647272109986,-3.0944290161132814,2.8953857421875,0.1667407751083374,-1.0414772033691407,-4.972935199737549,2.651615858078003,-1.894287347793579,-3.531672954559326,2.777369260787964,-3.505594253540039,3.4525649547576906,0.45731011033058169,0.3747803866863251,2.696615219116211,0.8586413860321045,-5.0,-2.550689935684204,3.047956705093384,2.3233070373535158,-1.3699939250946046,-3.4103736877441408,3.117617607116699,-2.436063766479492,0.4664214849472046,-3.849363327026367,0.45420610904693606,1.1630691289901734,3.257782459259033,2.28350830078125,-1.3773927688598633,2.571331024169922,-3.268937349319458,-0.8332011699676514,4.957926273345947,3.2212040424346926,0.5255054235458374,1.5329092741012574,-1.9431498050689698,-2.754850149154663,3.934427261352539,-4.747663974761963,4.3141632080078129,-0.010613292455673218,4.150141716003418,1.636319637298584,4.2164716720581059,-0.07489156723022461,-5.0,-0.8643707633018494,-0.5373969674110413,-1.4714295864105225,-1.5393058061599732,1.6185822486877442,0.23441994190216065,-0.45442700386047366,1.5746268033981324],"l_hidden2OutputLayerWeights":[-4.6544623374938969,-2.670374631881714,-1.4838857650756837,1.067650318145752,-4.3881378173828129,4.62592887878418,2.035433530807495,3.9634180068969728,-3.162942886352539,0.015747904777526857,1.5389649868011475,2.234424591064453,-0.5167577266693115,3.591386079788208,-3.2513222694396974,4.396502494812012,2.7986927032470705,-3.096451997756958,-0.2574525475502014,-2.7303552627563478,-2.1944668292999269,-2.02333402633667],"l_hiddenLayersNeuronsBias":[0.0,0.0,0.0,0.0,0.0,0.0,0.0,0.0,0.0,0.0,0.0]},{"i_score":32,"l_input2HiddenLayerWeights":[-1.631568193435669,3.4826431274414064,1.3314008712768555,-2.1210174560546877,0.299940824508667,4.052759170532227,2.062602996826172,4.6686859130859379,-4.49477481842041,3.4017040729522707,5.0,0.25062838196754458,1.681006908416748,0.42660772800445559,0.5106979608535767,-3.0127878189086916,0.193417489528656,3.4506351947784426,3.8264708518981935,-1.7105668783187867,-2.8105297088623049,2.7566020488739015,2.6223087310791017,-0.22061429917812348,-0.7307119369506836,-4.541909694671631,-1.334346890449524,1.7473726272583008,-2.682739734649658,1.3968712091445923,-0.5944732427597046,4.160712242126465,-3.683988094329834,1.2257509231567383,-2.3577497005462648,-0.0076792240142822269,-0.47074341773986819,2.6648426055908205,-0.794068455696106,4.9499053955078129,-5.0,-0.085164874792099,-1.7504706382751465,-0.4257347583770752,4.1909918785095219,-1.6972943544387818,4.627922058105469,-4.0500030517578129,-1.1977993249893189,0.077964186668396,-1.1984871625900269,