{"l_brains":[{"i_score":39,"l_input2HiddenLayerWeights":[0.08363005518913269,3.794767379760742,2.051413059234619,-1.6333907842636109,-0.7344703674316406,3.877208948135376,3.1523995399475099,1.994895577430725,-4.4550299644470219,2.8151440620422365,4.593764305114746,0.14369307458400727,3.2563579082489015,1.2704463005065919,0.7380104064941406,-2.212796926498413,0.24093183875083924,4.477078437805176,3.7240428924560549,-0.9277564287185669,-3.333010673522949,3.477017641067505,2.3278250694274904,-0.5771564245223999,-0.07519719004631043,-3.5640838146209719,-1.2128299474716187,2.3363232612609865,-1.2597705125808716,2.368511915206909,0.22583317756652833,4.192210674285889,-4.5691633224487309,0.7454853057861328,-2.498422861099243,0.35401344299316409,0.14394095540046693,2.918933868408203,0.45141175389289858,4.578488349914551,-4.928916931152344,-0.14725595712661744,-1.6205424070358277,0.07857862114906311,3.471418619155884,-2.7817139625549318,4.673254013061523,-4.988337516784668,-0.04536750912666321,-0.3085732161998749,-0.44620025157928469,1.0052839517593384,-1.948889136314392,-2.601382255554199,0.8489526510238648,2.9360272884368898,-3.803757667541504,3.8429770469665529,4.639808177947998,3.481018304824829,-5.0,-0.5629663467407227,-2.212477445602417,1.8273820877075196,-1.8302215337753297,-3.751464605331421,3.395205497741699,-0.15797248482704163,-1.147553563117981,-4.298524856567383,2.1824307441711427,0.42219892144203188,-3.422165870666504,2.6672582626342775,-3.532158374786377,3.686338424682617,-1.0444210767745972,0.13760527968406678,1.8791608810424805,0.18033623695373536,-5.0,-3.3533828258514406,2.697155714035034,1.3027790784835816,-2.2913360595703127,-1.6174319982528687,2.1786751747131349,-2.481801748275757,-1.2886122465133668,-2.4435393810272219,1.130855679512024,1.4099986553192139,2.227424383163452,3.2016825675964357,-0.9665476083755493,2.940415143966675,-4.266668319702148,-0.05188596248626709,4.2296977043151859,2.964045286178589,-0.5480637550354004,1.7534843683242798,-1.1082240343093873,-2.907442092895508,1.7728345394134522,-4.9531965255737309,3.094290256500244,-1.2598525285720826,4.404501914978027,1.2489280700683594,4.073770046234131,0.6756054162979126,-5.0,-1.8302148580551148,-2.07759952545166,-2.868218421936035,-1.1790406703948975,-0.2008744776248932,-0.36020880937576296,0.3896002173423767,1.2392992973327637],"l_hidden2OutputLayerWeights":[-5.0,-2.402076482772827,-1.1267000436782838,2.7607738971710207,-4.572774887084961,4.482858657836914,3.0278167724609377,2.008467197418213,-1.9803580045700074,1.2201135158538819,2.0308992862701418,2.3170089721679689,-0.9548527598381043,3.9148073196411135,-4.244657516479492,4.537412643432617,2.0334010124206545,-3.253075122833252,-2.22594952583313,-1.4809014797210694,-3.127363681793213,-2.975182294845581],"l_hiddenLayersNeuronsBias":[0.0,0.0,0.0,0.0,0.0,0.0,0.0,0.0,0.0,0.0,0.0]},{"i_score":38,"l_input2HiddenLayerWeights":[-1.1106551885604859,4.611449241638184,2.490807294845581,-1.7284059524536133,1.014704942703247,4.7244768142700199,1.733571171760559,3.4667258262634279,-4.014647006988525,-2.6219849586486818,4.879741668701172,0.5624991655349731,2.532064914703369,1.3163182735443116,0.18349489569664002,-3.112997531890869,0.7989709377288818,3.508791208267212,5.0,-1.581884503364563,-2.6936302185058595,3.6716928482055666,2.1910743713378908,0.6296894550323486,-0.5913347005844116,-3.880866050720215,-1.9564063549041749,0.9441970586776733,-2.395301103591919,1.9760899543762208,-0.5394973754882813,3.313004732131958,-4.4413533210754398,0.9713493585586548,-3.5100083351135256,0.9390654563903809,0.3715125322341919,2.4734253883361818,0.803425669670105,4.557279109954834,-4.0685248374938969,-0.4732486307621002,-1.6989225149154664,-1.2722444534301758,4.125888347625732,-2.090420961380005,5.0,-4.552529335021973,-1.164662480354309,0.3175772428512573,-0.8684834241867065,-0.7058743238449097,-1.7862285375595093,-3.411996841430664,-0.2081611156463623,2.251666784286499,-3.772536516189575,1.8128077983856202,4.6980133056640629,4.157963275909424,-4.454013824462891,0.07680532336235047,-2.245790481567383,0.30442434549331667,-1.275923252105713,-3.5620615482330324,3.2304725646972658,1.3525114059448243,-1.6406210660934449,-5.0,2.1406736373901369,-1.3259793519973755,-3.4184398651123049,2.999422073364258,-3.6618995666503908,3.497124671936035,-0.31865009665489199,0.3922383785247803,2.7896175384521486,0.92210853099823,-5.0,-3.6807613372802736,2.510016441345215,2.142843723297119,-1.6933469772338868,-3.524549961090088,2.5856800079345705,-2.001586437225342,-0.47572624683380129,-2.0033516883850099,0.04999339580535889,1.985171914100647,3.217191219329834,3.2319045066833498,-1.016818642616272,3.5520575046539308,-4.134476184844971,-0.2432723194360733,5.0,3.2897634506225588,-2.2359511852264406,1.2953191995620728,-2.550013780593872,-2.5308263301849367,2.0512032508850099,-5.0,3.494269609451294,-1.3565200567245484,4.60321569442749,1.851536512374878,4.27372932434082,1.644177794456482,-3.6652753353118898,-1.7695090770721436,-1.1490589380264283,-2.5763049125671388,-2.583033561706543,0.6544468998908997,-1.3119547367095948,-0.4172784090042114,2.426506757736206],"l_hidden2OutputLayerWeights":[-3.9236669540405275,-2.394073486328125,-0.486117422580719,1.2841811180114747,-4.748418807983398,5.0,2.0589253902435304,2.526935577392578,-2.257612466812134,1.0858548879623414,2.2050957679748537,1.6180342435836793,-0.2018355131149292,4.2659010887146,-3.1206705570220949,4.453492641448975,3.386927843093872,-3.3267476558685304,-2.427234649658203,-2.126617431640625,-2.113306760787964,-2.8510019779205324],"l_hiddenLayersNeuronsBias":[0.0,0.0,0.0,0.0,0.0,0.0,0.0,0.0,0.0,0.0,0.0]},{"i_score":39,"l_input2HiddenLayerWeights":[-0.5727622509002686,3.534147024154663,2.180115222930908,-1.5375723838806153,-0.48295870423316958,4.326384544372559,1.8969913721084595,3.623105049133301,-4.488232135772705,2.4674758911132814,4.753127098083496,0.9336351156234741,2.69993257522583,1.3393360376358033,0.014113545417785645,-2.4159626960754396,0.37848353385925295,4.349709510803223,4.6962971687316898,-1.9627960920333863,-2.6428871154785158,3.92759370803833,1.714308500289917,-0.885653018951416,-0.7355012893676758,-4.472851753234863,-1.723596453666687,0.15051937103271485,-2.2548277378082277,2.1779558658599855,-0.26164761185646059,2.114163875579834,-4.482116222381592,1.111222743988037,-2.5463576316833498,0.3073228597640991,0.12993872165679933,2.41176700592041,0.6553201675415039,5.0,-4.279044151306152,-0.16909831762313844,-1.782129168510437,-0.5961962938308716,4.85560417175293,-1.7967544794082642,4.744361877441406,-4.432034492492676,-2.0790634155273439,-0.1496739685535431,0.1503523886203766,-1.2590491771697999,-1.5448793172836304,-2.91904878616333,-0.3101462125778198,2.3663718700408937,-4.15677547454834,2.2358920574188234,4.3169684410095219,4.024456977844238,-3.973177909851074,-0.2103177309036255,-1.9187171459197999,0.04508715867996216,-0.9849140644073486,-3.706993579864502,2.8211417198181154,1.2467217445373536,-2.041395664215088,-4.662276744842529,2.522049903869629,-1.6234771013259888,-2.932584762573242,3.5520687103271486,-3.6440649032592775,3.33050537109375,-0.5517556667327881,0.2145584523677826,2.819603443145752,0.7618750333786011,-5.0,-3.004523992538452,2.4948835372924806,1.3017585277557374,-1.7952979803085328,-3.3738038539886476,2.823047399520874,-3.0532093048095705,-0.03531503677368164,-2.9016289710998537,0.30891135334968569,1.0024685859680176,2.727200746536255,2.782921314239502,-0.4575280249118805,3.862182855606079,-3.9032230377197267,-1.4135876893997193,5.0,2.8372411727905275,-1.9393852949142457,2.2877182960510256,-2.5026473999023439,-2.353858709335327,3.4448368549346926,-5.0,4.476803302764893,-1.2179522514343262,4.556447982788086,1.9050747156143189,4.682867050170898,0.4812358617782593,-3.5926077365875246,-1.5782314538955689,-0.7868987321853638,-2.3379201889038088,-1.4511072635650635,1.0571320056915284,-1.1968774795532227,0.810017466545105,2.2013397216796877],"l_hidden2OutputLayerWeights":[-5.0,-3.288391590118408,-0.1694917380809784,2.7893333435058595,-4.5300092697143559,4.633692741394043,0.9780175685882568,1.5800472497940064,-1.6661959886550904,1.0861399173736573,2.2348544597625734,1.7960988283157349,0.11250379681587219,4.027516841888428,-2.9840235710144045,4.242405891418457,2.2579832077026369,-3.3587851524353029,-2.6491284370422365,-1.736297607421875,-1.9035353660583497,-2.7503857612609865],"l_hiddenLayersNeuronsBias":[0.0,0.0,0.0,0.0,0.0,0.0,0.0,0.0,0.0,0.0,0.0]},{"i_score":38,"l_input2HiddenLayerWeights":[-0.5252559185028076,3.0581514835357668,2.157731294631958,-1.2324625253677369,-0.15464764833450318,4.312758445739746,2.0007615089416506,2.2828962802886965,-5.0,2.5488009452819826,4.805389404296875,-0.5366734266281128,2.273482084274292,2.454110860824585,0.13038703799247743,-2.620422601699829,0.08761969208717346,3.8819708824157717,4.291948318481445,-0.951208233833313,-2.2729129791259767,3.5792269706726076,2.077540874481201,0.047241926193237308,-0.31134167313575747,-2.8514437675476076,-1.4547570943832398,0.3941059112548828,-2.4542415142059328,1.8905104398727418,-0.42922738194465639,3.944064140319824,-4.754073619842529,1.0941091775894166,-3.0413455963134767,0.7716182470321655,-0.16325068473815919,2.113722562789917,0.5622825622558594,5.0,-4.222661018371582,-0.10507792234420777,-1.742231011390686,-0.3979243040084839,4.283785343170166,-2.178215980529785,4.353607654571533,-4.516589641571045,-1.2011815309524537,0.09194180369377136,0.010157555341720581,-0.5847616195678711,-0.7629287242889404,-2.4671289920806886,0.6885148286819458,1.9158011674880982,-3.956460952758789,2.698230028152466,4.809574604034424,4.719361305236816,-3.7765660285949709,-0.24187934398651124,-1.8284651041030884,-0.3164086639881134,-2.4495303630828859,-2.930159091949463,2.779554843902588,0.889650821685791,-0.6574398279190064,-4.724069118499756,2.7263007164001467,-1.4004087448120118,-4.018779277801514,2.281609535217285,-4.124382972717285,3.3855512142181398,-0.21481528878211976,0.3258165121078491,2.74619197845459,1.2040314674377442,-4.9221062660217289,-2.762737989425659,2.4705090522766115,1.2043139934539796,-2.2684762477874758,-3.1005539894104006,2.1323940753936769,-1.681649923324585,0.03971128165721893,-2.9376120567321779,0.9498435258865356,0.6486891508102417,2.4742391109466554,2.680082082748413,-0.4108645021915436,3.0397534370422365,-4.378949165344238,-1.7390822172164918,5.0,2.582364559173584,-1.8579764366149903,2.455920696258545,-2.0942983627319338,-2.3184256553649904,1.8864437341690064,-4.764435768127441,4.648887634277344,-0.30425938963890078,4.846944332122803,2.270576238632202,3.7729156017303469,-0.02867111563682556,-4.202885150909424,-2.749394416809082,-1.2346163988113404,-1.3058503866195679,-1.6390368938446046,0.8838014602661133,-1.2890361547470093,0.22347763180732728,2.1838507652282717],"l_hidden2OutputLayerWeights":[-3.650625228881836,-2.9505436420440676,-1.8909361362457276,2.788530111312866,-4.816657066345215,4.392004489898682,1.2860885858535767,3.5617716312408449,-2.054971694946289,1.268466591835022,2.143051862716675,1.5834637880325318,-0.3837743103504181,4.296676158905029,-2.7823123931884767,3.945866346359253,1.8482342958450318,-2.8930044174194338,-2.5872488021850588,-1.3997511863708497,-2.851884126663208,3.5792269706726076],"l_hiddenLayersNeuronsBias":[0.0,0.0,0.0,0.0,0.0,0.0,0.0,0.0,0.0,0.0,0.0]},{"i_score":39,"l_input2HiddenLayerWeights":[-1.2054085731506348,3.487098217010498,1.592910885810852,-2.054182529449463,-0.31268754601478579,4.017204284667969,1.7146508693695069,3.9586775302886965,-4.690567970275879,2.969581365585327,5.0,-0.235515296459198,2.3038909435272219,1.4225070476531983,0.2558252811431885,-2.1028623580932619,0.044326335191726688,4.5619378089904789,4.942861557006836,-1.590757131576538,-1.838783860206604,3.7014079093933107,1.7255017757415772,0.489727258682251,-0.9099277257919312,-4.594976425170898,-1.4656344652175904,1.1637383699417115,-1.4434040784835816,2.190178155899048,-0.3545685112476349,4.4011101722717289,-4.518224716186523,0.8785802125930786,-3.810337781906128,0.014388084411621094,-0.14067792892456056,1.989392876625061,-0.5879255533218384,4.825965881347656,-4.667642116546631,-0.039699018001556399,-2.063115119934082,-0.3112673759460449,4.497580051422119,-2.710869312286377,5.0,-5.0,-1.546411156654358,0.26969897747039797,-0.7470601797103882,-0.33052051067352297,-2.1653566360473635,-2.993581533432007,-0.7179291248321533,2.7159557342529299,-4.375058174133301,2.6695146560668947,4.859790325164795,4.224767684936523,-4.566903591156006,-0.44872617721557619,-1.4238134622573853,0.3518199622631073,-1.3926085233688355,-4.076629161834717,3.073551654815674,0.48241400718688967,-0.840660572052002,-4.662080764770508,2.220154285430908,-1.3320811986923218,-3.264380693435669,3.0700666904449465,-4.381253242492676,4.006690502166748,0.35838639736175539,0.04182839393615723,2.623997688293457,1.2101398706436158,-5.0,-3.507876396179199,2.918797492980957,0.9128788709640503,-1.0623010396957398,-2.3782920837402345,2.390442132949829,-2.6654014587402345,-0.24093860387802125,-3.451413631439209,-0.695289671421051,1.15288245677948,2.9607954025268556,3.7790677547454836,0.28948667645454409,3.659327507019043,-4.177462100982666,-0.16563308238983155,5.0,3.7438573837280275,0.027329623699188234,1.9828577041625977,-2.307464361190796,-2.4613189697265627,1.2513961791992188,-4.760435104370117,4.65654182434082,-0.3493507206439972,4.748178958892822,1.5919533967971802,4.035976409912109,1.8070569038391114,-4.5733208656311039,-1.2897197008132935,-1.7990905046463013,-2.281013250350952,-1.6065220832824708,0.9923050403594971,-0.7230188250541687,0.17627084255218507,1.6964367628097535],"l_hidden2OutputLayerWeights":[-4.788699150085449,-2.5423269271850588,-1.6139439344406129,1.1397392749786378,-4.840508460998535,4.017204284667969,2.196302890777588,3.740217447280884,-1.7497639656066895,0.5371655225753784,-0.11686551570892334,2.4133553504943849,-0.57612544298172,3.6121387481689455,-3.5386033058166506,4.440026760101318,2.703700542449951,-2.9518768787384035,-2.822798252105713,-2.0586206912994386,-3.3717000484466554,-3.548598051071167],"l_hiddenLayersNeuronsBias":[0.0,0.0,0.0,0.0,0.0,0.0,0.0,0.0,0.0,0.0,0.0]},{"i_score":39,"l_input2HiddenLayerWeights":[-0.9417824745178223,3.4270942211151125,1.7716602087020875,-1.9851078987121583,-0.7977060079574585,4.578486442565918,2.9662671089172365,3.9751501083374025,-3.7437081336975099,2.8536436557769777,5.0,1.295027256011963,1.926994800567627,0.9927686452865601,-0.04695582389831543,-2.634260654449463,0.7226248979568481,3.374918222427368,4.332235813140869,-1.4894810914993287,-3.4461188316345217,3.531769275665283,1.491568922996521,0.23619258403778077,-0.3222429156303406,-4.539385795593262,-1.4952702522277833,1.197440505027771,-1.1255640983581544,2.05631685256958,0.24257320165634156,2.29693603515625,-4.357478141784668,0.412788063287735,-2.76658296585083,0.05678868293762207,0.35150063037872317,2.5852622985839845,1.0018278360366822,5.0,-3.6641030311584474,-0.6123467683792114,-2.0857315063476564,-2.3478221893310549,5.0,-2.186098337173462,4.850561141967773,-3.9326705932617189,-1.498926043510437,0.49904441833496096,-0.7777074575424194,-0.022747427225112916,-1.4823521375656129,-3.912839412689209,1.2069096565246583,2.379772424697876,-4.511802673339844,2.446857213973999,4.609436988830566,5.0,-5.0,-0.8503895998001099,-2.710583209991455,1.1670222282409669,-2.2109780311584474,-2.805211305618286,3.2241458892822267,0.6562350988388062,-1.2620855569839478,-4.558430194854736,2.0105018615722658,0.17969533801078797,-3.1557977199554445,3.111207962036133,-3.562770128250122,4.203383445739746,0.10721150040626526,0.14403533935546876,1.7109736204147339,-0.479952335357666,-5.0,-3.348655939102173,2.688732624053955,2.3075685501098635,-0.17104306817054749,-3.4835426807403566,-3.590724229812622,-3.1419734954833986,-0.8385728597640991,-1.4753015041351319,0.7290818095207214,1.2823822498321534,3.1524829864501955,2.4017434120178224,-0.5920677781105042,3.443516254425049,-4.803116321563721,0.3366554081439972,4.753555774688721,3.0299253463745119,-2.327479362487793,2.7288098335266115,-1.5160497426986695,-2.0732085704803469,2.824744701385498,-4.29653787612915,5.0,-1.5384849309921265,5.0,2.240784168243408,4.0441813468933109,0.578673243522644,-3.2313287258148195,-2.094773292541504,-0.8009780645370483,-2.500734567642212,-1.218833088874817,1.297134280204773,-0.1394340693950653,0.7831257581710815,1.7103569507598878],"l_hidden2OutputLayerWeights":[-4.075003623962402,-2.2407588958740236,-1.569459080696106,0.6998717784881592,-5.0,4.684668064117432,1.004853367805481,2.75612211227417,-2.3900809288024904,1.5139299631118775,0.006914973258972168,2.5126078128814699,-0.5126381516456604,4.006590366363525,-3.43239164352417,4.131568908691406,2.5525779724121095,-3.69262957572937,-2.838359832763672,-2.5479536056518556,-2.50816011428833,-2.4768354892730715],"l_hiddenLayersNeuronsBias":[0.0,0.0,0.0,0.0,0.0,0.0,0.0,0.0,0.0,0.0,0.0]},{"i_score":38,"l_input2HiddenLayerWeights":[-2.723701000213623,4.611449241638184,2.490807294845581,-2.04691481590271,1.014704942703247,4.7244768142700199,2.42219614982605,3.4667258262634279,-4.0782952308654789,-2.6219849586486818,4.542468070983887,0.1661471426486969,1.570119023323059,1.6974923610687256,0.44579076766967776,-3.112997531890869,0.7989709377288818,3.508791208267212,5.0,-2.093808650970459,-2.6936302185058595,3.6716928482055666,2.1910743713378908,-0.39340633153915408,-0.5202120542526245,-3.880866050720215,-1.9488445520401,0.9441970586776733,-1.6951935291290284,1.9760899543762208,0.5820178389549255,3.313004732131958,-4.439723491668701,1.714496374130249,-2.517798900604248,0.6823376417160034,0.3715125322341919,2.6751904487609865,0.803425669670105,4.589699745178223,-4.0685248374938969,-0.4732486307621002,-1.6989225149154664,-1.2722444534301758,4.125888347625732,-2.090420961380005,5.0,-3.700118064880371,-1.164662480354309,-0.12943914532661439,-1.2038439512252808,0.2902712821960449,-1.7862285375595093,-3.411996841430664,-0.2081611156463623,2.251666784286499,-3.4580109119415285,3.7598416805267336,4.3214111328125,3.9608616828918459,-4.454013824462891,-0.9532618522644043,-2.190690040588379,0.9782540798187256,-1.275923252105713,-3.5620615482330324,3.2304725646972658,1.3356465101242066,-0.3611363470554352,-5.0,2.1406736373901369,-1.3259793519973755,-3.4184398651123049,2.999422073364258,-3.6618995666503908,3.524232864379883,0.27841874957084658,-1.0801525115966797,2.7896175384521486,0.12584316730499268,-5.0,-3.6807613372802736,2.510016441345215,2.142843723297119,-1.6933469772338868,-3.9437718391418459,2.5856800079345705,-2.001586437225342,-0.47572624683380129,-2.0033516883850099,-0.7927519083023071,1.985171914100647,3.217191219329834,3.2319045066833498,-1.016818642616272,3.9018728733062746,-4.368629455566406,-1.1558372974395753,4.86903190612793,3.2897634506225588,-2.2359511852264406,2.731067657470703,-1.9165157079696656,-2.5308263301849367,2.0512032508850099,-3.8985977172851564,3.494269609451294,-1.0231842994689942,4.4334716796875,1.851536512374878,3.677743673324585,1.644177794456482,-2.780643939971924,-3.3814005851745607,-0.46920448541641238,-3.6071054935455324,-2.583033561706543,0.6544468998908997,-0.04432496428489685,0.43254008889198305,2.426506757736206],"l_hidden2OutputLayerWeights":[-3.9236669540405275,-2.6249778270721437,-0.486117422580719,0.9003955125808716,-4.748418807983398,5.0,2.0589253902435304,2.526935577392578,-2.257612466812134,1.0858548879623414,1.556452989578247,1.7076785564422608,-0.2018355131149292,4.994609355926514,-3.0419082641601564,4.3859663009643559,3.386927843093872,-3.3267476558685304,-1.0375627279281617,-2.126617431640625,-2.113306760787964,-2.344128131866455],"l_hiddenLayersNeuronsBias":[0.0,0.0,0.0,0.0,0.0,0.0,0.0,0.0,0.0,0.0,0.0]},{"i_score":38,"l_input2HiddenLayerWeights":[-0.8970392942428589,2.7346789836883547,1.4345457553863526,-2.4704160690307619,0.07692795991897583,4.999411106109619,2.8225455284118654,4.728797912597656,-5.0,2.2392094135284426,4.605015277862549,1.3337767124176026,2.230815887451172,1.3468043804168702,-0.340099573135376,-2.094547748565674,1.2308919429779053,4.216036796569824,4.6313276290893559,-1.841312289237976,-2.652662754058838,4.2504496574401859,1.7400634288787842,-1.2358111143112183,-0.8984562754631043,-3.9818918704986574,-1.8081525564193726,-0.04287409782409668,-2.722229242324829,2.3138010501861574,-0.2961845099925995,2.0124664306640627,-4.380643367767334,1.6929656267166138,-2.801356315612793,0.10380935668945313,0.19829323887825013,2.0408692359924318,0.44869646430015566,4.347354412078857,-3.632652759552002,0.1634116768836975,-2.430577516555786,-0.23808708786964417,4.678234100341797,-1.9367499351501465,4.4012908935546879,-4.148498058319092,-1.8776029348373414,0.24495187401771546,0.1861928105354309,-0.17499887943267823,-1.4546597003936768,-3.7462775707244875,-0.20193126797676087,1.5860309600830079,-3.9351983070373537,2.417520761489868,4.027678966522217,4.078175067901611,-4.2200493812561039,-0.39668500423431399,-1.7508572340011597,1.264497995376587,-0.9222539663314819,-3.9462971687316896,2.476767063140869,0.5525916814804077,-1.8242710828781129,-5.0,2.0600900650024416,-2.1057772636413576,-3.05606746673584,4.031020164489746,-3.3992340564727785,4.454686164855957,-0.5604941844940186,0.2860127389431,2.3836450576782228,-0.4678597152233124,-4.66104793548584,-3.0346920490264894,1.8808865547180176,2.252570629119873,-0.6366332769393921,-2.7754955291748049,2.191845655441284,-3.296370506286621,0.32610225677490237,-2.2694172859191896,1.2768687009811402,0.7484333515167236,3.5064480304718019,3.327690362930298,-0.9206506013870239,3.785921812057495,-4.652429580688477,-0.29211005568504336,5.0,2.596855640411377,-0.3168385922908783,2.5183534622192385,-2.515495538711548,-3.3428778648376467,3.3019421100616457,-5.0,4.229162216186523,-0.8929508924484253,5.0,2.345308542251587,5.0,0.8909060955047607,-2.7227413654327394,-1.245213508605957,-0.43880486488342287,-2.7480108737945558,-1.102442741394043,0.6987202167510986,0.31716156005859377,0.718354344367981,2.1490421295166017],"l_hidden2OutputLayerWeights":[-4.769536972045898,-2.345773220062256,0.18830054998397828,3.2304115295410158,-4.735306739807129,3.7287378311157228,1.5318019390106202,1.565101146697998,-1.9431602954864503,1.4589611291885377,1.7431776523590088,1.823522925376892,0.44259679317474368,4.171889305114746,-3.4187214374542238,3.756835460662842,2.2100257873535158,-3.5326247215270998,-3.0297799110412599,-2.331129550933838,-1.5434880256652833,-3.149975299835205],"l_hiddenLayersNeuronsBias":[0.0,0.0,0.0,0.0,0.0,0.0,0.0,0.0,0.0,0.0,0.0]},{"i_score":39,"l_input2HiddenLayerWeights":[-1.1576522588729859,4.880602836608887,2.8178513050079347,-1.6274635791778565,0.6857413053512573,4.576357841491699,2.0368759632110597,3.02390456199646,-3.8199172019958498,-2.4932403564453127,4.8744354248046879,0.8877359628677368,2.7197933197021486,1.469546914100647,-0.16575804352760316,-2.8163952827453615,0.6855148077011108,3.9021918773651125,5.0,-1.0888384580612183,-3.3258042335510256,3.2129549980163576,1.9044357538223267,0.44764944911003115,-0.9662201404571533,-4.869085788726807,-2.498849391937256,0.5817075967788696,-2.601947546005249,1.8871581554412842,-0.4929584562778473,4.397017478942871,-4.0886006355285648,1.194997787475586,-3.211808919906616,0.3808175325393677,0.6060466766357422,2.4097447395324709,0.812461256980896,4.97507381439209,-4.55462646484375,-0.2529556155204773,-1.3043068647384644,-0.9580985307693481,3.8617465496063234,-3.8051493167877199,4.675207138061523,-4.969101428985596,-1.1602354049682618,0.5345436334609985,0.3678237199783325,-0.6755346059799194,-1.158555269241333,-3.714900493621826,-0.5571995973587036,2.059638023376465,-3.5469658374786379,2.7208428382873537,4.779331684112549,3.8783063888549806,-4.648257255554199,-0.5171550512313843,-2.1255884170532228,0.1518957018852234,-1.5066003799438477,-2.7932381629943849,2.7726051807403566,0.7770888805389404,-1.235451340675354,-5.0,2.6636335849761965,-1.2488408088684083,-3.494813919067383,3.4454963207244875,-4.293351650238037,3.6050877571105959,0.1268005073070526,-0.03931605815887451,2.391274929046631,0.6985554695129395,-4.107973098754883,-2.7935142517089845,2.0372862815856935,2.1253786087036135,-1.3421263694763184,-3.2752175331115724,2.671487808227539,-1.8463921546936036,-0.05325758457183838,-2.1291346549987795,0.16045358777046204,1.9020525217056275,3.4965248107910158,2.420259952545166,-1.47903573513031,3.169046640396118,-4.720650672912598,-0.9248818159103394,4.875279426574707,3.022331714630127,-2.4627461433410646,2.343308925628662,-2.2280216217041017,-2.405146598815918,3.934593439102173,-5.0,4.43717622756958,-1.6963529586791993,4.160387992858887,2.2811806201934816,3.1758360862731935,0.06487107276916504,-3.9852542877197267,-1.3439546823501588,-0.6927921772003174,-2.16827392578125,-1.671523094177246,0.6138964295387268,-1.7566527128219605,1.0787599086761475,2.8235881328582765],"l_hidden2OutputLayerWeights":[-3.630171537399292,-2.5564117431640627,-0.5889416337013245,2.379163980484009,-4.006490230560303,4.742955207824707,1.0215604305267335,2.6799521446228029,-3.0984840393066408,0.19570603966712953,1.1961838006973267,1.800503134727478,0.19113361835479737,4.442902565002441,-2.754513740539551,4.734564781188965,3.168999671936035,-3.617867946624756,-1.6530325412750245,-2.266753673553467,-1.806524395942688,-3.001600503921509],"l_hiddenLayersNeuronsBias":[0.0,0.0,0.0,0.0,0.0,0.0,0.0,0.0,0.0,0.0,0.0]},{"i_score":39,"l_input2HiddenLayerWeights":[-0.8882969617843628,4.423060417175293,2.388077974319458,-2.0916130542755129,0.5964882373809815,4.295803546905518,2.6741740703582765,1.5913684368133546,-4.261281967163086,-2.7242798805236818,3.784302234649658,0.6269385814666748,1.4585317373275757,2.403827667236328,1.3402687311172486,-3.394784927368164,1.7527439594268799,3.0902364253997804,3.313171625137329,-2.0592031478881838,-2.8003616333007814,3.3870487213134767,1.8011447191238404,-0.6151627898216248,-0.5115799903869629,-3.92610502243042,-2.1514997482299806,1.168091893196106,-2.0340287685394289,1.9456497430801392,0.6434511542320252,3.5844857692718508,-4.8566741943359379,0.14321684837341309,-2.8163652420043947,0.8785723447799683,-0.3215596079826355,2.3975040912628176,0.603723406791687,4.350865364074707,-3.7502999305725099,0.8563125729560852,-1.8401120901107789,-1.9619024991989136,4.154655456542969,-1.6220430135726929,5.0,-3.7156381607055666,-1.1955233812332154,0.259612113237381,-1.2777061462402344,0.4013245105743408,-1.8827544450759888,-3.4050912857055666,-1.0631029605865479,2.0230250358581545,-2.659712076187134,3.7311654090881349,4.754566192626953,3.614851474761963,-5.0,-0.628623366355896,-1.884461760520935,-0.543287456035614,-1.4120457172393799,-4.2133469581604,3.007906675338745,-0.07514667510986328,-1.657027244567871,-4.411299228668213,2.5866150856018068,-1.0169106721878052,-4.554993629455566,2.4495351314544679,-3.312981605529785,3.273855447769165,0.5904096961021423,-0.6180568933486939,2.357923984527588,0.11811401695013046,-5.0,-2.4384450912475588,2.9078845977783205,4.206605434417725,-1.8906197547912598,-4.218351364135742,2.025554656982422,-1.8265258073806763,-1.0336384773254395,-2.2877655029296877,-0.9547426700592041,1.9982290267944337,3.6174638271331789,3.32462739944458,-0.5192258358001709,4.630931854248047,-4.524392604827881,-0.6301734447479248,4.8457746505737309,3.1227540969848635,-2.5300116539001467,2.698986530303955,-1.6531741619110108,-2.4243481159210207,1.8368901014328004,-3.5808188915252687,4.448674201965332,-0.7322455644607544,4.79376745223999,1.9047335386276246,3.7624149322509767,0.039636045694351199,-3.240680694580078,-1.2045202255249024,-0.32951968908309939,-3.5703883171081545,-1.243647575378418,-0.4791845381259918,-0.46831679344177248,0.04476648569107056,2.3485703468322756],"l_hidden2OutputLayerWeights":[-3.5430784225463869,-3.3158106803894045,-0.9228817224502564,1.2044973373413087,-4.667043209075928,4.896344184875488,1.7597835063934327,2.166715145111084,-2.1636080741882326,1.0403460264205933,1.592581868171692,1.9822567701339722,0.23022282123565675,4.01766300201416,-2.9949023723602297,4.62349271774292,3.6617703437805177,-3.7544631958007814,-1.53300142288208,-2.1595473289489748,-2.5247890949249269,-3.0983726978302],"l_hiddenLayersNeuronsBias":[0.0,0.0,0.0,0.0,0.0,0.0,0.0,0.0,0.0,0.0,0.0]},{"i_score":39,"l_input2HiddenLayerWeights":[-0.5727622509002686,3.534147024154663,1.5870097875595093,-1.5375723838806153,-0.48295870423316958,4.597525119781494,2.42219614982605,1.8087762594223023,-4.488232135772705,-2.3706917762756349,4.753127098083496,0.1661471426486969,2.69993257522583,1.3393360376358033,0.44579076766967776,-2.769315004348755,0.37848353385925295,4.349709510803223,4.6962971687316898,-1.9627960920333863,-2.6428871154785158,3.92759370803833,1.714308500289917,-0.885653018951416,-0.7355012893676758,-4.472851753234863,-1.9488445520401,0.15051937103271485,-1.6951935291290284,0.9935034513473511,-0.26164761185646059,2.114163875579834,-4.482116222381592,1.111222743988037,-2.5463576316833498,0.6823376417160034,0.12993872165679933,2.41176700592041,0.3591839075088501,4.589699745178223,-4.279044151306152,-0.027030736207962037,-1.782129168510437,-0.5961962938308716,4.85560417175293,-1.0460460186004639,4.744361877441406,-3.700118064880371,-0.6232551336288452,-0.12943914532661439,-1.2038439512252808,0.2902712821960449,-1.5448793172836304,-2.91904878616333,-1.5471365451812745,1.899880290031433,-4.15677547454834,2.2358920574188234,4.3214111328125,4.024456977844238,-5.0,-0.9532618522644043,-2.190690040588379,0.9782540798187256,-0.9849140644073486,-3.706993579864502,2.867518186569214,1.2467217445373536,-0.3611363470554352,-4.662276744842529,2.522049903869629,-1.6234771013259888,-2.932584762573242,3.5520687103271486,-3.6440649032592775,3.33050537109375,0.27841874957084658,-1.0801525115966797,2.86161732673645,0.12584316730499268,-5.0,-3.004523992538452,2.4948835372924806,1.3017585277557374,-2.0426440238952638,-3.3738038539886476,2.823047399520874,-1.7166252136230469,-1.3016458749771119,-2.6299118995666506,-0.7927519083023071,1.735506534576416,2.472398281097412,2.782921314239502,-0.8965691328048706,3.862182855606079,-4.368629455566406,-1.4135876893997193,4.86903190612793,2.8372411727905275,-2.5130257606506349,2.2877182960510256,-2.5026473999023439,-2.353858709335327,3.4448368549346926,-3.8985977172851564,3.375887393951416,-1.2179522514343262,4.4334716796875,1.9050747156143189,4.682867050170898,0.4812358617782593,-3.5926077365875246,-3.3814005851745607,-0.7868987321853638,-2.3379201889038088,-1.4511072635650635,1.346209168434143,-1.1968774795532227,0.43254008889198305,2.5088675022125246],"l_hidden2OutputLayerWeights":[-5.0,-3.288391590118408,-2.1698079109191896,2.7893333435058595,-4.5300092697143559,4.633692741394043,0.3804810047149658,1.5800472497940064,-1.6661959886550904,1.0861399173736573,2.2348544597625734,1.7076785564422608,0.11250379681587219,4.994609355926514,-3.0419082641601564,4.3859663009643559,2.2579832077026369,-3.3587851524353029,-2.6491284370422365,-1.736297607421875,-1.9035353660583497,-2.7503857612609865],"l_hiddenLayersNeuronsBias":[0.0,0.0,0.0,0.0,0.0,0.0,0.0,0.0,0.0,0.0,0.0]},{"i_score":39,"l_input2HiddenLayerWeights":[-0.4297211170196533,3.8015003204345705,2.7354352474212648,-1.5080747604370118,-0.36188650131225588,3.642287492752075,2.6959593296051027,1.9630506038665772,-4.6317973136901859,2.8379387855529787,4.386557579040527,0.1758480668067932,2.8442976474761965,1.3134219646453858,0.3261580467224121,-2.9557652473449709,0.8589471578598023,4.945384979248047,4.550642490386963,-0.7513216733932495,-3.461724281311035,3.4757280349731447,2.2072787284851076,-0.35879620909690859,0.0249004065990448,-3.493603229522705,-1.4402687549591065,1.4825130701065064,-1.8366831541061402,2.305668354034424,-1.3202966451644898,3.4565796852111818,-3.9770255088806154,1.441888451576233,-2.2749226093292238,-0.1659768521785736,0.03603622689843178,2.6798019409179689,0.4312049150466919,5.0,-4.648078918457031,-0.16753190755844117,-1.576860785484314,-0.28488320112228396,4.121047019958496,-1.6939843893051148,4.301356792449951,-4.279843807220459,-0.062986820936203,0.1903483271598816,0.3226836919784546,0.16855765879154206,-0.3008398115634918,-2.9250833988189699,0.028174787759780885,3.218173027038574,-3.627566337585449,3.090646743774414,5.0,4.852108478546143,-3.8216216564178469,0.11926110088825226,-2.7220025062561037,0.7609455585479736,-2.0183334350585939,-4.490800380706787,2.8715124130249025,1.012262225151062,-0.7001521587371826,-4.461032867431641,2.5341246128082277,-0.15047329664230348,-3.041933298110962,1.9152237176895142,-4.101713180541992,4.274595260620117,-0.6008718013763428,-0.8255951404571533,2.2338249683380129,1.220428228378296,-5.0,-3.068661689758301,2.4704999923706056,1.7211930751800538,-0.33255043625831606,-3.6215548515319826,2.5756821632385256,-2.135477304458618,0.33845585584640505,-2.3713858127593996,0.7734413146972656,2.004830837249756,2.5566415786743166,3.136040687561035,-1.4832165241241456,2.6064701080322267,-3.850877285003662,-0.4953881502151489,4.230749607086182,4.127535820007324,-0.4756842851638794,1.1493812799453736,-0.7909813523292542,-2.6461381912231447,2.5528602600097658,-5.0,4.07819938659668,-1.3522462844848633,4.205585479736328,0.5449447631835938,3.6550631523132326,0.4100741147994995,-3.0504579544067385,-1.2835440635681153,-0.6684870719909668,-1.5401983261108399,-1.6334625482559205,-0.29686102271080019,-0.9140241742134094,1.0819721221923829,1.3116095066070557],"l_hidden2OutputLayerWeights":[-4.490649223327637,-2.7844889163970949,-2.0787241458892824,0.980130672454834,-4.910820960998535,4.273118495941162,1.1569241285324097,1.8077847957611085,-1.7783671617507935,0.9396945238113403,1.7712661027908326,1.6071408987045289,0.26368170976638796,4.164846420288086,-3.7281179428100588,4.196805000305176,2.44996976852417,-3.535161018371582,-2.844768524169922,-1.7137658596038819,-1.9656519889831544,-2.3776400089263918],"l_hiddenLayersNeuronsBias":[0.0,0.0,0.0,0.0,0.0,0.0,0.0,0.0,0.0,0.0,0.0]},{"i_score":38,"l_input2HiddenLayerWeights":[-0.5603523254394531,3.9522628784179689,2.425342082977295,-1.5375723838806153,-0.46234455704689028,3.649610757827759,2.694821357727051,2.0528008937835695,-4.447802543640137,3.252260684967041,4.587717533111572,0.1454865038394928,2.7696311473846437,1.5452992916107178,0.6454048156738281,-2.7090206146240236,1.144568681716919,4.846258640289307,4.140181064605713,-1.0630204677581788,-3.091221809387207,3.587449550628662,2.1958823204040529,-0.6531624794006348,-0.12678712606430055,-3.262284278869629,-1.4665929079055787,1.870933175086975,-2.1144866943359377,1.9669146537780762,-0.8716514706611633,3.8681092262268068,-4.1857709884643559,1.3064550161361695,-2.32047176361084,0.29553723335266116,0.08235514163970947,3.0316247940063478,0.7162178754806519,5.0,-4.631707191467285,-0.20494073629379273,-1.822498083114624,-0.2996215224266052,3.965456008911133,-1.6724774837493897,4.744361877441406,-4.700910568237305,-0.49801671504974368,-0.018894881010055543,0.08743226528167725,-0.17837657034397126,-0.8000760078430176,-3.063218832015991,0.44234275817871096,3.0106167793273927,-4.075063228607178,3.560483455657959,5.0,4.485977649688721,-4.033876419067383,0.14956291019916535,-2.623068332672119,0.8328598737716675,-1.6683168411254883,-4.042220592498779,2.86136531829834,0.7283358573913574,-0.991370439529419,-4.16126823425293,2.522049903869629,0.055824339389801028,-3.525423765182495,2.393784761428833,-3.9546022415161135,3.854170083999634,-0.5517556667327881,-0.473335862159729,2.0523722171783449,0.8718299865722656,-5.0,-3.4028735160827638,2.306048631668091,1.3017585277557374,-0.7981057167053223,-4.045165061950684,2.66049861907959,-2.104814291000366,-0.11455899477005005,-2.283827066421509,1.069851040840149,1.9327001571655274,2.727200746536255,2.9362096786499025,-1.0546019077301026,3.0700740814208986,-4.218241214752197,-0.32959210872650149,4.510570049285889,4.136611461639404,-0.05477702617645264,1.340163230895996,-0.7001600861549377,-2.520763635635376,2.690516948699951,-5.0,3.9180541038513185,-1.048608422279358,4.556447982788086,0.9990020990371704,3.6247148513793947,0.30939337611198428,-3.0875892639160158,-1.3689208030700684,-0.8416111469268799,-1.6668369770050049,-2.0310769081115724,-0.5940520763397217,-0.6623829007148743,0.8620193004608154,1.7957431077957154],"l_hidden2OutputLayerWeights":[-4.271886825561523,-3.0583434104919435,-1.6015050411224366,0.9797267913818359,-4.763180255889893,4.166654586791992,0.7703986167907715,2.0611658096313478,-1.5759414434432984,1.0861399173736573,2.2348544597625734,1.7960988283157349,-0.13097836077213288,4.027516841888428,-3.9235472679138185,4.052698135375977,2.4126157760620119,-3.3587851524353029,-2.6491284370422365,-1.593629002571106,-2.144092559814453,-2.5944430828094484],"l_hiddenLayersNeuronsBias":[0.0,0.0,0.0,0.0,0.0,0.0,0.0,0.0,0.0,0.0,0.0]},{"i_score":39,"l_input2HiddenLayerWeights":[-1.1656298637390137,3.200169086456299,1.367993950843811,-2.3066859245300295,0.2497430443763733,4.612799644470215,2.7884929180145265,4.255736351013184,-5.0,2.5185019969940187,4.750457763671875,1.6605067253112794,1.7550058364868165,0.8418549299240112,0.08102431893348694,-2.1450328826904299,1.3177704811096192,4.347847938537598,4.147775650024414,-1.5421757698059083,-3.1243319511413576,3.6246461868286135,2.164849281311035,0.0017752796411514283,-1.246218204498291,-4.400967121124268,-1.6737494468688965,1.9359753131866456,-1.1936886310577393,1.541873812675476,0.19414609670639039,1.995361328125,-4.843880653381348,1.5151358842849732,-2.6376872062683107,0.369098424911499,0.5964928865432739,2.3803281784057619,0.030152082443237306,4.736385345458984,-3.8986029624938967,-0.4138469696044922,-2.189528226852417,-0.4809683859348297,4.608631134033203,-1.9396358728408814,4.3738250732421879,-3.573953866958618,-1.7075536251068116,0.33150649070739748,-0.8949050903320313,-0.6679116487503052,-1.5866841077804566,-3.6426849365234377,-0.2680360674858093,2.019521713256836,-4.710602283477783,2.239988088607788,4.232852458953857,4.078539848327637,-4.833089828491211,-0.48479968309402468,-2.8523201942443849,1.3043049573898316,-2.094109535217285,-3.143681526184082,2.849437713623047,0.2078028917312622,-1.8056213855743409,-4.238882541656494,2.1187310218811037,0.6794431209564209,-2.7146127223968508,3.9968631267547609,-3.5035622119903566,4.681860446929932,0.2179965078830719,0.21921396255493165,1.2583491802215577,-0.9647291898727417,-4.726113796234131,-3.0794689655303957,2.29917049407959,2.200390338897705,-0.2543938159942627,-3.1374456882476808,2.091791868209839,-3.256026029586792,-1.0937862396240235,-1.7962181568145753,0.7986872792243958,0.28028604388237,3.5054733753204347,3.594025135040283,-0.6597806811332703,3.6256091594696047,-5.0,-0.11665484309196472,4.546485900878906,2.7980480194091799,-0.0037289559841156008,1.9217820167541505,-1.575242280960083,-2.865750789642334,3.2418265342712404,-4.656383037567139,3.9967541694641115,-1.538949728012085,5.0,2.5213522911071779,4.705985069274902,1.943219780921936,-2.783008337020874,-1.8508245944976807,-0.6266621351242065,-2.7086472511291506,-1.3751559257507325,0.8145550489425659,0.6098653078079224,0.8902651071548462,2.372955799102783],"l_hidden2OutputLayerWeights":[-4.909553050994873,-2.142648935317993,-1.925036072731018,0.4876127243041992,-4.924142360687256,4.20274543762207,2.0104575157165529,1.8972562551498414,-2.7649335861206056,1.8706738948822022,0.49061229825019839,2.9742066860198976,-0.1093185544013977,4.191354751586914,-3.723923683166504,3.837704658508301,2.7100048065185549,-2.2720329761505129,-2.9472744464874269,-2.240016460418701,-3.068387031555176,-3.6465821266174318],"l_hiddenLayersNeuronsBias":[0.0,0.0,0.0,0.0,0.0,0.0,0.0,0.0,0.0,0.0,0.0]},{"i_score":38,"l_input2HiddenLayerWeights":[-1.2054085731506348,3.487098217010498,1.592910885810852,-2.054182529449463,0.6857413053512573,4.017204284667969,1.7146508693695069,3.9586775302886965,-4.690567970275879,2.969581365585327,5.0,0.8877359628677368,2.7197933197021486,1.3163182735443116,0.2558252811431885,-3.112997531890869,0.6855148077011108,3.508791208267212,4.942861557006836,-1.581884503364563,-2.6936302185058595,3.2129549980163576,2.1910743713378908,0.6296894550323486,-0.5913347005844116,-3.880866050720215,-1.4656344652175904,0.5817075967788696,-2.395301103591919,1.8871581554412842,-0.4929584562778473,4.4011101722717289,-4.0886006355285648,0.8785802125930786,-3.810337781906128,0.3808175325393677,-0.14067792892456056,2.4097447395324709,-0.5879255533218384,4.825965881347656,-4.0685248374938969,-0.2529556155204773,-2.063115119934082,-0.3112673759460449,4.497580051422119,-2.090420961380005,5.0,-4.969101428985596,-1.546411156654358,0.5345436334609985,-0.8684834241867065,-0.6755346059799194,-2.1653566360473635,-2.993581533432007,-0.2081611156463623,2.7159557342529299,-4.375058174133301,1.8128077983856202,4.859790325164795,4.224767684936523,-4.648257255554199,-0.5171550512313843,-1.4238134622573853,0.3518199622631073,-1.3926085233688355,-4.076629161834717,3.073551654815674,1.3525114059448243,-1.6406210660934449,-4.662080764770508,2.220154285430908,-1.3320811986923218,-3.264380693435669,3.4454963207244875,-4.381253242492676,4.006690502166748,0.35838639736175539,0.04182839393615723,2.7896175384521486,1.2101398706436158,-5.0,-3.6807613372802736,2.510016441345215,0.9128788709640503,-1.6933469772338868,-3.524549961090088,2.390442132949829,-2.6654014587402345,-0.47572624683380129,-3.451413631439209,0.16045358777046204,1.985171914100647,3.217191219329834,3.2319045066833498,-1.016818642616272,3.659327507019043,-4.177462100982666,-0.2432723194360733,4.875279426574707,3.022331714630127,0.027329623699188234,1.9828577041625977,-2.2280216217041017,-2.5308263301849367,1.2513961791992188,-4.760435104370117,4.43717622756958,-0.3493507206439972,4.160387992858887,1.851536512374878,3.1758360862731935,0.06487107276916504,-4.5733208656311039,-1.7695090770721436,-0.6927921772003174,-2.5763049125671388,-1.671523094177246,0.6138964295387268,-1.3119547367095948,0.17627084255218507,1.6964367628097535],"l_hidden2OutputLayerWeights":[-4.788699150085449,-2.5423269271850588,-0.5889416337013245,2.379163980484009,-4.840508460998535,4.017204284667969,2.196302890777588,3.740217447280884,-3.0984840393066408,0.5371655225753784,2.2050957679748537,2.4133553504943849,-0.57612544298172,3.6121387481689455,-3.5386033058166506,4.734564781188965,2.703700542449951,-2.9518768787384035,-2.427234649658203,-2.126617431640625,-3.3717000484466554,-3.001600503921509],"l_hiddenLayersNeuronsBias":[0.0,0.0,0.0,0.0,0.0,0.0,0.0,0.0,0.0,0.0,0.0]},{"i_score":38,"l_input2HiddenLayerWeights":[-1.1656298637390137,3.200169086456299,1.7131701707839966,-2.3066859245300295,2.0825443267822267,4.295187950134277,2.7884929180145265,3.8176212310791017,-4.001410961151123,2.3912038803100588,4.964710235595703,1.6457037925720215,1.7550058364868165,0.8418549299240112,0.7363483905792236,-2.45082950592041,1.0355653762817383,3.374918222427368,4.147775650024414,-1.6604971885681153,-3.1243319511413576,3.6246461868286135,1.2275117635726929,0.0017752796411514283,-1.246218204498291,-4.052060127258301,-1.1429719924926758,0.9356797933578491,-1.1936886310577393,1.541873812675476,0.19414609670639039,3.189087390899658,-4.843880653381348,0.5324099063873291,-2.6376872062683107,0.369098424911499,-0.04406464099884033,2.3803281784057619,0.4412665069103241,4.549078941345215,-3.8986029624938967,-0.6788774728775024,-1.7526297569274903,-0.4809683859348297,4.872382164001465,-1.9396358728408814,4.3738250732421879,-3.573953866958618,-1.6478585004806519,0.33150649070739748,-0.8949050903320313,-0.3865218460559845,-1.481200098991394,-3.8341920375823976,1.229065179824829,2.48596453666687,-4.952178001403809,2.239988088607788,4.232852458953857,4.078539848327637,-5.0,-0.48479968309402468,-2.8523201942443849,-3.1301867961883547,-2.094109535217285,-2.55593204498291,3.2975239753723146,0.2078028917312622,-1.8056213855743409,-4.238882541656494,2.149538516998291,-0.05919364094734192,-2.7146127223968508,3.598155975341797,-3.9396939277648927,4.681860446929932,-0.2742711007595062,0.6718618869781494,2.18402361869812,-0.632013201713562,-4.726113796234131,-3.181666374206543,2.643697738647461,1.8752813339233399,-0.2543938159942627,-3.1374456882476808,-3.5126140117645265,-3.256026029586792,-0.9645395278930664,-1.7962181568145753,0.7986872792243958,0.28028604388237,3.5054733753204347,2.800468921661377,-0.6597806811332703,2.8650641441345217,-5.0,-0.11665484309196472,5.0,3.442422389984131,-1.9580858945846558,2.385765790939331,-1.3781208992004395,-2.391849994659424,2.9731485843658449,-4.656383037567139,3.9967541694641115,-1.538949728012085,4.592254638671875,2.5213522911071779,4.705985069274902,1.2067594528198243,-2.293712854385376,-1.8508245944976807,-0.6266621351242065,-2.7086472511291506,-1.3751559257507325,0.8145550489425659,-0.13059088587760926,0.8902651071548462,1.3895800113677979],"l_hidden2OutputLayerWeights":[-4.909553050994873,-2.479311466217041,-2.317753791809082,1.1652144193649293,-5.0,4.20274543762207,1.937511682510376,2.1356890201568605,-2.5613536834716799,1.789767861366272,0.5290882587432861,2.9742066860198976,-0.08475323021411896,3.278028964996338,-3.723923683166504,4.3285932540893559,2.903230667114258,-3.2272422313690187,-2.9472744464874269,-2.240016460418701,-3.068387031555176,-3.6465821266174318],"l_hiddenLayersNeuronsBias":[0.0,0.0,0.0,0.0,0.0,0.0,0.0,0.0,0.0,0.0,0.0]},{"i_score":42,"l_input2HiddenLayerWeights":[-0.2462415099143982,3.9827065467834474,1.9512397050857545,-2.2251596450805666,-0.2607104778289795,4.183034896850586,2.185253143310547,1.7351775169372559,-4.769274711608887,2.861753463745117,5.0,0.07671023160219193,2.550719976425171,1.8153669834136963,0.868030309677124,-2.48333477973938,0.6714961528778076,4.336423873901367,5.0,-2.251499891281128,-2.344026565551758,3.884133815765381,1.8449748754501343,-1.0588030815124512,-0.446647047996521,-4.233679294586182,-2.4291930198669435,0.4131675660610199,-1.194345474243164,2.5109012126922609,0.001924365758895874,4.523481369018555,-4.843899726867676,0.7496905326843262,-3.8104381561279299,0.1313437521457672,-0.08356940746307373,2.748101234436035,0.3646475076675415,4.684041500091553,-4.857940196990967,0.31069988012313845,-2.356417655944824,-0.5690003633499146,5.0,-2.724083662033081,4.538299083709717,-5.0,-0.45383334159851076,-0.3486281931400299,-0.5301526784896851,0.6327700614929199,-1.95762038230896,-3.0577104091644289,-1.2505162954330445,3.040248155593872,-3.680449962615967,2.310946226119995,4.899219036102295,3.695509910583496,-4.92884635925293,-0.2803831100463867,-2.0400798320770265,1.3968302011489869,-1.1528010368347169,-4.014235496520996,3.3655033111572267,0.29436421394348147,-0.7419347763061523,-4.6823577880859379,2.4883365631103517,-1.3840408325195313,-3.0850114822387697,3.086010456085205,-3.9019107818603517,3.953225612640381,0.5515742301940918,0.06921849399805069,3.0187137126922609,0.6124982833862305,-5.0,-3.038954496383667,2.69437837600708,0.9738250970840454,-1.8652201890945435,-1.908728837966919,1.9330787658691407,-1.3648550510406495,-1.0062806606292725,-2.9027042388916017,-0.37394335865974429,1.4870671033859254,2.2940776348114015,3.2139015197753908,-0.928229808807373,3.4112837314605715,-4.0497636795043949,-0.19033396244049073,4.463754653930664,2.8487043380737306,0.3068731129169464,2.6390414237976076,-2.1640923023223879,-2.7617392539978029,1.6641379594802857,-5.0,2.9300389289855959,-1.0628981590270997,3.9488730430603029,1.4803228378295899,3.605008602142334,0.8614964485168457,-4.840297698974609,-1.2012383937835694,-1.8937327861785889,-2.7134320735931398,-1.1927131414413453,1.3960106372833253,-0.49703243374824526,0.6622458100318909,1.288104772567749],"l_hidden2OutputLayerWeights":[-5.0,-2.4635252952575685,-1.1471328735351563,2.9025838375091554,-4.595390319824219,3.905367374420166,2.539534091949463,1.9289307594299317,-1.6375352144241334,0.7761026620864868,1.8788397312164307,2.6689095497131349,-0.922028124332428,3.5091748237609865,-3.366710901260376,4.890658378601074,2.260850429534912,-2.5295321941375734,-3.1149284839630129,-1.6716424226760865,-3.1033480167388918,-2.4797096252441408],"l_hiddenLayersNeuronsBias":[0.0,0.0,0.0,0.0,0.0,0.0,0.0,0.0,0.0,0.0,0.0]},{"i_score":39,"l_input2HiddenLayerWeights":[-0.6349927186965942,3.0291712284088136,1.4685540199279786,-2.185953140258789,-0.220464289188385,4.6843695640563969,3.2113418579101564,3.941286325454712,-5.0,3.29565167427063,4.687793731689453,0.8534747362136841,2.7295804023742677,1.7513126134872437,-0.774203896522522,-1.7004725933074952,0.7802382707595825,3.930083751678467,5.0,-1.9859535694122315,-3.084847927093506,4.318489074707031,2.076935291290283,0.6755644083023071,-0.8268430233001709,-4.226558685302734,-0.9815350770950317,0.3003910779953003,-2.839674234390259,1.8552125692367554,-0.10139131546020508,4.2784929275512699,-4.176723957061768,1.3458033800125123,-3.403388738632202,0.16152191162109376,-0.15077480673789979,1.7119977474212647,-0.7570407390594482,5.0,-3.7974915504455568,0.17042118310928346,-1.9334594011306763,-0.02195577323436737,4.153630256652832,-1.7390239238739014,4.381120204925537,-4.5742878913879398,-2.323282241821289,0.2981995642185211,-0.5280355215072632,0.15088975429534913,-2.193094253540039,-3.036271810531616,-0.02279070019721985,2.4728777408599855,-4.215039253234863,2.1882967948913576,4.084115982055664,3.911491870880127,-3.8394546508789064,-0.3092840909957886,-1.4310996532440186,0.329255074262619,-1.566020131111145,-4.134721755981445,2.7409915924072267,0.47488343715667727,-2.059152603149414,-4.211709976196289,1.9205518960952759,-1.424875020980835,-2.815932035446167,3.9437735080718996,-3.8300678730010988,4.165605545043945,-0.21135038137435914,-0.1294078826904297,3.2031590938568117,-0.6791962385177612,-4.648512363433838,-3.450024366378784,1.5966651439666749,2.7314655780792238,-0.4374192953109741,-3.7322282791137697,2.05426025390625,-3.244513750076294,-0.14058363437652589,-1.813858151435852,0.03708866238594055,1.1461125612258912,3.639641046524048,3.476979970932007,-1.3987219333648682,4.0935540199279789,-4.365159034729004,0.23757828772068025,4.510923385620117,2.56241512298584,-0.08991092443466187,2.435267925262451,-2.229839324951172,-2.046605348587036,3.011197566986084,-4.545958042144775,4.010373592376709,-1.007608413696289,4.629326343536377,2.763650417327881,3.592698574066162,0.5523192882537842,-2.8673057556152345,-1.8598768711090088,-0.7091437578201294,-2.6732776165008547,-1.473947286605835,0.6900495290756226,0.35936594009399416,0.5725605487823486,1.8510972261428834],"l_hidden2OutputLayerWeights":[-4.78120231628418,-2.5319643020629885,-0.4183312952518463,3.0086045265197756,-5.0,3.906073570251465,2.457736015319824,1.230035424232483,-2.9140267372131349,1.0905894041061402,1.755239486694336,2.595607280731201,-0.7477012276649475,4.607154846191406,-3.106928825378418,3.5964035987854006,2.3014559745788576,-2.9005095958709719,-2.674410820007324,-1.6653870344161988,-3.1295840740203859,-2.837778091430664],"l_hiddenLayersNeuronsBias":[0.0,0.0,0.0,0.0,0.0,0.0,0.0,0.0,0.0,0.0,0.0]},{"i_score":39,"l_input2HiddenLayerWeights":[-0.5603523254394531,3.9522628784179689,2.425342082977295,-2.2251596450805666,-0.46234455704689028,3.649610757827759,1.8969913721084595,1.7351775169372559,-4.769274711608887,3.252260684967041,4.587717533111572,0.1454865038394928,2.7696311473846437,1.5452992916107178,0.868030309677124,-2.48333477973938,0.37986090779304507,4.336423873901367,4.6962971687316898,-1.0630204677581788,-2.344026565551758,3.884133815765381,1.8449748754501343,-0.6531624794006348,-0.446647047996521,-3.262284278869629,-1.4665929079055787,0.4131675660610199,-1.194345474243164,1.9669146537780762,-0.26164761185646059,4.523481369018555,-4.1857709884643559,1.3064550161361695,-3.3136110305786135,0.1313437521457672,0.08235514163970947,2.748101234436035,0.6553201675415039,4.684041500091553,-4.857940196990967,0.31069988012313845,-2.356417655944824,-0.5690003633499146,3.965456008911133,-2.724083662033081,4.744361877441406,-5.0,-0.45383334159851076,-0.3486281931400299,0.2987545430660248,0.6327700614929199,-1.95762038230896,-3.063218832015991,0.44234275817871096,2.3663718700408937,-3.680449962615967,2.310946226119995,4.899219036102295,3.695509910583496,-4.92884635925293,-0.2103177309036255,-2.0400798320770265,1.3968302011489869,-1.6683168411254883,-4.014235496520996,3.3655033111572267,0.7283358573913574,-0.991370439529419,-4.16126823425293,2.4883365631103517,-1.3840408325195313,-3.0850114822387697,2.393784761428833,-3.9546022415161135,3.953225612640381,-0.5517556667327881,0.06921849399805069,2.819603443145752,0.7618750333786011,-5.0,-3.004523992538452,2.306048631668091,0.9738250970840454,-1.8652201890945435,-4.045165061950684,2.66049861907959,-2.104814291000366,-0.11455899477005005,-2.283827066421509,-0.37394335865974429,1.4870671033859254,2.727200746536255,2.9362096786499025,-1.0546019077301026,3.4112837314605715,-4.218241214752197,-0.32959210872650149,4.463754653930664,2.8372411727905275,0.3068731129169464,2.6390414237976076,-2.1640923023223879,-2.520763635635376,1.586353063583374,-5.0,2.9300389289855959,-1.0628981590270997,4.556447982788086,0.9990020990371704,3.8177030086517336,0.8614964485168457,-3.0875892639160158,-1.2012383937835694,-1.8937327861785889,-1.6668369770050049,-1.1927131414413453,-0.5940520763397217,-0.49703243374824526,0.8620193004608154,1.288104772567749],"l_hidden2OutputLayerWeights":[-5.0,-2.4635252952575685,-1.6015050411224366,2.9025838375091554,-4.730157375335693,3.905367374420166,0.7703986167907715,1.9289307594299317,-1.6661959886550904,1.0861399173736573,1.8788397312164307,2.6689095497131349,-0.13097836077213288,3.5091748237609865,-2.9840235710144045,4.052698135375977,2.2579832077026369,-3.3587851524353029,-3.1149284839630129,-1.6716424226760865,-3.1033480167388918,-2.4797096252441408],"l_hiddenLayersNeuronsBias":[0.0,0.0,0.0,0.0,0.0,0.0,0.0,0.0,0.0,0.0,0.0]},{"i_score":39,"l_input2HiddenLayerWeights":[-0.8428491353988648,3.803284168243408,1.3314008712768555,-2.1210174560546877,-0.6427686214447022,4.052759170532227,2.062602996826172,3.710216999053955,-4.49477481842041,3.1907968521118166,5.0,0.25062838196754458,2.6628026962280275,1.419899582862854,0.5106979608535767,-3.0127878189086916,0.193417489528656,4.1365203857421879,5.0,-1.3532196283340455,-2.8105297088623049,3.372485399246216,1.9900681972503663,0.06400489807128906,-0.7307119369506836,-3.987971305847168,-1.1178979873657227,0.9276790618896484,-1.5177439451217652,2.3686115741729738,-0.711298942565918,4.160712242126465,-3.683988094329834,1.2257509231567383,-3.6546318531036379,0.8309363722801209,-0.47074341773986819,2.1912078857421877,-0.794068455696106,4.9499053955078129,-5.0,-0.085164874792099,-1.7504706382751465,-0.4257347583770752,4.666054725646973,-3.1535558700561525,5.0,-4.9545488357543949,-1.1977993249893189,0.077964186668396,-1.1984871625900269,-0.2775892913341522,-2.63472580909729,-2.9034061431884767,-0.6398962736129761,2.481142997741699,-3.8956313133239748,2.9050850868225099,4.819819450378418,4.099484443664551,-4.247715950012207,-0.2550964057445526,-1.567668080329895,0.2181895673274994,-1.238685965538025,-3.672136068344116,2.8570480346679689,1.0294476747512818,-0.6384011507034302,-4.868081092834473,1.8014026880264283,-1.7614922523498536,-2.8427090644836427,2.968813419342041,-3.9053215980529787,4.196115970611572,-0.03183114528656006,0.031632088124752048,2.97239351272583,1.1693027019500733,-5.0,-3.7020435333251955,2.055990695953369,1.054344654083252,-1.5296695232391358,-2.6360669136047365,2.77217435836792,-2.6684226989746095,-0.46013277769088747,-3.1767754554748537,0.42943719029426577,1.6086320877075196,2.718893527984619,3.2993381023406984,-0.18709242343902589,3.453691005706787,-3.7915751934051515,-0.6129442453384399,5.0,3.5282740592956545,-0.018882334232330323,1.9176273345947266,-1.8354518413543702,-2.063627004623413,1.3654497861862183,-4.482346534729004,5.0,-0.7934969663619995,5.0,1.4100956916809083,4.290143966674805,-0.09802854061126709,-4.2968549728393559,-1.7103856801986695,-0.3360215723514557,-2.162259817123413,-1.3905091285705567,0.3721023201942444,-1.2064926624298096,0.5762796401977539,1.4747251272201539],"l_hidden2OutputLayerWeights":[-5.0,-2.9347007274627687,-0.6554062962532044,1.5871049165725709,-4.921895980834961,4.054942607879639,1.8807737827301026,3.950394868850708,-1.8496967554092408,0.08772194385528565,0.04807065427303314,2.6175241470336916,-0.16174671053886414,3.8124117851257326,-4.032942771911621,4.4051408767700199,2.757174491882324,-2.503793478012085,-2.902892589569092,-2.023869752883911,-3.8064825534820558,-3.6974735260009767],"l_hiddenLayersNeuronsBias":[0.0,0.0,0.0,0.0,0.0,0.0,0.0,0.0,0.0,0.0,0.0]},{"i_score":38,"l_input2HiddenLayerWeights":[-0.5603523254394531,3.9522628784179689,2.425342082977295,-1.5375723838806153,-0.46234455704689028,3.649610757827759,1.8969913721084595,2.0528008937835695,-4.612974166870117,3.252260684967041,4.587717533111572,0.1454865038394928,2.7696311473846437,1.5452992916107178,0.6454048156738281,-2.7090206146240236,0.37986090779304507,4.846258640289307,4.6962971687316898,-1.0630204677581788,-1.837668538093567,3.92759370803833,2.1958823204040529,-0.6531624794006348,-0.7355012893676758,-3.262284278869629,-1.4665929079055787,0.15051937103271485,-2.1144866943359377,1.9669146537780762,-0.26164761185646059,4.160475254058838,-4.1857709884643559,1.3064550161361695,-3.3136110305786135,0.29553723335266116,0.08235514163970947,3.0316247940063478,0.6553201675415039,5.0,-4.631707191467285,-0.20494073629379273,-1.822498083114624,-0.2996215224266052,3.965456008911133,-1.6724774837493897,4.744361877441406,-4.432034492492676,-0.49801671504974368,-0.018894881010055543,0.2987545430660248,-0.17837657034397126,-0.8000760078430176,-3.063218832015991,0.44234275817871096,2.3663718700408937,-4.075063228607178,3.560483455657959,5.0,4.485977649688721,-3.973177909851074,-0.2103177309036255,-2.623068332672119,0.8328598737716675,-1.6683168411254883,-4.042220592498779,2.86136531829834,0.7283358573913574,-0.991370439529419,-4.16126823425293,2.522049903869629,0.055824339389801028,-3.525423765182495,2.393784761428833,-3.9546022415161135,3.854170083999634,-0.5517556667327881,0.01460949331521988,2.819603443145752,0.7618750333786011,-5.0,-3.004523992538452,2.306048631668091,1.3017585277557374,-1.7952979803085328,-4.045165061950684,2.66049861907959,-2.104814291000366,-0.11455899477005005,-2.283827066421509,1.0658607482910157,1.9327001571655274,2.727200746536255,2.9362096786499025,-1.0546019077301026,3.0700740814208986,-4.218241214752197,-0.32959210872650149,4.510570049285889,2.8372411727905275,-0.05477702617645264,1.340163230895996,-1.8185168504714966,-2.520763635635376,1.586353063583374,-5.0,4.476803302764893,-0.7366132736206055,4.556447982788086,0.9990020990371704,3.8177030086517336,-0.1615431308746338,-3.0875892639160158,-2.4356303215026857,-1.5669349431991578,-1.6668369770050049,-2.0310769081115724,-0.5940520763397217,-1.1968774795532227,0.8620193004608154,1.7957431077957154],"l_hidden2OutputLayerWeights":[-4.042806625366211,-3.0583434104919435,-1.6015050411224366,2.350978136062622,-4.730157375335693,4.166654586791992,0.7703986167907715,2.0611658096313478,-1.6661959886550904,1.0861399173736573,2.2348544597625734,1.7960988283157349,-0.13097836077213288,4.027516841888428,-2.9840235710144045,4.052698135375977,2.2579832077026369,-3.3587851524353029,-2.6491284370422365,-1.736297607421875,-2.144092559814453,-2.5944430828094484],"l_hiddenLayersNeuronsBias":[0.0,0.0,0.0,0.0,0.0,0.0,0.0,0.0,0.0,0.0,0.0]},{"i_score":39,"l_input2HiddenLayerWeights":[-1.1576522588729859,4.611449241638184,2.490807294845581,-1.7284059524536133,0.6857413053512573,4.576357841491699,1.733571171760559,3.4667258262634279,-3.8199172019958498,-2.4932403564453127,4.879741668701172,0.8877359628677368,2.7197933197021486,1.3163182735443116,0.18349489569664002,-3.112997531890869,0.6855148077011108,3.508791208267212,5.0,-1.581884503364563,-2.6936302185058595,3.2129549980163576,2.1910743713378908,0.6296894550323486,-0.5913347005844116,-3.880866050720215,-2.498849391937256,0.5817075967788696,-2.395301103591919,1.8871581554412842,-0.4929584562778473,4.397017478942871,-4.0886006355285648,0.9713493585586548,-3.5100083351135256,0.3808175325393677,0.3715125322341919,2.4097447395324709,0.803425669670105,4.557279109954834,-4.0685248374938969,-0.2529556155204773,-1.3043068647384644,-1.2722444534301758,4.125888347625732,-2.090420961380005,5.0,-4.969101428985596,-1.1602354049682618,0.5345436334609985,-0.8684834241867065,-0.6755346059799194,-1.158555269241333,-3.411996841430664,-0.2081611156463623,2.059638023376465,-3.5469658374786379,1.8128077983856202,4.779331684112549,3.8783063888549806,-4.648257255554199,-0.5171550512313843,-2.1255884170532228,0.30442434549331667,-1.275923252105713,-2.7932381629943849,2.7726051807403566,1.3525114059448243,-1.6406210660934449,-5.0,2.1406736373901369,-1.2488408088684083,-3.4184398651123049,3.4454963207244875,-3.6618995666503908,3.497124671936035,0.1268005073070526,0.3922383785247803,2.7896175384521486,0.92210853099823,-5.0,-3.6807613372802736,2.510016441345215,2.1253786087036135,-1.6933469772338868,-3.524549961090088,2.671487808227539,-2.001586437225342,-0.47572624683380129,-2.1291346549987795,0.16045358777046204,1.985171914100647,3.217191219329834,3.2319045066833498,-1.016818642616272,3.169046640396118,-4.134476184844971,-0.2432723194360733,4.875279426574707,3.022331714630127,-2.4627461433410646,1.2953191995620728,-2.2280216217041017,-2.5308263301849367,3.934593439102173,-5.0,4.43717622756958,-1.6963529586791993,4.160387992858887,1.851536512374878,3.1758360862731935,0.06487107276916504,-3.6652753353118898,-1.7695090770721436,-0.6927921772003174,-2.5763049125671388,-1.671523094177246,0.6138964295387268,-1.3119547367095948,1.0787599086761475,2.426506757736206],"l_hidden2OutputLayerWeights":[-3.9236669540405275,-2.5564117431640627,-0.5889416337013245,2.379163980484009,-4.006490230560303,5.0,1.0215604305267335,2.526935577392578,-3.0984840393066408,1.0858548879623414,2.2050957679748537,1.800503134727478,0.19113361835479737,4.2659010887146,-3.1206705570220949,4.734564781188965,3.168999671936035,-3.617867946624756,-2.427234649658203,-2.126617431640625,-2.113306760787964,-3.001600503921509],"l_hiddenLayersNeuronsBias":[0.0,0.0,0.0,0.0,0.0,0.0,0.0,0.0,0.0,0.0,0.0]},{"i_score":42,"l_input2HiddenLayerWeights":[-0.4297211170196533,3.8015003204345705,2.7354352474212648,-1.5080747604370118,-0.36188650131225588,3.642287492752075,2.6959593296051027,1.9630506038665772,-4.6317973136901859,2.8379387855529787,4.386557579040527,0.1758480668067932,2.8442976474761965,1.3134219646453858,0.3261580467224121,-2.9557652473449709,0.8589471578598023,4.945384979248047,4.550642490386963,-0.7513216733932495,-3.461724281311035,3.4757280349731447,2.2072787284851076,-0.35879620909690859,0.0249004065990448,-3.493603229522705,-1.4402687549591065,1.4825130701065064,-1.8366831541061402,2.305668354034424,-1.3202966451644898,3.4565796852111818,-3.9770255088806154,1.441888451576233,-2.2749226093292238,-0.1659768521785736,0.03603622689843178,2.6798019409179689,0.4312049150466919,5.0,-4.648078918457031,-0.16753190755844117,-1.576860785484314,-0.28488320112228396,4.121047019958496,-1.6939843893051148,4.301356792449951,-4.279843807220459,-0.062986820936203,0.1903483271598816,0.3226836919784546,0.16855765879154206,-0.3008398115634918,-2.9250833988189699,1.5021014213562012,3.218173027038574,-3.627566337585449,3.090646743774414,5.0,4.852108478546143,-3.8216216564178469,0.11926110088825226,-2.7220025062561037,0.7609455585479736,-2.0183334350585939,-4.490800380706787,2.8715124130249025,1.012262225151062,-0.7001521587371826,-4.461032867431641,2.5341246128082277,-0.15047329664230348,-3.041933298110962,1.9152237176895142,-4.101713180541992,4.274595260620117,-0.6008718013763428,-0.8255951404571533,2.2338249683380129,1.220428228378296,-5.0,-3.068661689758301,2.4704999923706056,1.7211930751800538,-0.33255043625831606,-3.6215548515319826,2.5756821632385256,-2.135477304458618,0.33845585584640505,-2.3713858127593996,0.7734413146972656,2.004830837249756,2.5566415786743166,3.136040687561035,-1.4832165241241456,2.6064701080322267,-3.850877285003662,-0.4953881502151489,4.230749607086182,4.127535820007324,-0.4756842851638794,1.1493812799453736,-0.7909813523292542,-2.6461381912231447,2.5528602600097658,-5.0,4.07819938659668,-1.3522462844848633,4.205585479736328,0.5449447631835938,3.6550631523132326,0.4100741147994995,-3.0504579544067385,-1.2835440635681153,-0.6684870719909668,-1.5401983261108399,-1.6334625482559205,-0.29686102271080019,-0.9140241742134094,1.0819721221923829,1.3116095066070557],"l_hidden2OutputLayerWeights":[-4.490649223327637,-2.7844889163970949,-2.0787241458892824,0.980130672454834,-4.910820960998535,4.273118495941162,1.1569241285324097,1.8077847957611085,-1.7783671617507935,0.9396945238113403,1.7712661027908326,1.6071408987045289,0.26368170976638796,4.164846420288086,-3.7281179428100588,4.196805000305176,2.44996976852417,-3.535161018371582,-2.844768524169922,-1.7137658596038819,-1.9656519889831544,-2.3776400089263918],"l_hiddenLayersNeuronsBias":[0.0,0.0,0.0,0.0,0.0,0.0,0.0,0.0,0.0,0.0,0.0]},{"i_score":39,"l_input2HiddenLayerWeights":[-1.1770613193511963,4.0996551513671879,2.6579020023345949,-1.8129799365997315,-1.1459174156188965,4.382040977478027,3.006402015686035,3.907672166824341,-3.5512490272521974,2.393244981765747,4.653876304626465,1.7125301361083985,1.5785000324249268,1.4811192750930787,0.28820937871932986,-3.648974895477295,0.6777675151824951,3.7657101154327394,4.58328914642334,-1.0379301309585572,-3.8718953132629396,3.7233762741088869,1.801634430885315,-0.02213233709335327,-1.2077864408493043,-2.9343149662017824,-1.2289879322052003,0.9790452718734741,-1.2764314413070679,2.0375258922576906,0.2930697798728943,2.0580358505249025,-4.915248394012451,0.8801046013832092,-3.046720504760742,0.7134138345718384,0.02216854691505432,2.9789490699768068,0.9918191432952881,5.0,-3.372030258178711,-0.6535887122154236,-2.0143935680389406,-0.4225396513938904,4.341495037078857,-1.833583950996399,4.714312553405762,-3.8268399238586427,-1.6184555292129517,0.2773398160934448,-0.6919411420822144,-0.6227257251739502,-1.849352478981018,-4.125489711761475,-0.4451028108596802,2.451594591140747,-4.816688537597656,2.20302677154541,4.549509048461914,3.846590757369995,-4.809323310852051,-1.1148947477340699,-2.480623722076416,1.095078706741333,-2.189213752746582,-2.5453901290893556,3.860778331756592,0.3446429967880249,-1.182207703590393,-4.805218696594238,2.0458850860595705,0.3394453227519989,-4.179521560668945,3.0492868423461916,-4.559854984283447,4.501548767089844,0.4721088409423828,0.48038730025291445,1.5150877237319947,1.4564955234527588,-4.943383693695068,-3.3453617095947267,2.2332043647766115,2.471989631652832,-1.5885611772537232,-3.0316808223724367,-3.594594717025757,-1.776419758796692,-1.0414272546768189,-1.8380647897720338,-0.6819801926612854,1.4101721048355103,2.929399013519287,3.569653272628784,-1.158867359161377,3.5824966430664064,-4.013956069946289,-0.27942878007888796,4.267061233520508,3.128662586212158,-2.2530946731567385,1.3945612907409669,-2.01894211769104,-1.8403003215789796,2.898725748062134,-4.39365291595459,4.877555847167969,-1.6107548475265504,4.763894081115723,1.9508419036865235,3.5377581119537355,0.9975990056991577,-4.005918025970459,-2.59676194190979,-0.724851131439209,-2.2368686199188234,-1.0125237703323365,0.8521295785903931,-0.015835493803024293,0.9105256795883179,2.1126677989959719],"l_hidden2OutputLayerWeights":[-3.7886335849761965,-0.705294132232666,-1.9227101802825928,0.8713409900665283,-5.0,4.895232677459717,1.3757257461547852,3.200723171234131,-2.7158844470977785,0.33159777522087099,-0.4741264581680298,2.787385940551758,-0.6618269085884094,3.8651185035705568,-3.7871904373168947,4.384382724761963,2.6874847412109377,-3.699462413787842,-2.1645865440368654,-2.3437159061431886,-2.858025550842285,-2.522860288619995],"l_hiddenLayersNeuronsBias":[0.0,0.0,0.0,0.0,0.0,0.0,0.0,0.0,0.0,0.0,0.0]},{"i_score":39,"l_input2HiddenLayerWeights":[-0.5603523254394531,3.534147024154663,2.2173197269439699,-1.5375723838806153,-0.46234455704689028,4.014959335327148,1.8969913721084595,2.0528008937835695,-4.612974166870117,2.0734052658081056,4.753127098083496,-0.282441645860672,2.675916910171509,2.1324069499969484,0.014113545417785645,-2.4159626960754396,0.37986090779304507,4.106753349304199,4.6962971687316898,-1.440690040588379,-1.837668538093567,3.92759370803833,1.9395756721496583,0.3742835521697998,-0.7355012893676758,-3.262284278869629,-1.723596453666687,0.15051937103271485,-2.1144866943359377,1.9713680744171143,-0.26164761185646059,4.160475254058838,-4.8988871574401859,0.685570240020752,-3.3136110305786135,0.3073228597640991,0.12993872165679933,2.2016265392303469,0.6553201675415039,5.0,-4.631707191467285,-0.16909831762313844,-1.782129168510437,-0.5961962938308716,4.634690284729004,-1.7967544794082642,4.744361877441406,-4.432034492492676,-1.242370843887329,-0.1496739685535431,0.2987545430660248,-0.19096052646636964,-0.8000760078430176,-2.561755418777466,0.6915990114212036,2.3663718700408937,-4.15677547454834,2.4167237281799318,4.809574604034424,5.0,-3.973177909851074,-0.2103177309036255,-1.9187171459197999,0.15821987390518189,-2.5725350379943849,-3.429182767868042,2.86136531829834,1.0271520614624024,-0.991370439529419,-4.662276744842529,2.522049903869629,-1.6234771013259888,-3.5856077671051027,2.7294721603393556,-3.9546022415161135,3.3860247135162355,-0.5517556667327881,0.01460949331521988,2.819603443145752,0.7618750333786011,-5.0,-3.004523992538452,2.4948835372924806,1.3017585277557374,-1.7952979803085328,-2.6400318145751955,2.4293036460876467,-1.8835575580596924,-0.11455899477005005,-3.0748605728149416,1.0658607482910157,1.0024685859680176,2.727200746536255,2.782921314239502,-0.4575280249118805,3.0700740814208986,-4.218241214752197,-1.4135876893997193,5.0,2.8372411727905275,-1.9393852949142457,2.2877182960510256,-1.8185168504714966,-2.353858709335327,1.586353063583374,-5.0,4.476803302764893,-0.7366132736206055,4.556447982788086,1.9050747156143189,3.8177030086517336,-0.1615431308746338,-4.638468265533447,-2.4356303215026857,-1.5669349431991578,-1.6668369770050049,-2.0310769081115724,1.203367829322815,-1.1968774795532227,0.6873739957809448,1.7957431077957154],"l_hidden2OutputLayerWeights":[-4.042806625366211,-3.288391590118408,-2.1086652278900148,2.350978136062622,-4.730157375335693,4.599394798278809,0.9780175685882568,3.2990882396698,-1.6661959886550904,1.0861399173736573,2.2348544597625734,1.7960988283157349,-0.14438465237617494,4.027516841888428,-2.9840235710144045,4.242405891418457,2.2579832077026369,-3.3587851524353029,-2.6491284370422365,-1.736297607421875,-3.2197682857513429,-2.7503857612609865],"l_hiddenLayersNeuronsBias":[0.0,0.0,0.0,0.0,0.0,0.0,0.0,0.0,0.0,0.0,0.0]},{"i_score":39,"l_input2HiddenLayerWeights":[-0.29262852668762209,4.625642776489258,1.711727261543274,-1.4929395914077759,-0.8159991502761841,4.693245887756348,2.097276210784912,4.055327892303467,-4.393192291259766,-2.5083351135253908,4.739903450012207,0.65360426902771,3.1269731521606447,1.4898520708084107,1.4797381162643433,-3.152261257171631,1.8689931631088257,2.8735179901123049,3.407874822616577,-2.4338178634643556,-2.4964075088500978,4.32004976272583,1.7222096920013428,-0.8509517312049866,-0.5761594772338867,-4.890934944152832,-2.0341756343841554,0.851142168045044,-1.5632539987564088,1.9683890342712403,0.645857036113739,3.895221710205078,-4.788841247558594,1.0087690353393555,-3.126452922821045,0.27569958567619326,-0.5583785176277161,2.542553424835205,0.3736746311187744,4.679229736328125,-4.0725202560424809,0.8134086728096008,-1.4044996500015259,-1.6736069917678834,4.539802551269531,-2.107344627380371,4.845754623413086,-4.775829315185547,-0.780583381652832,0.3168095350265503,-0.08520016074180603,0.638871431350708,-2.034125804901123,-3.3365302085876467,-1.437865972518921,1.7061604261398316,-2.477180242538452,3.2873082160949709,4.546637058258057,4.070901393890381,-4.190183162689209,-0.015995383262634279,-1.7461484670639039,-0.09102064371109009,-1.4611729383468629,-3.3120553493499758,2.5916826725006105,-0.4075510501861572,-1.3672621250152588,-4.743328094482422,2.569112777709961,-1.1169039011001588,-4.114692211151123,1.9947115182876588,-3.4677305221557619,3.2172038555145265,0.244143545627594,-0.3823089599609375,2.7373814582824709,0.5864959955215454,-4.575205326080322,-2.968144655227661,3.1646153926849367,3.748523712158203,-1.7567917108535767,-3.4957118034362795,2.9549906253814699,-3.4953808784484865,-0.125575453042984,-3.1629133224487306,0.7316067218780518,1.4667363166809083,2.436581611633301,3.146347999572754,-0.8219760656356812,4.406249523162842,-4.996094703674316,-1.0054285526275635,4.803802490234375,3.3866958618164064,-2.212979793548584,2.4791855812072756,-2.872112274169922,-2.0184550285339357,1.7920050621032715,-3.8224072456359865,4.683884143829346,-0.837640643119812,4.664027690887451,1.8488883972167969,4.424272060394287,0.13129794597625733,-3.5417697429656984,-1.7191684246063233,-0.3906550705432892,-3.5598621368408205,-1.869557499885559,0.9723776578903198,-0.2084392011165619,0.004047546535730362,2.7768125534057619],"l_hidden2OutputLayerWeights":[-3.7187438011169435,-3.736659049987793,-0.7006849050521851,2.8673367500305177,-4.204235553741455,4.703586578369141,0.6710817813873291,1.9590868949890137,-1.8849124908447266,0.9778380393981934,1.9238845109939576,1.8941895961761475,0.3652081787586212,4.276803493499756,-3.1829121112823488,4.717489242553711,2.351045608520508,-3.139587879180908,-1.5044379234313965,-2.208273410797119,-2.3621110916137697,-2.4656782150268556],"l_hiddenLayersNeuronsBias":[0.0,0.0,0.0,0.0,0.0,0.0,0.0,0.0,0.0,0.0,0.0]},{"i_score":41,"l_input2HiddenLayerWeights":[-0.3076724112033844,3.4295248985290529,2.0329058170318605,-1.1805713176727296,-0.6092969179153442,4.109899520874023,1.5602999925613404,3.6597533226013185,-4.670803546905518,2.5361030101776125,4.555571556091309,0.48907995223999026,3.037848949432373,1.5656721591949463,0.10776665061712265,-3.0264902114868166,-0.05016887187957764,4.314095497131348,4.897590160369873,-1.4409903287887574,-2.5863537788391115,3.1387646198272707,2.2924251556396486,0.8922754526138306,-0.5462579727172852,-4.003211975097656,-1.7876960039138795,0.9746923446655273,-2.66802978515625,2.0437984466552736,-0.9056493043899536,4.857054710388184,-4.81698751449585,1.1046847105026246,-3.7469053268432619,0.7007291316986084,0.5516670942306519,1.742652416229248,-0.9596765041351318,4.852748870849609,-4.267530918121338,-0.7030755877494812,-1.9506477117538453,-0.44035327434539797,4.160992622375488,-1.8427886962890626,4.749731063842773,-4.135112285614014,-1.060841679573059,0.34208419919013979,-0.9372663497924805,-0.830608606338501,-0.3329700529575348,-2.6080291271209719,-0.4458153247833252,2.451413154602051,-4.535045146942139,2.894709587097168,4.368625164031982,5.0,-5.0,-0.5847315788269043,-2.3509490489959719,-0.01366320252418518,-1.6489800214767457,-2.9448530673980715,3.5063939094543459,0.9179854393005371,-1.3651691675186158,-4.53109073638916,2.9434311389923097,-1.247056484222412,-3.430363655090332,3.1802046298980715,-3.8627724647521974,3.5778188705444338,-0.40303564071655276,-0.168538898229599,2.8512368202209474,0.2745054066181183,-5.0,-2.8836143016815187,2.689767360687256,0.9086101055145264,-1.890907883644104,-3.5915465354919435,1.991432547569275,-2.7015624046325685,-0.27480924129486086,-2.825252056121826,-0.2637377977371216,1.260345458984375,2.3745474815368654,3.169187307357788,-0.5720596313476563,3.87945294380188,-4.181400299072266,-1.3831331729888917,4.437056541442871,3.1257688999176027,0.3515392243862152,2.305696964263916,-2.0181827545166017,-2.589329242706299,2.0830740928649904,-5.0,4.678417205810547,-0.45285943150520327,4.968318939208984,2.104095935821533,3.4476637840270998,0.16142019629478455,-4.755849838256836,-1.3009812831878663,-0.7860697507858276,-2.2534427642822267,-2.032168388366699,1.0636624097824097,-0.8524024486541748,0.30870115756988528,1.7270567417144776],"l_hidden2OutputLayerWeights":[-4.20565938949585,-2.34194016456604,-1.6937777996063233,2.2183709144592287,-5.0,4.223865985870361,0.8922078609466553,3.7937395572662355,-3.428616523742676,0.2067626714706421,2.1594111919403078,2.2167341709136965,-0.35811835527420046,4.409091472625732,-2.97926926612854,5.0,2.707911968231201,-2.9105160236358644,-2.953807830810547,-2.601297378540039,-3.2603235244750978,-3.2162208557128908],"l_hiddenLayersNeuronsBias":[0.0,0.0,0.0,0.0,0.0,0.0,0.0,0.0,0.0,0.0,0.0]},{"i_score":39,"l_input2HiddenLayerWeights":[-0.9586608409881592,4.126195907592773,2.2830543518066408,-1.969560146331787,0.7718186378479004,4.334484100341797,2.101353168487549,3.6800575256347658,-4.04981803894043,1.8603371381759644,5.0,-0.1921534538269043,2.7256898880004885,1.2910913228988648,0.082800954580307,-2.389920473098755,0.7776825428009033,3.5814223289489748,5.0,-1.392883539199829,-3.154191017150879,3.765225887298584,1.5022560358047486,-0.5302062034606934,-1.0541000366210938,-3.7203829288482668,-1.5849663019180298,1.5031509399414063,-2.9203333854675295,1.7240582704544068,-1.7336184978485108,3.948230743408203,-4.523632049560547,1.2346709966659547,-3.067129373550415,1.1612704992294312,0.4235817492008209,2.0366640090942385,1.9349143505096436,4.468886375427246,-4.390838623046875,0.4498736262321472,-1.7836142778396607,-1.5026607513427735,4.670124530792236,-2.1176540851593019,4.735197067260742,-5.0,-1.2143723964691163,0.15418529510498048,-0.6787048578262329,-0.3939039707183838,-1.3332616090774537,-3.106828451156616,-0.2830062210559845,2.2899415493011476,-5.0,4.5819411277771,4.439127445220947,3.8538289070129396,-4.2986555099487309,-1.1194303035736085,-3.1055479049682619,1.0398091077804566,-0.9122607111930847,-2.3607566356658937,3.9208202362060549,2.148756980895996,-1.8443642854690552,-3.967045783996582,2.188286304473877,-2.115833282470703,-4.949779987335205,3.9265403747558595,-4.700376510620117,3.735076904296875,0.1599445939064026,0.4273192584514618,2.56333589553833,1.3930031061172486,-5.0,-3.9003405570983888,1.0972709655761719,2.1917152404785158,-2.0130791664123537,-3.496962308883667,2.380707263946533,-2.361771583557129,-0.7125126123428345,-1.7691510915756226,-0.42073673009872439,1.8269845247268677,2.3473868370056154,2.966815710067749,-1.9503334760665894,3.3333559036254885,-4.7394938468933109,-0.5868839025497437,4.55950927734375,4.274149417877197,-2.9593265056610109,1.1401619911193848,-1.74370276927948,-2.9814820289611818,1.8619555234909058,-5.0,2.9756717681884767,-1.1301535367965699,4.539681911468506,1.5803114175796509,3.816293716430664,0.7670502662658691,-3.6027584075927736,-2.6524858474731447,-0.6641566753387451,-1.9535924196243287,-2.476177930831909,0.7062671184539795,-0.4095822870731354,0.7542434930801392,2.7915236949920656],"l_hidden2OutputLayerWeights":[-3.8941338062286379,-2.6188883781433107,-0.603577196598053,1.0561593770980836,-4.817164421081543,5.0,1.2667226791381837,2.7481651306152345,-2.9808437824249269,0.15871819853782655,0.9437726736068726,1.8065650463104249,0.32130166888237,3.734722137451172,-3.738457679748535,3.005795478820801,2.8517723083496095,-3.4441699981689455,-1.5621001720428467,-2.742560863494873,-3.004284620285034,-1.983614444732666],"l_hiddenLayersNeuronsBias":[0.0,0.0,0.0,0.0,0.0,0.0,0.0,0.0,0.0,0.0,0.0]},{"i_score":38,"l_input2HiddenLayerWeights":[-0.5603523254394531,3.9522628784179689,1.5870097875595093,-1.5375723838806153,-0.48295870423316958,4.597525119781494,2.694821357727051,1.8087762594223023,-4.447802543640137,-2.3706917762756349,4.587717533111572,0.1454865038394928,2.69993257522583,1.3393360376358033,0.44579076766967776,-2.769315004348755,0.37848353385925295,4.846258640289307,4.6962971687316898,-1.0630204677581788,-3.091221809387207,3.92759370803833,1.714308500289917,-0.885653018951416,-0.12678712606430055,-4.472851753234863,-1.4665929079055787,0.15051937103271485,-2.1144866943359377,1.9669146537780762,-0.26164761185646059,3.8681092262268068,-4.1857709884643559,1.111222743988037,-2.32047176361084,0.6823376417160034,0.08235514163970947,3.0316247940063478,0.3591839075088501,5.0,-4.631707191467285,-0.027030736207962037,-1.782129168510437,-0.5961962938308716,4.85560417175293,-1.6724774837493897,4.744361877441406,-4.700910568237305,-0.6232551336288452,-0.018894881010055543,0.08743226528167725,-0.17837657034397126,-0.8000760078430176,-3.063218832015991,-1.5471365451812745,1.899880290031433,-4.075063228607178,3.560483455657959,5.0,4.485977649688721,-5.0,-0.9532618522644043,-2.623068332672119,0.9782540798187256,-1.6683168411254883,-3.706993579864502,2.867518186569214,0.7283358573913574,-0.991370439529419,-4.662276744842529,2.522049903869629,0.055824339389801028,-3.525423765182495,3.5520687103271486,-3.9546022415161135,3.33050537109375,0.27841874957084658,-0.473335862159729,2.0523722171783449,0.8718299865722656,-5.0,-3.004523992538452,2.4948835372924806,1.3017585277557374,-2.0426440238952638,-4.045165061950684,2.823047399520874,-1.7166252136230469,-1.3016458749771119,-2.6299118995666506,1.069851040840149,1.735506534576416,2.472398281097412,2.782921314239502,-1.0546019077301026,3.0700740814208986,-4.218241214752197,-1.4135876893997193,4.86903190612793,2.8372411727905275,-2.5130257606506349,2.2877182960510256,-2.5026473999023439,-2.353858709335327,2.690516948699951,-5.0,3.9180541038513185,-1.2179522514343262,4.556447982788086,1.9050747156143189,3.6247148513793947,0.4812358617782593,-3.5926077365875246,-1.3689208030700684,-0.8416111469268799,-1.6668369770050049,-2.0310769081115724,-0.5940520763397217,-1.1968774795532227,0.8620193004608154,2.5088675022125246],"l_hidden2OutputLayerWeights":[-4.271886825561523,-3.288391590118408,-2.1698079109191896,0.9797267913818359,-4.5300092697143559,4.166654586791992,0.7703986167907715,1.5800472497940064,-1.5759414434432984,1.0861399173736573,2.2348544597625734,1.7076785564422608,-0.13097836077213288,4.027516841888428,-3.9235472679138185,4.3859663009643559,2.4126157760620119,-3.3587851524353029,-2.6491284370422365,-1.736297607421875,-2.144092559814453,-2.5944430828094484],"l_hiddenLayersNeuronsBias":[0.0,0.0,0.0,0.0,0.0,0.0,0.0,0.0,0.0,0.0,0.0]},{"i_score":42,"l_input2HiddenLayerWeights":[0.4784359633922577,4.0194549560546879,2.452923059463501,-2.0648393630981447,-0.5343531370162964,4.340213775634766,3.2126450538635256,1.7288626432418824,-4.10732889175415,3.222654104232788,4.748382568359375,-0.13250567018985749,2.9057257175445558,0.9594326019287109,0.6545917987823486,-2.2602217197418215,0.2618114948272705,4.61421537399292,4.085521221160889,-1.3855528831481934,-3.4877426624298097,3.3246982097625734,2.154055595397949,-0.7647532224655151,-0.15690666437149049,-3.1154561042785646,-0.7150377035140991,2.0818560123443605,-1.4742375612258912,2.1685023307800295,0.10565352439880371,4.532034397125244,-4.763250827789307,0.9940627813339233,-2.3469321727752687,0.2515428066253662,-0.0018152892589569092,3.2873361110687258,0.6130328178405762,4.081550598144531,-5.0,-0.43884390592575076,-1.7207239866256714,-0.40852436423301699,3.5741190910339357,-2.7774620056152345,4.607093811035156,-4.783853530883789,-0.28405895829200747,-0.6417019367218018,-0.21230408549308778,0.9494129419326782,-2.3193092346191408,-2.222081184387207,0.45326316356658938,2.5639395713806154,-4.061110496520996,3.6745574474334719,4.927290916442871,3.7644879817962648,-4.757264137268066,-0.9769171476364136,-2.115753412246704,1.5808029174804688,-2.0091209411621095,-3.6839544773101808,3.787614583969116,0.18079638481140138,-1.1324503421783448,-4.081497669219971,2.232837677001953,-0.05536922812461853,-2.9695119857788088,2.8335232734680177,-3.0481724739074709,3.3489937782287599,-0.8736356496810913,0.0054396092891693119,2.3644638061523439,0.5727373361587524,-5.0,-3.688495635986328,2.3551883697509767,1.434916615486145,-1.9256725311279297,-1.6019936800003052,2.3066375255584719,-2.391033411026001,-1.0198742151260377,-2.4818685054779054,0.984339714050293,1.4806464910507203,2.371384382247925,2.7817211151123049,-1.3811719417572022,3.138225793838501,-4.562489986419678,-0.19064092636108399,4.294360160827637,3.0932836532592775,-0.26138782501220705,1.6211384534835816,-0.7267979383468628,-2.690402030944824,2.09909987449646,-5.0,3.0613040924072267,-1.054551124572754,4.5699286460876469,1.1741009950637818,4.096584320068359,0.22604167461395265,-5.0,-1.3862910270690919,-2.0815212726593019,-3.170030117034912,-1.3502038717269898,-0.44245806336402895,-0.6030312180519104,0.41585010290145876,0.9725745916366577],"l_hidden2OutputLayerWeights":[-5.0,-2.259521961212158,-0.8130695819854736,2.6048967838287355,-4.459048271179199,4.650191307067871,2.8959193229675295,2.3940634727478029,-1.5590518712997437,1.3531582355499268,2.1178457736968996,2.3659324645996095,-1.4271847009658814,4.016347885131836,-4.156067371368408,4.315645217895508,2.411848783493042,-3.3240394592285158,-2.220738172531128,-1.606231927871704,-2.8099138736724855,-2.7603981494903566],"l_hiddenLayersNeuronsBias":[0.0,0.0,0.0,0.0,0.0,0.0,0.0,0.0,0.0,0.0,0.0]},{"i_score":39,"l_input2HiddenLayerWeights":[-0.21194234490394593,3.142282247543335,1.9164799451828004,-1.9790815114974976,-0.947606086730957,4.387445449829102,1.5219004154205323,3.8413896560668947,-3.6498141288757326,2.50722074508667,5.0,0.7777262926101685,2.5381951332092287,0.7747921943664551,0.011882329359650612,-2.734496593475342,1.1195250749588013,4.638786315917969,4.22099494934082,-1.5998458862304688,-3.1612987518310549,3.5002498626708986,2.116119623184204,-1.1121582984924317,-0.8619167804718018,-4.328367233276367,-1.7230744361877442,0.23671570420265199,-1.4055697917938233,2.2975685596466066,0.2332952618598938,1.9704978466033936,-4.636529922485352,0.31489983201026919,-2.588557004928589,0.27206599712371828,-0.267490029335022,2.4139864444732668,1.220016598701477,5.0,-4.097622871398926,-0.2996301054954529,-1.7481707334518433,-0.15159788727760316,4.575382709503174,-1.982556939125061,4.730252742767334,-3.482959270477295,-1.763719081878662,0.8768898248672485,-0.23990115523338319,0.30145493149757388,-1.5275899171829224,-2.8591654300689699,-0.761816143989563,2.425286293029785,-4.236516952514648,2.4918086528778078,5.0,4.101983547210693,-4.028666019439697,-0.40407249331474306,-1.6228560209274293,1.5668729543685914,-0.5889642238616943,-3.1126434803009035,3.105881452560425,0.1944861114025116,-0.9143636226654053,-5.0,2.315572738647461,-1.6824170351028443,-3.0600926876068117,3.108250141143799,-3.544144868850708,3.7360358238220217,-0.5931588411331177,-0.23556828498840333,2.1978137493133547,0.9176286458969116,-5.0,-2.8824093341827394,2.7815768718719484,2.3464550971984865,-0.37047603726387026,-3.2902064323425295,2.600501298904419,-3.3194565773010256,-0.47616004943847659,-2.4884750843048097,0.4511147141456604,0.6735478639602661,2.9467225074768068,2.055795431137085,-0.6459696888923645,3.8572938442230226,-4.193811893463135,-0.10149317979812622,4.715994834899902,3.1453185081481935,-2.5108351707458498,3.0969181060791017,-1.40678870677948,-2.7526257038116457,2.905092716217041,-4.367654323577881,4.014876365661621,-1.4073452949523926,4.786857604980469,1.892892837524414,4.679562568664551,0.8390085697174072,-3.477107524871826,-1.8301527500152588,-1.0851436853408814,-2.739238977432251,-0.8457458019256592,1.593247890472412,-0.31667861342430117,0.8799501657485962,1.8994401693344117],"l_hidden2OutputLayerWeights":[-4.952586650848389,-3.001326560974121,-1.6348477602005005,3.2507901191711427,-5.0,4.3152289390563969,1.3264578580856324,2.3172075748443605,-1.4465004205703736,1.1324195861816407,0.19157493114471436,2.097219944000244,-0.2735980153083801,3.66616153717041,-2.9724044799804689,4.434558391571045,2.4916739463806154,-3.210174560546875,-2.6674904823303224,-3.0315890312194826,-1.8880994319915772,-2.7587594985961916],"l_hiddenLayersNeuronsBias":[0.0,0.0,0.0,0.0,0.0,0.0,0.0,0.0,0.0,0.0,0.0]},{"i_score":38,"l_input2HiddenLayerWeights":[-1.268754005432129,4.588747978210449,1.9704747200012208,-1.8924204111099244,-0.3882956802845001,3.591726779937744,2.7175514698028566,3.239481210708618,-5.0,1.9112062454223633,3.5440354347229006,0.010652899742126465,2.8104727268218996,2.46191143989563,-0.17802047729492188,-2.237678050994873,1.0272464752197266,4.18708610534668,4.744719982147217,-0.981001615524292,-3.723569393157959,4.077314376831055,1.4881209135055543,0.3874378204345703,-1.3739672899246216,-4.353755950927734,-1.7769578695297242,1.689366340637207,-1.111997127532959,2.519426107406616,-1.2546303272247315,1.8813050985336304,-5.0,0.7633020877838135,-3.6485700607299806,0.9599975347518921,-0.04205158352851868,1.8060601949691773,0.4795725345611572,4.890633583068848,-3.5057854652404787,-0.25533047318458559,-2.1746459007263185,-0.5692888498306274,4.880512714385986,-2.757098913192749,4.581657409667969,-4.558168411254883,-1.1070215702056885,-0.15463992953300477,-0.7203540205955505,-0.7316867113113403,-2.0916624069213869,-3.089154005050659,0.16040098667144776,2.4212329387664797,-3.81833815574646,2.3604178428649904,4.793338298797607,4.085366725921631,-3.227787494659424,-0.27688050270080569,-2.9652771949768068,0.9537885189056397,-1.3997769355773926,-3.6424782276153566,2.959543228149414,0.9754376411437988,-2.020357131958008,-5.0,2.241133213043213,-0.0962834283709526,-3.593233585357666,2.7302560806274416,-2.897770404815674,3.760870933532715,-0.2843146324157715,-0.14872527122497559,2.672612190246582,1.0575331449508668,-5.0,-3.825847625732422,1.8244961500167847,1.098445177078247,-1.4552308320999146,-4.502907752990723,2.927000045776367,-2.9230828285217287,-0.8638565540313721,-3.122535467147827,-1.2478663921356202,2.7589669227600099,4.359284400939941,2.4605023860931398,-1.472102165222168,4.006921768188477,-4.686451435089111,-0.2947971820831299,3.5011303424835207,3.2369444370269777,-0.5105544328689575,2.426211357116699,-2.1337778568267824,-1.2116204500198365,2.2021076679229738,-4.670039653778076,4.354283809661865,-1.2042402029037476,4.270604133605957,1.885451078414917,3.155362844467163,1.4379273653030396,-2.916295051574707,-2.036644697189331,-0.9583805799484253,-2.0560927391052248,-1.6070085763931275,0.9112179279327393,0.11144483089447022,0.4799988269805908,2.760310173034668],"l_hidden2OutputLayerWeights":[-4.517740726470947,-2.711016893386841,-1.2706339359283448,1.6608612537384034,-5.0,4.763011932373047,2.3838050365448,2.9369394779205324,-2.3058903217315676,0.38952910900115969,-0.11014604568481446,2.3353066444396974,-0.09302989393472672,4.722454071044922,-3.7766411304473879,3.7880306243896486,2.4320130348205568,-3.653468132019043,-1.7022325992584229,-1.5534234046936036,-2.205739736557007,-2.961367130279541],"l_hiddenLayersNeuronsBias":[0.0,0.0,0.0,0.0,0.0,0.0,0.0,0.0,0.0,0.0,0.0]},{"i_score":38,"l_input2HiddenLayerWeights":[-1.3611153364181519,3.537670135498047,2.347327709197998,-1.6610819101333619,-0.42424651980400088,4.406744003295898,2.68947696685791,4.090445518493652,-3.8287110328674318,2.703622341156006,4.814348220825195,1.253891944885254,2.1132302284240724,1.0501524209976197,0.3573874831199646,-2.084822654724121,0.16211676597595216,3.2897768020629885,4.616970062255859,-1.725358009338379,-2.7484235763549806,4.11048698425293,0.9817360639572144,0.42196348309516909,-0.5848610401153565,-4.855154037475586,-0.8301182985305786,0.16857251524925233,-2.1889989376068117,1.4826269149780274,0.28201210498809817,3.679015636444092,-4.410717010498047,0.23215365409851075,-2.458784341812134,0.48046863079071047,0.33787038922309878,2.9641330242156984,0.3406566381454468,4.886044502258301,-3.8891162872314455,-1.014794111251831,-1.5929352045059205,-0.6228731870651245,5.0,-1.8067878484725953,4.884079933166504,-4.404548168182373,-1.2998409271240235,0.42830926179885867,0.5720446705818176,0.027167290449142457,-1.889799952507019,-4.094455718994141,-0.036286622285842898,2.036775827407837,-3.833303928375244,3.050527811050415,4.694084167480469,3.688499927520752,-4.467705249786377,-0.42928314208984377,-2.1272356510162355,0.7714812755584717,-0.9581725597381592,-2.6489014625549318,3.4099528789520265,0.9449869394302368,-1.2664905786514283,-4.929917812347412,2.3184125423431398,-0.3962956964969635,-2.7596182823181154,3.987501621246338,-4.2788591384887699,3.6202640533447267,-0.9519628286361694,0.5545662641525269,1.8785263299942017,-0.5710537433624268,-4.863218784332275,-2.8184168338775636,2.3107781410217287,1.8721342086791993,-1.1993041038513184,-3.5640153884887697,2.8870983123779299,-2.9964194297790529,-0.13003835082054139,-3.376051902770996,0.6904417276382446,1.0277153253555298,2.694146156311035,2.4716129302978517,-0.47379493713378909,2.6642603874206545,-3.859889030456543,0.06260985136032105,5.0,3.582811117172241,-1.9317713975906373,2.7534773349761965,-1.7766692638397217,-1.930966854095459,3.0831563472747804,-4.94920539855957,3.986690044403076,-1.4152417182922364,4.247684478759766,2.0983550548553469,4.403246879577637,1.660217523574829,-3.180518388748169,-1.619174838066101,-0.32720473408699038,-3.135770797729492,0.10053029656410217,1.3120136260986329,0.15532758831977845,0.8035199642181397,1.8034852743148804],"l_hidden2OutputLayerWeights":[-5.0,-2.916841983795166,-1.9181495904922486,3.007246255874634,-4.645932197570801,5.0,1.5597538948059083,1.3843904733657838,-1.9075603485107422,1.9668009281158448,0.6644778251647949,1.758724331855774,-0.551480233669281,3.709817886352539,-3.025822639465332,4.700262069702148,2.835775375366211,-3.5611133575439455,-2.938018560409546,-2.1419291496276857,-2.524897336959839,-2.279529094696045],"l_hiddenLayersNeuronsBias":[0.0,0.0,0.0,0.0,0.0,0.0,0.0,0.0,0.0,0.0,0.0]},{"i_score":38,"l_input2HiddenLayerWeights":[-0.6277042627334595,3.927370548248291,3.1225154399871828,-1.791651725769043,-0.9073041677474976,4.703246593475342,2.93084979057312,4.414896011352539,-3.4856371879577638,2.760380268096924,4.664317607879639,1.1797181367874146,2.8103432655334474,0.9535055160522461,-0.2196359634399414,-3.0981030464172365,0.5594799518585205,4.500096321105957,5.0,-1.1753302812576295,-2.6204464435577394,3.7668774127960207,1.1014066934585572,0.12122631072998047,-0.03132599592208862,-4.96468448638916,-1.4134910106658936,1.783823013305664,-1.1840234994888306,2.1767213344573976,-1.1792426109313965,2.0740647315979006,-4.5934553146362309,0.9791758060455322,-3.0670320987701418,0.1285422146320343,0.5262171030044556,3.4890835285186769,0.9321680068969727,4.885622501373291,-4.516288757324219,-0.827507495880127,-1.0147665739059449,-0.6710081100463867,5.0,-2.483935832977295,4.986002445220947,-4.883591175079346,-1.7832528352737427,0.9340658187866211,-0.7178932428359985,-0.8531069159507752,-1.2784497737884522,-3.8244616985321047,-0.18608605861663819,2.834221363067627,-4.17671012878418,2.607072591781616,4.28542947769165,4.993732929229736,-5.0,-1.2674802541732789,-1.5037599802017213,1.0703670978546143,-2.194284439086914,-3.1313023567199709,2.5044562816619875,1.2170945405960084,-0.809443473815918,-4.409989833831787,2.2516465187072756,0.05337783694267273,-3.391787052154541,2.841200590133667,-3.5027222633361818,3.7968802452087404,-0.22026175260543824,0.32841482758522036,2.1385393142700197,0.0016397833824157715,-5.0,-3.8223531246185304,3.143657684326172,2.0734238624572756,-1.1850168704986573,-3.4470319747924806,-3.5427167415618898,-2.70615291595459,-0.972100019454956,-1.6584497690200806,-0.27720558643341067,1.6167479753494263,2.055760383605957,2.2085893154144289,-0.347378671169281,3.198615789413452,-4.620424747467041,0.047213345766067508,4.960659027099609,2.7729077339172365,-2.4629855155944826,3.098742723464966,-1.4241758584976197,-1.9745428562164307,2.4960062503814699,-4.053291320800781,4.781299114227295,-1.449853777885437,4.299461364746094,1.8240567445755005,4.606228351593018,0.7564945220947266,-2.8383030891418459,-2.365084171295166,-1.2436461448669434,-2.203707695007324,-1.6891343593597413,1.3646055459976197,-0.3549143970012665,0.3900400400161743,1.8723251819610596],"l_hidden2OutputLayerWeights":[-3.649047374725342,-2.2016522884368898,-1.6767760515213013,1.1654192209243775,-3.8241982460021974,4.808109283447266,2.4978511333465578,2.5547804832458498,-2.995828628540039,0.9704641103744507,0.5119433403015137,2.0552818775177,-0.7866190075874329,3.806400775909424,-3.876429796218872,4.127383708953857,2.780683755874634,-4.017077922821045,-2.923943042755127,-1.5587799549102784,-2.6572952270507814,-2.7922544479370119],"l_hiddenLayersNeuronsBias":[0.0,0.0,0.0,0.0,0.0,0.0,0.0,0.0,0.0,0.0,0.0]},{"i_score":42,"l_input2HiddenLayerWeights":[-1.2054085731506348,3.487098217010498,1.592910885810852,-2.054182529449463,0.6857413053512573,4.017204284667969,1.7146508693695069,3.9586775302886965,-4.690567970275879,2.969581365585327,5.0,-0.235515296459198,2.7197933197021486,1.4225070476531983,0.2558252811431885,-2.1028623580932619,0.6855148077011108,3.508791208267212,4.942861557006836,-1.581884503364563,-2.6936302185058595,3.7014079093933107,1.7255017757415772,0.6296894550323486,-0.9099277257919312,-3.880866050720215,-1.4656344652175904,1.1637383699417115,-2.395301103591919,2.190178155899048,-0.3545685112476349,4.4011101722717289,-4.0886006355285648,0.8785802125930786,-3.810337781906128,0.3808175325393677,-0.14067792892456056,2.4097447395324709,-0.5879255533218384,4.825965881347656,-4.0685248374938969,-0.039699018001556399,-2.063115119934082,-0.3112673759460449,4.497580051422119,-2.710869312286377,5.0,-5.0,-1.546411156654358,0.26969897747039797,-0.7470601797103882,-0.33052051067352297,-2.1653566360473635,-2.993581533432007,-0.2081611156463623,2.7159557342529299,-4.375058174133301,1.8128077983856202,4.859790325164795,4.224767684936523,-4.648257255554199,-0.44872617721557619,-1.4238134622573853,0.3518199622631073,-1.3926085233688355,-4.076629161834717,3.073551654815674,1.3525114059448243,-1.6406210660934449,-4.662080764770508,2.220154285430908,-1.3320811986923218,-3.264380693435669,3.4454963207244875,-4.381253242492676,4.006690502166748,0.35838639736175539,0.04182839393615723,2.7896175384521486,1.2101398706436158,-5.0,-3.507876396179199,2.918797492980957,0.9128788709640503,-1.0623010396957398,-3.524549961090088,2.390442132949829,-2.6654014587402345,-0.24093860387802125,-3.451413631439209,-0.695289671421051,1.15288245677948,3.217191219329834,3.7790677547454836,-1.016818642616272,3.659327507019043,-4.177462100982666,-0.2432723194360733,5.0,3.022331714630127,0.027329623699188234,1.9828577041625977,-2.2280216217041017,-2.4613189697265627,1.2513961791992188,-4.760435104370117,4.43717622756958,-0.7318391799926758,4.160387992858887,1.5919533967971802,3.1758360862731935,0.06487107276916504,-4.5733208656311039,-1.7695090770721436,-1.7990905046463013,-2.281013250350952,-1.6065220832824708,0.6138964295387268,-1.3119547367095948,0.17627084255218507,1.6964367628097535],"l_hidden2OutputLayerWeights":[-4.788699150085449,-2.5423269271850588,-1.6139439344406129,2.379163980484009,-4.840508460998535,4.017204284667969,2.196302890777588,3.740217447280884,-1.7497639656066895,0.5371655225753784,2.2050957679748537,2.4133553504943849,-0.57612544298172,3.6121387481689455,-3.5386033058166506,4.734564781188965,2.703700542449951,-2.9518768787384035,-2.822798252105713,-2.126617431640625,-3.3717000484466554,-3.548598051071167],"l_hiddenLayersNeuronsBias":[0.0,0.0,0.0,0.0,0.0,0.0,0.0,0.0,0.0,0.0,0.0]},{"i_score":38,"l_input2HiddenLayerWeights":[-0.299013614654541,3.557677745819092,1.7208269834518433,-1.8975064754486085,-0.8483356237411499,4.548369884490967,2.5604960918426515,2.2889785766601564,-4.986649990081787,-1.9398027658462525,5.0,0.3278244137763977,2.5863306522369386,1.0637433528900147,-0.4000495672225952,-2.3836171627044679,0.3342253267765045,4.5406293869018559,4.7335052490234379,-1.9058603048324586,-2.6628174781799318,4.070083141326904,1.4967840909957886,-0.5971666574478149,-0.48374947905540469,-4.467830657958984,-1.836987018585205,-0.1899278163909912,-1.7354283332824708,1.6948597431182862,-0.06563058495521546,1.8008476495742798,-4.942505836486816,1.17661714553833,-2.9223666191101076,0.3985614478588104,-0.20729756355285645,2.0824408531188967,0.4154566526412964,4.473471641540527,-4.746316432952881,-0.016624480485916139,-1.7924482822418213,-0.20529109239578248,5.0,-0.8064155578613281,5.0,-3.261648654937744,-0.28750112652778628,-0.6295443773269653,-0.7527261972427368,-1.5638705492019654,-2.005932092666626,-3.3925702571868898,-0.7514845132827759,