{"l_brains":[{"i_score":42,"l_input2HiddenLayerWeights":[0.8842262029647827,2.5402932167053224,1.600056529045105,-1.3530824184417725,0.9694342613220215,3.513885498046875,2.96709942817688,2.5558297634124758,-4.544103622436523,3.6985974311828615,5.0,0.13197621703147889,2.431849479675293,0.48832598328590395,0.48792457580566409,-1.4177645444869996,1.2113293409347535,4.479129791259766,4.177242279052734,-0.5941799283027649,-3.66003155708313,3.5857765674591066,2.4142005443573,0.20032310485839845,-2.741941213607788,-3.3925063610076906,-2.1546099185943605,-0.3018891513347626,-2.5722036361694338,0.42538121342658999,0.7514340877532959,4.073247909545898,-4.511950492858887,1.357146143913269,-3.4483835697174074,-0.22107183933258058,-0.4871106445789337,2.453094720840454,-0.48144689202308657,4.494662284851074,-4.629136085510254,-1.294950008392334,-2.1258037090301515,1.3106297254562379,4.471035003662109,-1.149756669998169,4.170696258544922,-3.2321841716766359,-1.9232937097549439,0.9546216130256653,0.19971191883087159,-0.27197468280792239,0.10582631826400757,-2.019670009613037,-0.4811135530471802,3.4731521606445314,-3.7418289184570314,2.210087299346924,4.9623003005981449,3.7840657234191896,-3.968202590942383,0.0661143958568573,-2.3141515254974367,0.18904805183410645,-1.7934761047363282,-3.6711907386779787,2.4982614517211916,-0.40120893716812136,-0.5754885673522949,-4.125765800476074,2.3620452880859377,-1.659184455871582,-3.3045036792755129,3.291828155517578,-2.3667714595794679,3.7407093048095705,0.6440850496292114,-1.1739131212234498,2.134552240371704,-0.20830944180488587,-5.0,-3.4454636573791506,3.195030927658081,2.3728086948394777,-1.0504570007324219,-4.6587700843811039,-3.2900466918945314,-2.7311432361602785,-0.04006710648536682,-2.8712120056152345,0.18789184093475343,0.8131623268127441,3.124399423599243,3.2960972785949709,-1.2900855541229249,3.8948974609375,-4.455268859863281,-1.7597167491912842,4.88780403137207,2.9228014945983888,-0.33161893486976626,1.9241641759872437,0.46944379806518557,-1.941988468170166,2.770578145980835,-5.0,3.334265947341919,-1.0698500871658326,4.5500102043151859,0.050066351890563968,3.827237844467163,1.6877697706222535,-3.362457275390625,-2.1492981910705568,-1.5090832710266114,-0.5864003896713257,-1.4059817790985108,-0.3066366910934448,-1.4603029489517213,-0.27571025490760805,1.3460357189178467],"l_hidden2OutputLayerWeights":[-4.090723037719727,-3.2457451820373537,-1.0436116456985474,2.218268394470215,-4.669559478759766,4.445040225982666,1.0526814460754395,-1.7711329460144044,-2.485692024230957,1.8189282417297364,2.3823883533477785,1.7943059206008912,-0.4320526719093323,3.5099852085113527,-4.027504920959473,3.7515859603881838,2.3917315006256105,-2.439995050430298,-1.9610756635665894,-2.045050621032715,-1.6725205183029175,4.8974809646606449],"l_hiddenLayersNeuronsBias":[0.0,0.0,0.0,0.0,0.0,0.0,0.0,0.0,0.0,0.0,0.0]},{"i_score":42,"l_input2HiddenLayerWeights":[-0.5572865605354309,3.709148645401001,0.9387754201889038,-2.9226322174072267,0.2677271366119385,4.119429111480713,2.3432226181030275,2.779810905456543,-4.793365478515625,3.757298231124878,4.47155237197876,0.657823920249939,1.6785569190979005,1.921114444732666,0.9042643308639526,-1.3042346239089966,1.5766521692276,3.811225175857544,3.957529067993164,-2.8072590827941896,-3.3289237022399904,1.941264271736145,1.9425125122070313,-0.7533526420593262,-1.3409631252288819,-4.9631667137146,-0.3535413146018982,-0.8073298931121826,-1.0388281345367432,1.9596326351165772,0.49789881706237795,3.1187713146209719,-5.0,1.690803050994873,-3.1995558738708498,-0.12844622135162354,-0.6979347467422485,1.621168613433838,-1.2183645963668824,4.40333366394043,-3.2614870071411135,0.35600587725639346,-1.8884868621826172,0.7839304208755493,4.270885944366455,-4.044426441192627,4.2769269943237309,-4.528497219085693,-0.3455289900302887,-0.2798384726047516,-1.20290207862854,0.06372863054275513,-1.76749587059021,-3.0384981632232668,-0.2667559087276459,1.5843595266342164,-2.8002073764801027,2.708010673522949,5.0,3.328889846801758,-4.0861735343933109,-0.15486112236976624,-2.993537187576294,1.785305142402649,0.30068114399909975,-3.3962795734405519,3.5527405738830568,-0.38760483264923098,-1.3702120780944825,-3.7083663940429689,1.9093838930130005,0.5173542499542236,-3.8343358039855959,4.301278591156006,-4.16396951675415,4.408942222595215,0.19164597988128663,0.13842758536338807,3.784186363220215,-2.0851895809173586,-3.855984687805176,-3.0373544692993166,2.163524627685547,2.1492114067077638,-0.14533737301826478,-2.2166385650634767,-3.1947410106658937,-2.209228992462158,0.18290168046951295,-2.5595598220825197,-0.2835061550140381,0.08842909336090088,3.0962281227111818,2.9484646320343019,-0.9167909026145935,2.9563965797424318,-4.679652690887451,-1.5976839065551758,4.260045051574707,4.2074151039123539,-0.4367504417896271,1.8083049058914185,-2.933223009109497,-1.7897206544876099,4.216980457305908,-4.192374229431152,3.9501965045928957,-0.3625202775001526,4.619894504547119,1.8629679679870606,4.485867500305176,1.6280529499053956,-3.377438545227051,-2.225594997406006,-0.533606767654419,-4.274104118347168,-2.939857006072998,-0.2844489812850952,-1.5617226362228394,1.9065570831298829,1.4793055057525635],"l_hidden2OutputLayerWeights":[-3.1877002716064455,-4.094047546386719,0.28090164065361025,3.21580171585083,-4.554069519042969,3.8560450077056886,3.6748151779174806,2.035292148590088,-0.7775452136993408,1.7134814262390137,-0.059849709272384647,2.2294046878814699,0.005793452262878418,3.665086030960083,-3.6324472427368166,3.714107036590576,2.635058641433716,-3.5895040035247804,-2.999842643737793,-2.2739546298980715,-1.3551100492477418,-3.7494821548461916],"l_hiddenLayersNeuronsBias":[0.0,0.0,0.0,0.0,0.0,0.0,0.0,0.0,0.0,0.0,0.0]},{"i_score":42,"l_input2HiddenLayerWeights":[-1.5365707874298096,1.896913766860962,2.4345569610595705,-1.2852556705474854,0.18046772480010987,4.2011895179748539,3.368242025375366,2.509307622909546,-4.057875156402588,3.2159264087677,4.895993232727051,-0.3032870292663574,1.0531442165374756,0.9505534172058106,1.66196608543396,-2.318964958190918,1.1185927391052247,4.106180667877197,2.8673739433288576,-1.6291500329971314,-2.587296962738037,3.8211612701416017,1.1444064378738404,0.8805373907089233,-1.753053069114685,-5.0,-0.7332895994186401,-0.831344485282898,-2.0156469345092775,2.5676777362823488,0.7043552398681641,3.633044481277466,-4.868727684020996,0.22819435596466065,-3.6317033767700197,-0.7763558626174927,-0.8183162212371826,2.000126838684082,-2.4327597618103029,4.965770721435547,-4.609334945678711,0.2986353933811188,-1.5199133157730103,-2.189187526702881,4.741903305053711,-3.6248257160186769,3.839695453643799,-3.5888521671295168,-1.5082027912139893,0.7214357256889343,0.14089235663414002,-1.2049007415771485,-0.9784761667251587,3.104975700378418,-0.20885717868804933,1.9245429039001465,-3.6106977462768556,1.9520546197891236,4.492660999298096,3.52553653717041,-3.0130186080932619,0.7074978351593018,-2.8100547790527345,-0.45704206824302676,-1.546393632888794,-4.554531574249268,4.4908928871154789,0.974068284034729,-1.2101683616638184,-4.106150150299072,2.2019529342651369,-1.5188692808151246,-1.6461113691329957,1.0960179567337037,-3.3831145763397219,4.649300575256348,-1.4195384979248047,-0.7043481469154358,1.4291746616363526,-0.5575498342514038,-4.586369037628174,-4.087179183959961,2.792665958404541,3.8180606365203859,-1.130435824394226,-2.398947238922119,-4.016398906707764,-2.9006454944610597,0.1317027509212494,-2.996042013168335,0.9299799799919128,0.48734021186828616,2.9686179161071779,2.607363700866699,-1.0780091285705567,3.9290356636047365,-4.157958030700684,-1.506898045539856,4.540491104125977,2.5263078212738039,1.3674414157867432,2.300900936126709,-0.9212480783462524,-2.225111961364746,3.310774087905884,-5.0,4.496222019195557,-1.578564167022705,3.828200578689575,3.8026981353759767,4.574191093444824,1.7805194854736329,-3.5141210556030275,-2.2014100551605226,-1.5153335332870484,-0.28553131222724917,-1.3819701671600342,0.7223895788192749,-1.4464895725250245,-0.9331042766571045,2.0737595558166506],"l_hidden2OutputLayerWeights":[-4.183046817779541,-2.6506543159484865,-0.9659029245376587,1.8751802444458008,-5.0,4.034471035003662,3.7524893283843996,-1.4202805757522584,-2.9437448978424074,0.10724935680627823,2.309706926345825,1.6281548738479615,0.11562269181013107,4.283245086669922,-3.963364362716675,4.810444355010986,1.5776572227478028,-3.3175911903381349,-3.1501893997192385,-1.600852370262146,-1.9418140649795533,-4.644499778747559],"l_hiddenLayersNeuronsBias":[0.0,0.0,0.0,0.0,0.0,0.0,0.0,0.0,0.0,0.0,0.0]},{"i_score":42,"l_input2HiddenLayerWeights":[0.06164830923080444,2.846282958984375,1.3782622814178467,-2.1748595237731935,0.33867835998535159,3.9808106422424318,3.6800858974456789,3.4667258262634279,-5.0,3.9134163856506349,5.0,0.8877359628677368,2.6181960105895998,2.308964252471924,1.1895512342453004,-0.9326356649398804,1.3513675928115845,5.0,4.015642166137695,-1.8795808553695679,-2.6187644004821779,2.890591621398926,2.168388843536377,0.6749011278152466,-2.0083484649658205,-4.32073974609375,-1.2676677703857422,0.8057687282562256,-1.6945652961730958,2.649240732192993,0.9898152351379395,3.624368667602539,-4.0886006355285648,1.194997787475586,-3.0544986724853517,0.38267743587493899,-0.1316070854663849,2.407250165939331,-0.48144689202308657,4.808868408203125,-3.501981735229492,-1.225414752960205,-2.491652727127075,0.04303598403930664,4.757697582244873,-3.8051493167877199,3.746112823486328,-3.251559019088745,-0.5166014432907105,0.6516808271408081,0.4718395471572876,-0.8433353900909424,-1.8000365495681763,2.93320631980896,-0.4811135530471802,1.7821435928344727,-4.721835136413574,1.5532585382461548,4.8757429122924809,3.4766597747802736,-3.973527431488037,0.053279101848602298,-2.1255884170532228,1.743664264678955,-2.3139731884002687,-3.693173408508301,2.8462162017822267,0.14439141750335694,-2.6792891025543215,-4.128873348236084,2.5883595943450929,-1.9289522171020508,-3.044147491455078,3.942613124847412,-3.7739686965942385,3.745370388031006,0.41562896966934206,1.1643574237823487,2.134552240371704,-1.5247644186019898,-4.516164302825928,-3.994622230529785,1.9837431907653809,3.4791553020477297,-1.6933469772338868,-3.407942771911621,-3.650966167449951,-2.7311432361602785,0.6209973096847534,-2.4093017578125,0.4556725323200226,1.0617783069610596,3.254868507385254,2.853475570678711,-1.3376975059509278,3.909973621368408,-4.691901206970215,-0.42654848098754885,4.675321578979492,3.5131945610046388,-0.33161893486976626,1.121817708015442,-2.896580696105957,-3.4696192741394045,3.934593439102173,-4.755471229553223,4.370151519775391,-0.42022278904914858,4.125146389007568,1.8378880023956299,4.642160415649414,1.2076743841171265,-3.0437841415405275,-2.272143840789795,-1.4081522226333619,-3.165860176086426,-1.217022180557251,-0.1863791048526764,-1.1038647890090943,1.497225284576416,2.05989933013916],"l_hidden2OutputLayerWeights":[-4.608676910400391,-3.270216464996338,-0.8515865802764893,2.338984489440918,-4.65931510925293,4.3239922523498539,1.0526814460754395,2.8204379081726076,-2.485692024230957,1.4928432703018189,2.187377691268921,1.3980380296707154,0.040777385234832767,3.913740873336792,-4.478053092956543,3.8123018741607668,2.3917315006256105,-3.472252607345581,-2.936851739883423,-1.5191659927368165,-2.155519485473633,4.087036609649658],"l_hiddenLayersNeuronsBias":[0.0,0.0,0.0,0.0,0.0,0.0,0.0,0.0,0.0,0.0,0.0]},{"i_score":42,"l_input2HiddenLayerWeights":[-0.995571494102478,2.101194143295288,1.6928398609161378,-1.170682430267334,1.5913125276565552,4.374020576477051,2.98854398727417,4.5778422355651859,-4.176122188568115,2.5596494674682619,5.0,1.2476857900619507,1.2288235425949097,1.7153041362762452,1.689976692199707,-2.447047233581543,0.0012453794479370118,4.399003982543945,-0.21439304947853089,-1.5642863512039185,-3.621657371520996,3.3921384811401369,2.008855104446411,-0.291233628988266,-1.0138989686965943,-4.686446666717529,-0.6787652969360352,-0.9209662675857544,-0.2553926408290863,1.5902926921844483,-0.129465252161026,1.4287680387496949,-4.118228912353516,1.66550612449646,-1.5061664581298829,-0.24333229660987855,-0.147131085395813,1.9915918111801148,-1.197245717048645,5.0,-3.7201647758483888,-0.958889365196228,-2.2001936435699465,0.251708984375,4.424332141876221,-4.358983993530273,4.443223476409912,-5.0,-0.2565678358078003,-0.0017014741897583008,-0.5433257818222046,1.830578327178955,-1.4917188882827759,-2.709186553955078,0.4603022634983063,4.107892990112305,-3.977220058441162,2.25644850730896,4.093748092651367,4.0674824714660648,-2.510157823562622,0.013167083263397217,-1.7969999313354493,0.12213987857103348,-2.2027060985565187,-4.046792030334473,4.361555576324463,1.2633823156356812,-2.0600967407226564,-3.8323798179626467,2.7441563606262209,-1.9683642387390137,-3.121309280395508,3.304443597793579,-2.7850124835968019,3.06461238861084,-0.38097235560417178,1.1882438659667969,2.5519485473632814,-1.6053625345230103,-5.0,-3.918450355529785,2.763658285140991,2.6332573890686037,-1.0397220849990845,-3.762944221496582,-3.766648292541504,-2.2262210845947267,-0.6532644033432007,-2.6234917640686037,0.4976843297481537,1.3880771398544312,2.8267016410827638,3.2583231925964357,-2.650449514389038,2.9684104919433595,-4.7550950050354,-0.5370105504989624,4.071323394775391,3.1355161666870119,-1.2110041379928589,1.9702081680297852,-0.6989045143127441,-1.839369535446167,3.6577188968658449,-4.486780166625977,5.0,-0.7360925674438477,4.0929951667785648,2.359560012817383,4.0239105224609379,0.8701761960983276,-2.964341402053833,-1.4199175834655762,-0.8354036808013916,-1.6969558000564576,-1.0317646265029908,1.0909929275512696,-1.496554970741272,1.0817614793777466,2.7823069095611574],"l_hidden2OutputLayerWeights":[-5.0,-3.4915881156921388,-0.8800280094146729,2.4275269508361818,-4.999731540679932,3.6073923110961916,1.3300020694732667,1.5517672300338746,-0.8095297813415527,1.191734790802002,1.997001051902771,0.8298041820526123,0.23372027277946473,4.920219421386719,-3.5576839447021486,4.583645343780518,2.181934356689453,-2.585484027862549,-1.8138940334320069,-1.6193538904190064,-2.6003222465515138,-2.071667432785034],"l_hiddenLayersNeuronsBias":[0.0,0.0,0.0,0.0,0.0,0.0,0.0,0.0,0.0,0.0,0.0]},{"i_score":42,"l_input2HiddenLayerWeights":[1.0600979328155518,2.5402932167053224,1.442267894744873,-0.9262645244598389,0.33867835998535159,3.9808106422424318,3.155226945877075,4.728211402893066,-4.879556179046631,3.7355854511260988,5.0,1.3408408164978028,1.5637352466583253,1.0799461603164673,-0.10140478610992432,-2.345022201538086,0.5464434623718262,3.57878041267395,3.552549362182617,-1.8795808553695679,-2.914452314376831,3.310028553009033,1.6954182386398316,0.5666652917861939,-2.741941213607788,-4.7937493324279789,-1.8877052068710328,-0.45263147354125979,-0.21641358733177186,2.9299731254577638,0.33600902557373049,3.9122140407562258,-4.0886006355285648,1.1689354181289673,-2.4279627799987795,-0.22107183933258058,-0.515687108039856,2.453094720840454,-0.9370882511138916,5.0,-3.842899799346924,-1.225414752960205,-1.8587368726730347,0.04303598403930664,4.757697582244873,-3.9341232776641847,3.752786159515381,-3.251559019088745,-1.8864442110061646,0.6516808271408081,0.32784411311149599,-0.6755346059799194,-1.2259713411331177,2.871124744415283,-0.008642107248306275,1.9955179691314698,-4.735891819000244,2.7024166584014894,4.38333797454834,3.3418707847595217,-4.216572284698486,-0.19620949029922486,-2.414156198501587,-0.06350021809339524,-2.2545812129974367,-4.2144975662231449,-0.6528329849243164,1.0212616920471192,-1.6987098455429078,-4.576869487762451,2.249586582183838,-0.5819116830825806,-3.044147491455078,3.942613124847412,-2.3667714595794679,3.421339988708496,-0.5406073331832886,-0.22152772545814515,2.387352228164673,-1.5247644186019898,-4.126493453979492,-3.6238346099853517,2.1696362495422365,3.4791553020477297,-1.6933469772338868,-1.4730473756790162,2.827374219894409,-2.2516090869903566,-0.21922138333320619,-2.2043347358703615,0.942511796951294,0.8399723768234253,3.254868507385254,3.2960972785949709,-2.0031685829162599,2.6727750301361086,-4.4315595626831059,-1.3506602048873902,4.803896427154541,2.9228014945983888,-1.2276272773742676,1.9241641759872437,-1.3989720344543458,-3.340282440185547,4.027047634124756,-4.586309909820557,4.5254364013671879,-0.9567815065383911,4.379665374755859,0.30526256561279299,4.114871025085449,1.2076743841171265,-3.376559257507324,-2.8037710189819338,-0.351572185754776,-2.1400022506713869,3.540180206298828,1.7149152755737305,-1.4221543073654175,-0.27571025490760805,2.5283854007720949],"l_hidden2OutputLayerWeights":[-4.233054161071777,-3.270216464996338,-0.8515865802764893,3.080029010772705,-5.0,3.569566249847412,1.0526814460754395,2.9655356407165529,-1.938214659690857,1.1422141790390015,2.3823883533477785,1.727917194366455,-0.3294469714164734,4.2821760177612309,-3.348334550857544,4.540647506713867,2.403865337371826,-2.439995050430298,-2.5769505500793459,-2.083707094192505,-1.571548581123352,-3.001600503921509],"l_hiddenLayersNeuronsBias":[0.0,0.0,0.0,0.0,0.0,0.0,0.0,0.0,0.0,0.0,0.0]},{"i_score":42,"l_input2HiddenLayerWeights":[0.8842262029647827,2.5402932167053224,1.600056529045105,-1.3530824184417725,0.9694342613220215,3.513885498046875,2.96709942817688,2.5558297634124758,-4.544103622436523,3.6985974311828615,5.0,0.13197621703147889,2.431849479675293,0.48832598328590395,0.48792457580566409,-1.4177645444869996,1.2113293409347535,4.479129791259766,4.177242279052734,-0.5941799283027649,-3.66003155708313,3.5857765674591066,2.4142005443573,0.20032310485839845,-2.741941213607788,-3.3925063610076906,-2.1546099185943605,-0.3018891513347626,-2.5722036361694338,0.42538121342658999,0.7514340877532959,4.073247909545898,-4.511950492858887,1.357146143913269,-3.4483835697174074,-0.22107183933258058,-0.4871106445789337,2.453094720840454,-0.48144689202308657,4.494662284851074,-4.629136085510254,-1.294950008392334,-2.1258037090301515,1.3106297254562379,4.471035003662109,-1.149756669998169,4.170696258544922,-3.2321841716766359,-1.9232937097549439,0.9546216130256653,0.19971191883087159,-0.27197468280792239,0.10582631826400757,-2.019670009613037,-0.4811135530471802,3.4731521606445314,-3.7418289184570314,2.210087299346924,4.9623003005981449,3.7840657234191896,-3.968202590942383,0.0661143958568573,-2.3141515254974367,0.18904805183410645,-1.7934761047363282,-3.6711907386779787,2.4982614517211916,-0.40120893716812136,-0.5754885673522949,-4.125765800476074,2.3620452880859377,-1.659184455871582,-3.3045036792755129,3.291828155517578,-2.3667714595794679,3.7407093048095705,0.6440850496292114,-1.1739131212234498,2.134552240371704,-0.20830944180488587,-5.0,-3.4454636573791506,3.195030927658081,2.3728086948394777,-1.0504570007324219,-4.6587700843811039,-3.2900466918945314,-2.7311432361602785,-0.04006710648536682,-2.8712120056152345,0.18789184093475343,0.8131623268127441,3.124399423599243,3.2960972785949709,-1.2900855541229249,3.8948974609375,-4.455268859863281,-1.7597167491912842,4.88780403137207,2.9228014945983888,-0.33161893486976626,1.9241641759872437,0.46944379806518557,-1.941988468170166,2.770578145980835,-5.0,3.334265947341919,-1.0698500871658326,4.5500102043151859,0.050066351890563968,3.827237844467163,1.6877697706222535,-3.362457275390625,-2.1492981910705568,-1.5090832710266114,-0.5864003896713257,-1.4059817790985108,-0.3066366910934448,-1.4603029489517213,-0.27571025490760805,1.3460357189178467],"l_hidden2OutputLayerWeights":[-4.090723037719727,-3.2457451820373537,-1.0436116456985474,2.218268394470215,-4.669559478759766,4.445040225982666,1.0526814460754395,-1.7711329460144044,-2.485692024230957,1.8189282417297364,2.3823883533477785,1.7943059206008912,-0.4320526719093323,3.5099852085113527,-4.027504920959473,3.7515859603881838,2.3917315006256105,-2.439995050430298,-1.9610756635665894,-2.045050621032715,-1.6725205183029175,4.8974809646606449],"l_hiddenLayersNeuronsBias":[0.0,0.0,0.0,0.0,0.0,0.0,0.0,0.0,0.0,0.0,0.0]},{"i_score":42,"l_input2HiddenLayerWeights":[-0.5572865605354309,3.709148645401001,0.9387754201889038,-2.9226322174072267,0.2677271366119385,4.119429111480713,2.3432226181030275,2.779810905456543,-4.793365478515625,3.757298231124878,4.47155237197876,0.657823920249939,1.6785569190979005,1.921114444732666,0.9042643308639526,-1.3042346239089966,1.5766521692276,3.811225175857544,3.957529067993164,-2.8072590827941896,-3.3289237022399904,1.941264271736145,1.9425125122070313,-0.7533526420593262,-1.3409631252288819,-4.9631667137146,-0.3535413146018982,-0.8073298931121826,-1.0388281345367432,1.9596326351165772,0.49789881706237795,3.1187713146209719,-5.0,1.690803050994873,-3.1995558738708498,-0.12844622135162354,-0.6979347467422485,1.621168613433838,-1.2183645963668824,4.40333366394043,-3.2614870071411135,0.35600587725639346,-1.8884868621826172,0.7839304208755493,4.270885944366455,-4.044426441192627,4.2769269943237309,-4.528497219085693,-0.3455289900302887,-0.2798384726047516,-1.20290207862854,0.06372863054275513,-1.76749587059021,-3.0384981632232668,-0.2667559087276459,1.5843595266342164,-2.8002073764801027,2.708010673522949,5.0,3.328889846801758,-4.0861735343933109,-0.15486112236976624,-2.993537187576294,1.785305142402649,0.30068114399909975,-3.3962795734405519,3.5527405738830568,-0.38760483264923098,-1.3702120780944825,-3.7083663940429689,1.9093838930130005,0.5173542499542236,-3.8343358039855959,4.301278591156006,-4.16396951675415,4.408942222595215,0.19164597988128663,0.13842758536338807,3.784186363220215,-2.0851895809173586,-3.855984687805176,-3.0373544692993166,2.163524627685547,2.1492114067077638,-0.14533737301826478,-2.2166385650634767,-3.1947410106658937,-2.209228992462158,0.18290168046951295,-2.5595598220825197,-0.2835061550140381,0.08842909336090088,3.0962281227111818,2.9484646320343019,-0.9167909026145935,2.9563965797424318,-4.679652690887451,-1.5976839065551758,4.260045051574707,4.2074151039123539,-0.4367504417896271,1.8083049058914185,-2.933223009109497,-1.7897206544876099,4.216980457305908,-4.192374229431152,3.9501965045928957,-0.3625202775001526,4.619894504547119,1.8629679679870606,4.485867500305176,1.6280529499053956,-3.377438545227051,-2.225594997406006,-0.533606767654419,-4.274104118347168,-2.939857006072998,-0.2844489812850952,-1.5617226362228394,1.9065570831298829,1.4793055057525635],"l_hidden2OutputLayerWeights":[-3.1877002716064455,-4.094047546386719,0.28090164065361025,3.21580171585083,-4.554069519042969,3.8560450077056886,3.6748151779174806,2.035292148590088,-0.7775452136993408,1.7134814262390137,-0.059849709272384647,2.2294046878814699,0.005793452262878418,3.665086030960083,-3.6324472427368166,3.714107036590576,2.635058641433716,-3.5895040035247804,-2.999842643737793,-2.2739546298980715,-1.3551100492477418,-3.7494821548461916],"l_hiddenLayersNeuronsBias":[0.0,0.0,0.0,0.0,0.0,0.0,0.0,0.0,0.0,0.0,0.0]},{"i_score":42,"l_input2HiddenLayerWeights":[-1.5365707874298096,1.896913766860962,2.4345569610595705,-1.2852556705474854,0.18046772480010987,4.2011895179748539,3.368242025375366,2.509307622909546,-4.057875156402588,3.2159264087677,4.895993232727051,-0.3032870292663574,1.0531442165374756,0.9505534172058106,1.66196608543396,-2.318964958190918,1.1185927391052247,4.106180667877197,2.8673739433288576,-1.6291500329971314,-2.587296962738037,3.8211612701416017,1.1444064378738404,0.8805373907089233,-1.753053069114685,-5.0,-0.7332895994186401,-0.831344485282898,-2.0156469345092775,2.5676777362823488,0.7043552398681641,3.633044481277466,-4.868727684020996,0.22819435596466065,-3.6317033767700197,-0.7763558626174927,-0.8183162212371826,2.000126838684082,-2.4327597618103029,4.965770721435547,-4.609334945678711,0.2986353933811188,-1.5199133157730103,-2.189187526702881,4.741903305053711,-3.6248257160186769,3.839695453643799,-3.5888521671295168,-1.5082027912139893,0.7214357256889343,0.14089235663414002,-1.2049007415771485,-0.9784761667251587,3.104975700378418,-0.20885717868804933,1.9245429039001465,-3.6106977462768556,1.9520546197891236,4.492660999298096,3.52553653717041,-3.0130186080932619,0.7074978351593018,-2.8100547790527345,-0.45704206824302676,-1.546393632888794,-4.554531574249268,4.4908928871154789,0.974068284034729,-1.2101683616638184,-4.106150150299072,2.2019529342651369,-1.5188692808151246,-1.6461113691329957,1.0960179567337037,-3.3831145763397219,4.649300575256348,-1.4195384979248047,-0.7043481469154358,1.4291746616363526,-0.5575498342514038,-4.586369037628174,-4.087179183959961,2.792665958404541,3.8180606365203859,-1.130435824394226,-2.398947238922119,-4.016398906707764,-2.9006454944610597,0.1317027509212494,-2.996042013168335,0.9299799799919128,0.48734021186828616,2.9686179161071779,2.607363700866699,-1.0780091285705567,3.9290356636047365,-4.157958030700684,-1.506898045539856,4.540491104125977,2.5263078212738039,1.3674414157867432,2.300900936126709,-0.9212480783462524,-2.225111961364746,3.310774087905884,-5.0,4.496222019195557,-1.578564167022705,3.828200578689575,3.8026981353759767,4.574191093444824,1.7805194854736329,-3.5141210556030275,-2.2014100551605226,-1.5153335332870484,-0.28553131222724917,-1.3819701671600342,0.7223895788192749,-1.4464895725250245,-0.9331042766571045,2.0737595558166506],"l_hidden2OutputLayerWeights":[-4.183046817779541,-2.6506543159484865,-0.9659029245376587,1.8751802444458008,-5.0,4.034471035003662,3.7524893283843996,-1.4202805757522584,-2.9437448978424074,0.10724935680627823,2.309706926345825,1.6281548738479615,0.11562269181013107,4.283245086669922,-3.963364362716675,4.810444355010986,1.5776572227478028,-3.3175911903381349,-3.1501893997192385,-1.600852370262146,-1.9418140649795533,-4.644499778747559],"l_hiddenLayersNeuronsBias":[0.0,0.0,0.0,0.0,0.0,0.0,0.0,0.0,0.0,0.0,0.0]},{"i_score":42,"l_input2HiddenLayerWeights":[0.06164830923080444,2.846282958984375,1.3782622814178467,-2.1748595237731935,0.33867835998535159,3.9808106422424318,3.6800858974456789,3.4667258262634279,-5.0,3.9134163856506349,5.0,0.8877359628677368,2.6181960105895998,2.308964252471924,1.1895512342453004,-0.9326356649398804,1.3513675928115845,5.0,4.015642166137695,-1.8795808553695679,-2.6187644004821779,2.890591621398926,2.168388843536377,0.6749011278152466,-2.0083484649658205,-4.32073974609375,-1.2676677703857422,0.8057687282562256,-1.6945652961730958,2.649240732192993,0.9898152351379395,3.624368667602539,-4.0886006355285648,1.194997787475586,-3.0544986724853517,0.38267743587493899,-0.1316070854663849,2.407250165939331,-0.48144689202308657,4.808868408203125,-3.501981735229492,-1.225414752960205,-2.491652727127075,0.04303598403930664,4.757697582244873,-3.8051493167877199,3.746112823486328,-3.251559019088745,-0.5166014432907105,0.6516808271408081,0.4718395471572876,-0.8433353900909424,-1.8000365495681763,2.93320631980896,-0.4811135530471802,1.7821435928344727,-4.721835136413574,1.5532585382461548,4.8757429122924809,3.4766597747802736,-3.973527431488037,0.053279101848602298,-2.1255884170532228,1.743664264678955,-2.3139731884002687,-3.693173408508301,2.8462162017822267,0.14439141750335694,-2.6792891025543215,-4.128873348236084,2.5883595943450929,-1.9289522171020508,-3.044147491455078,3.942613124847412,-3.7739686965942385,3.745370388031006,0.41562896966934206,1.1643574237823487,2.134552240371704,-1.5247644186019898,-4.516164302825928,-3.994622230529785,1.9837431907653809,3.4791553020477297,-1.6933469772338868,-3.407942771911621,-3.650966167449951,-2.7311432361602785,0.6209973096847534,-2.4093017578125,0.4556725323200226,1.0617783069610596,3.254868507385254,2.853475570678711,-1.3376975059509278,3.909973621368408,-4.691901206970215,-0.42654848098754885,4.675321578979492,3.5131945610046388,-0.33161893486976626,1.121817708015442,-2.896580696105957,-3.4696192741394045,3.934593439102173,-4.755471229553223,4.370151519775391,-0.42022278904914858,4.125146389007568,1.8378880023956299,4.642160415649414,1.2076743841171265,-3.0437841415405275,-2.272143840789795,-1.4081522226333619,-3.165860176086426,-1.217022180557251,-0.1863791048526764,-1.1038647890090943,1.497225284576416,2.05989933013916],"l_hidden2OutputLayerWeights":[-4.608676910400391,-3.270216464996338,-0.8515865802764893,2.338984489440918,-4.65931510925293,4.3239922523498539,1.0526814460754395,2.8204379081726076,-2.485692024230957,1.4928432703018189,2.187377691268921,1.3980380296707154,0.040777385234832767,3.913740873336792,-4.478053092956543,3.8123018741607668,2.3917315006256105,-3.472252607345581,-2.936851739883423,-1.5191659927368165,-2.155519485473633,4.087036609649658],"l_hiddenLayersNeuronsBias":[0.0,0.0,0.0,0.0,0.0,0.0,0.0,0.0,0.0,0.0,0.0]},{"i_score":42,"l_input2HiddenLayerWeights":[-0.995571494102478,2.101194143295288,1.6928398609161378,-1.170682430267334,1.5913125276565552,4.374020576477051,2.98854398727417,4.5778422355651859,-4.176122188568115,2.5596494674682619,5.0,1.2476857900619507,1.2288235425949097,1.7153041362762452,1.689976692199707,-2.447047233581543,0.0012453794479370118,4.399003982543945,-0.21439304947853089,-1.5642863512039185,-3.621657371520996,3.3921384811401369,2.008855104446411,-0.291233628988266,-1.0138989686965943,-4.686446666717529,-0.6787652969360352,-0.9209662675857544,-0.2553926408290863,1.5902926921844483,-0.129465252161026,1.4287680387496949,-4.118228912353516,1.66550612449646,-1.5061664581298829,-0.24333229660987855,-0.147131085395813,1.9915918111801148,-1.197245717048645,5.0,-3.7201647758483888,-0.958889365196228,-2.2001936435699465,0.251708984375,4.424332141876221,-4.358983993530273,4.443223476409912,-5.0,-0.2565678358078003,-0.0017014741897583008,-0.5433257818222046,1.830578327178955,-1.4917188882827759,-2.709186553955078,0.4603022634983063,4.107892990112305,-3.977220058441162,2.25644850730896,4.093748092651367,4.0674824714660648,-2.510157823562622,0.013167083263397217,-1.7969999313354493,0.12213987857103348,-2.2027060985565187,-4.046792030334473,4.361555576324463,1.2633823156356812,-2.0600967407226564,-3.8323798179626467,2.7441563606262209,-1.9683642387390137,-3.121309280395508,3.304443597793579,-2.7850124835968019,3.06461238861084,-0.38097235560417178,1.1882438659667969,2.5519485473632814,-1.6053625345230103,-5.0,-3.918450355529785,2.763658285140991,2.6332573890686037,-1.0397220849990845,-3.762944221496582,-3.766648292541504,-2.2262210845947267,-0.6532644033432007,-2.6234917640686037,0.4976843297481537,1.3880771398544312,2.8267016410827638,3.2583231925964357,-2.650449514389038,2.9684104919433595,-4.7550950050354,-0.5370105504989624,4.071323394775391,3.1355161666870119,-1.2110041379928589,1.9702081680297852,-0.6989045143127441,-1.839369535446167,3.6577188968658449,-4.486780166625977,5.0,-0.7360925674438477,4.0929951667785648,2.359560012817383,4.0239105224609379,0.8701761960983276,-2.964341402053833,-1.4199175834655762,-0.8354036808013916,-1.6969558000564576,-1.0317646265029908,1.0909929275512696,-1.496554970741272,1.0817614793777466,2.7823069095611574],"l_hidden2OutputLayerWeights":[-5.0,-3.4915881156921388,-0.8800280094146729,2.4275269508361818,-4.999731540679932,3.6073923110961916,1.3300020694732667,1.5517672300338746,-0.8095297813415527,1.191734790802002,1.997001051902771,0.8298041820526123,0.23372027277946473,4.920219421386719,-3.5576839447021486,4.583645343780518,2.181934356689453,-2.585484027862549,-1.8138940334320069,-1.6193538904190064,-2.6003222465515138,-2.071667432785034],"l_hiddenLayersNeuronsBias":[0.0,0.0,0.0,0.0,0.0,0.0,0.0,0.0,0.0,0.0,0.0]},{"i_score":42,"l_input2HiddenLayerWeights":[1.0600979328155518,2.5402932167053224,1.442267894744873,-0.9262645244598389,0.33867835998535159,3.9808106422424318,3.155226945877075,4.728211402893066,-4.879556179046631,3.7355854511260988,5.0,1.3408408164978028,1.5637352466583253,1.0799461603164673,-0.10140478610992432,-2.345022201538086,0.5464434623718262,3.57878041267395,3.552549362182617,-1.8795808553695679,-2.914452314376831,3.310028553009033,1.6954182386398316,0.5666652917861939,-2.741941213607788,-4.7937493324279789,-1.8877052068710328,-0.45263147354125979,-0.21641358733177186,2.9299731254577638,0.33600902557373049,3.9122140407562258,-4.0886006355285648,1.1689354181289673,-2.4279627799987795,-0.22107183933258058,-0.515687108039856,2.453094720840454,-0.9370882511138916,5.0,-3.842899799346924,-1.225414752960205,-1.8587368726730347,0.04303598403930664,4.757697582244873,-3.9341232776641847,3.752786159515381,-3.251559019088745,-1.8864442110061646,0.6516808271408081,0.32784411311149599,-0.6755346059799194,-1.2259713411331177,2.871124744415283,-0.008642107248306275,1.9955179691314698,-4.735891819000244,2.7024166584014894,4.38333797454834,3.3418707847595217,-4.216572284698486,-0.19620949029922486,-2.414156198501587,-0.06350021809339524,-2.2545812129974367,-4.2144975662231449,-0.6528329849243164,1.0212616920471192,-1.6987098455429078,-4.576869487762451,2.249586582183838,-0.5819116830825806,-3.044147491455078,3.942613124847412,-2.3667714595794679,3.421339988708496,-0.5406073331832886,-0.22152772545814515,2.387352228164673,-1.5247644186019898,-4.126493453979492,-3.6238346099853517,2.1696362495422365,3.4791553020477297,-1.6933469772338868,-1.4730473756790162,2.827374219894409,-2.2516090869903566,-0.21922138333320619,-2.2043347358703615,0.942511796951294,0.8399723768234253,3.254868507385254,3.2960972785949709,-2.0031685829162599,2.6727750301361086,-4.4315595626831059,-1.3506602048873902,4.803896427154541,2.9228014945983888,-1.2276272773742676,1.9241641759872437,-1.3989720344543458,-3.340282440185547,4.027047634124756,-4.586309909820557,4.5254364013671879,-0.9567815065383911,4.379665374755859,0.30526256561279299,4.114871025085449,1.2076743841171265,-3.376559257507324,-2.8037710189819338,-0.351572185754776,-2.1400022506713869,3.540180206298828,1.7149152755737305,-1.4221543073654175,-0.27571025490760805,2.5283854007720949],"l_hidden2OutputLayerWeights":[-4.233054161071777,-3.270216464996338,-0.8515865802764893,3.080029010772705,-5.0,3.569566249847412,1.0526814460754395,2.9655356407165529,-1.938214659690857,1.1422141790390015,2.3823883533477785,1.727917194366455,-0.3294469714164734,4.2821760177612309,-3.348334550857544,4.540647506713867,2.403865337371826,-2.439995050430298,-2.5769505500793459,-2.083707094192505,-1.571548581123352,-3.001600503921509],"l_hiddenLayersNeuronsBias":[0.0,0.0,0.0,0.0,0.0,0.0,0.0,0.0,0.0,0.0,0.0]},{"i_score":42,"l_input2HiddenLayerWeights":[0.8842262029647827,2.5402932167053224,1.600056529045105,-1.3530824184417725,0.9694342613220215,3.513885498046875,2.96709942817688,2.5558297634124758,-4.544103622436523,3.6985974311828615,5.0,0.13197621703147889,2.431849479675293,0.48832598328590395,0.48792457580566409,-1.4177645444869996,1.2113293409347535,4.479129791259766,4.177242279052734,-0.5941799283027649,-3.66003155708313,3.5857765674591066,2.4142005443573,0.20032310485839845,-2.741941213607788,-3.3925063610076906,-2.1546099185943605,-0.3018891513347626,-2.5722036361694338,0.42538121342658999,0.7514340877532959,4.073247909545898,-4.511950492858887,1.357146143913269,-3.4483835697174074,-0.22107183933258058,-0.4871106445789337,2.453094720840454,-0.48144689202308657,4.494662284851074,-4.629136085510254,-1.294950008392334,-2.1258037090301515,1.3106297254562379,4.471035003662109,-1.149756669998169,4.170696258544922,-3.2321841716766359,-1.9232937097549439,0.9546216130256653,0.19971191883087159,-0.27197468280792239,0.10582631826400757,-2.019670009613037,-0.4811135530471802,3.4731521606445314,-3.7418289184570314,2.210087299346924,4.9623003005981449,3.7840657234191896,-3.968202590942383,0.0661143958568573,-2.3141515254974367,0.18904805183410645,-1.7934761047363282,-3.6711907386779787,2.4982614517211916,-0.40120893716812136,-0.5754885673522949,-4.125765800476074,2.3620452880859377,-1.659184455871582,-3.3045036792755129,3.291828155517578,-2.3667714595794679,3.7407093048095705,0.6440850496292114,-1.1739131212234498,2.134552240371704,-0.20830944180488587,-5.0,-3.4454636573791506,3.195030927658081,2.3728086948394777,-1.0504570007324219,-4.6587700843811039,-3.2900466918945314,-2.7311432361602785,-0.04006710648536682,-2.8712120056152345,0.18789184093475343,0.8131623268127441,3.124399423599243,3.2960972785949709,-1.2900855541229249,3.8948974609375,-4.455268859863281,-1.7597167491912842,4.88780403137207,2.9228014945983888,-0.33161893486976626,1.9241641759872437,0.46944379806518557,-1.941988468170166,2.770578145980835,-5.0,3.334265947341919,-1.0698500871658326,4.5500102043151859,0.050066351890563968,3.827237844467163,1.6877697706222535,-3.362457275390625,-2.1492981910705568,-1.5090832710266114,-0.5864003896713257,-1.4059817790985108,-0.3066366910934448,-1.4603029489517213,-0.27571025490760805,1.3460357189178467],"l_hidden2OutputLayerWeights":[-4.090723037719727,-3.2457451820373537,-1.0436116456985474,2.218268394470215,-4.669559478759766,4.445040225982666,1.0526814460754395,-1.7711329460144044,-2.485692024230957,1.8189282417297364,2.3823883533477785,1.7943059206008912,-0.4320526719093323,3.5099852085113527,-4.027504920959473,3.7515859603881838,2.3917315006256105,-2.439995050430298,-1.9610756635665894,-2.045050621032715,-1.6725205183029175,4.8974809646606449],"l_hiddenLayersNeuronsBias":[0.0,0.0,0.0,0.0,0.0,0.0,0.0,0.0,0.0,0.0,0.0]},{"i_score":42,"l_input2HiddenLayerWeights":[-0.5572865605354309,3.709148645401001,0.9387754201889038,-2.9226322174072267,0.2677271366119385,4.119429111480713,2.3432226181030275,2.779810905456543,-4.793365478515625,3.757298231124878,4.47155237197876,0.657823920249939,1.6785569190979005,1.921114444732666,0.9042643308639526,-1.3042346239089966,1.5766521692276,3.811225175857544,3.957529067993164,-2.8072590827941896,-3.3289237022399904,1.941264271736145,1.9425125122070313,-0.7533526420593262,-1.3409631252288819,-4.9631667137146,-0.3535413146018982,-0.8073298931121826,-1.0388281345367432,1.9596326351165772,0.49789881706237795,3.1187713146209719,-5.0,1.690803050994873,-3.1995558738708498,-0.12844622135162354,-0.6979347467422485,1.621168613433838,-1.2183645963668824,4.40333366394043,-3.2614870071411135,0.35600587725639346,-1.8884868621826172,0.7839304208755493,4.270885944366455,-4.044426441192627,4.2769269943237309,-4.528497219085693,-0.3455289900302887,-0.2798384726047516,-1.20290207862854,0.06372863054275513,-1.76749587059021,-3.0384981632232668,-0.2667559087276459,1.5843595266342164,-2.8002073764801027,2.708010673522949,5.0,3.328889846801758,-4.0861735343933109,-0.15486112236976624,-2.993537187576294,1.785305142402649,0.30068114399909975,-3.3962795734405519,3.5527405738830568,-0.38760483264923098,-1.3702120780944825,-3.7083663940429689,1.9093838930130005,0.5173542499542236,-3.8343358039855959,4.301278591156006,-4.16396951675415,4.408942222595215,0.19164597988128663,0.13842758536338807,3.784186363220215,-2.0851895809173586,-3.855984687805176,-3.0373544692993166,2.163524627685547,2.1492114067077638,-0.14533737301826478,-2.2166385650634767,-3.1947410106658937,-2.209228992462158,0.18290168046951295,-2.5595598220825197,-0.2835061550140381,0.08842909336090088,3.0962281227111818,2.9484646320343019,-0.9167909026145935,2.9563965797424318,-4.679652690887451,-1.5976839065551758,4.260045051574707,4.2074151039123539,-0.4367504417896271,1.8083049058914185,-2.933223009109497,-1.7897206544876099,4.216980457305908,-4.192374229431152,3.9501965045928957,-0.3625202775001526,4.619894504547119,1.8629679679870606,4.485867500305176,1.6280529499053956,-3.377438545227051,-2.225594997406006,-0.533606767654419,-4.274104118347168,-2.939857006072998,-0.2844489812850952,-1.5617226362228394,1.9065570831298829,1.4793055057525635],"l_hidden2OutputLayerWeights":[-3.1877002716064455,-4.094047546386719,0.28090164065361025,3.21580171585083,-4.554069519042969,3.8560450077056886,3.6748151779174806,2.035292148590088,-0.7775452136993408,1.7134814262390137,-0.059849709272384647,2.2294046878814699,0.005793452262878418,3.665086030960083,-3.6324472427368166,3.714107036590576,2.635058641433716,-3.5895040035247804,-2.999842643737793,-2.2739546298980715,-1.3551100492477418,-3.7494821548461916],"l_hiddenLayersNeuronsBias":[0.0,0.0,0.0,0.0,0.0,0.0,0.0,0.0,0.0,0.0,0.0]},{"i_score":42,"l_input2HiddenLayerWeights":[-1.5365707874298096,1.896913766860962,2.4345569610595705,-1.2852556705474854,0.18046772480010987,4.2011895179748539,3.368242025375366,2.509307622909546,-4.057875156402588,3.2159264087677,4.895993232727051,-0.3032870292663574,1.0531442165374756,0.9505534172058106,1.66196608543396,-2.318964958190918,1.1185927391052247,4.106180667877197,2.8673739433288576,-1.6291500329971314,-2.587296962738037,3.8211612701416017,1.1444064378738404,0.8805373907089233,-1.753053069114685,-5.0,-0.7332895994186401,-0.831344485282898,-2.0156469345092775,2.5676777362823488,0.7043552398681641,3.633044481277466,-4.868727684020996,0.22819435596466065,-3.6317033767700197,-0.7763558626174927,-0.8183162212371826,2.000126838684082,-2.4327597618103029,4.965770721435547,-4.609334945678711,0.2986353933811188,-1.5199133157730103,-2.189187526702881,4.741903305053711,-3.6248257160186769,3.839695453643799,-3.5888521671295168,-1.5082027912139893,0.7214357256889343,0.14089235663414002,-1.2049007415771485,-0.9784761667251587,3.104975700378418,-0.20885717868804933,1.9245429039001465,-3.6106977462768556,1.9520546197891236,4.492660999298096,3.52553653717041,-3.0130186080932619,0.7074978351593018,-2.8100547790527345,-0.45704206824302676,-1.546393632888794,-4.554531574249268,4.4908928871154789,0.974068284034729,-1.2101683616638184,-4.106150150299072,2.2019529342651369,-1.5188692808151246,-1.6461113691329957,1.0960179567337037,-3.3831145763397219,4.649300575256348,-1.4195384979248047,-0.7043481469154358,1.4291746616363526,-0.5575498342514038,-4.586369037628174,-4.087179183959961,2.792665958404541,3.8180606365203859,-1.130435824394226,-2.398947238922119,-4.016398906707764,-2.9006454944610597,0.1317027509212494,-2.996042013168335,0.9299799799919128,0.48734021186828616,2.9686179161071779,2.607363700866699,-1.0780091285705567,3.9290356636047365,-4.157958030700684,-1.506898045539856,4.540491104125977,2.5263078212738039,1.3674414157867432,2.300900936126709,-0.9212480783462524,-2.225111961364746,3.310774087905884,-5.0,4.496222019195557,-1.578564167022705,3.828200578689575,3.8026981353759767,4.574191093444824,1.7805194854736329,-3.5141210556030275,-2.2014100551605226,-1.5153335332870484,-0.28553131222724917,-1.3819701671600342,0.7223895788192749,-1.4464895725250245,-0.9331042766571045,2.0737595558166506],"l_hidden2OutputLayerWeights":[-4.183046817779541,-2.6506543159484865,-0.9659029245376587,1.8751802444458008,-5.0,4.034471035003662,3.7524893283843996,-1.4202805757522584,-2.9437448978424074,0.10724935680627823,2.309706926345825,1.6281548738479615,0.11562269181013107,4.283245086669922,-3.963364362716675,4.810444355010986,1.5776572227478028,-3.3175911903381349,-3.1501893997192385,-1.600852370262146,-1.9418140649795533,-4.644499778747559],"l_hiddenLayersNeuronsBias":[0.0,0.0,0.0,0.0,0.0,0.0,0.0,0.0,0.0,0.0,0.0]},{"i_score":42,"l_input2HiddenLayerWeights":[0.06164830923080444,2.846282958984375,1.3782622814178467,-2.1748595237731935,0.33867835998535159,3.9808106422424318,3.6800858974456789,3.4667258262634279,-5.0,3.9134163856506349,5.0,0.8877359628677368,2.6181960105895998,2.308964252471924,1.1895512342453004,-0.9326356649398804,1.3513675928115845,5.0,4.015642166137695,-1.8795808553695679,-2.6187644004821779,2.890591621398926,2.168388843536377,0.6749011278152466,-2.0083484649658205,-4.32073974609375,-1.2676677703857422,0.8057687282562256,-1.6945652961730958,2.649240732192993,0.9898152351379395,3.624368667602539,-4.0886006355285648,1.194997787475586,-3.0544986724853517,0.38267743587493899,-0.1316070854663849,2.407250165939331,-0.48144689202308657,4.808868408203125,-3.501981735229492,-1.225414752960205,-2.491652727127075,0.04303598403930664,4.757697582244873,-3.8051493167877199,3.746112823486328,-3.251559019088745,-0.5166014432907105,0.6516808271408081,0.4718395471572876,-0.8433353900909424,-1.8000365495681763,2.93320631980896,-0.4811135530471802,1.7821435928344727,-4.721835136413574,1.5532585382461548,4.8757429122924809,3.4766597747802736,-3.973527431488037,0.053279101848602298,-2.1255884170532228,1.743664264678955,-2.3139731884002687,-3.693173408508301,2.8462162017822267,0.14439141750335694,-2.6792891025543215,-4.128873348236084,2.5883595943450929,-1.9289522171020508,-3.044147491455078,3.942613124847412,-3.7739686965942385,3.745370388031006,0.41562896966934206,1.1643574237823487,2.134552240371704,-1.5247644186019898,-4.516164302825928,-3.994622230529785,1.9837431907653809,3.4791553020477297,-1.6933469772338868,-3.407942771911621,-3.650966167449951,-2.7311432361602785,0.6209973096847534,-2.4093017578125,0.4556725323200226,1.0617783069610596,3.254868507385254,2.853475570678711,-1.3376975059509278,3.909973621368408,-4.691901206970215,-0.42654848098754885,4.675321578979492,3.5131945610046388,-0.33161893486976626,1.121817708015442,-2.896580696105957,-3.4696192741394045,3.934593439102173,-4.755471229553223,4.370151519775391,-0.42022278904914858,4.125146389007568,1.8378880023956299,4.642160415649414,1.2076743841171265,-3.0437841415405275,-2.272143840789795,-1.4081522226333619,-3.165860176086426,-1.217022180557251,-0.1863791048526764,-1.1038647890090943,1.497225284576416,2.05989933013916],"l_hidden2OutputLayerWeights":[-4.608676910400391,-3.270216464996338,-0.8515865802764893,2.338984489440918,-4.65931510925293,4.3239922523498539,1.0526814460754395,2.8204379081726076,-2.485692024230957,1.4928432703018189,2.187377691268921,1.3980380296707154,0.040777385234832767,3.913740873336792,-4.478053092956543,3.8123018741607668,2.3917315006256105,-3.472252607345581,-2.936851739883423,-1.5191659927368165,-2.155519485473633,4.087036609649658],"l_hiddenLayersNeuronsBias":[0.0,0.0,0.0,0.0,0.0,0.0,0.0,0.0,0.0,0.0,0.0]},{"i_score":42,"l_input2HiddenLayerWeights":[-0.995571494102478,2.101194143295288,1.6928398609161378,-1.170682430267334,1.5913125276565552,4.374020576477051,2.98854398727417,4.5778422355651859,-4.176122188568115,2.5596494674682619,5.0,1.2476857900619507,1.2288235425949097,1.7153041362762452,1.689976692199707,-2.447047233581543,0.0012453794479370118,4.399003982543945,-0.21439304947853089,-1.5642863512039185,-3.621657371520996,3.3921384811401369,2.008855104446411,-0.291233628988266,-1.0138989686965943,-4.686446666717529,-0.6787652969360352,-0.9209662675857544,-0.2553926408290863,1.5902926921844483,-0.129465252161026,1.4287680387496949,-4.118228912353516,1.66550612449646,-1.5061664581298829,-0.24333229660987855,-0.147131085395813,1.9915918111801148,-1.197245717048645,5.0,-3.7201647758483888,-0.958889365196228,-2.2001936435699465,0.251708984375,4.424332141876221,-4.358983993530273,4.443223476409912,-5.0,-0.2565678358078003,-0.0017014741897583008,-0.5433257818222046,1.830578327178955,-1.4917188882827759,-2.709186553955078,0.4603022634983063,4.107892990112305,-3.977220058441162,2.25644850730896,4.093748092651367,4.0674824714660648,-2.510157823562622,0.013167083263397217,-1.7969999313354493,0.12213987857103348,-2.2027060985565187,-4.046792030334473,4.361555576324463,1.2633823156356812,-2.0600967407226564,-3.8323798179626467,2.7441563606262209,-1.9683642387390137,-3.121309280395508,3.304443597793579,-2.7850124835968019,3.06461238861084,-0.38097235560417178,1.1882438659667969,2.5519485473632814,-1.6053625345230103,-5.0,-3.918450355529785,2.763658285140991,2.6332573890686037,-1.0397220849990845,-3.762944221496582,-3.766648292541504,-2.2262210845947267,-0.6532644033432007,-2.6234917640686037,0.4976843297481537,1.3880771398544312,2.8267016410827638,3.2583231925964357,-2.650449514389038,2.9684104919433595,-4.7550950050354,-0.5370105504989624,4.071323394775391,3.1355161666870119,-1.2110041379928589,1.9702081680297852,-0.6989045143127441,-1.839369535446167,3.6577188968658449,-4.486780166625977,5.0,-0.7360925674438477,4.0929951667785648,2.359560012817383,4.0239105224609379,0.8701761960983276,-2.964341402053833,-1.4199175834655762,-0.8354036808013916,-1.6969558000564576,-1.0317646265029908,1.0909929275512696,-1.496554970741272,1.0817614793777466,2.7823069095611574],"l_hidden2OutputLayerWeights":[-5.0,-3.4915881156921388,-0.8800280094146729,2.4275269508361818,-4.999731540679932,3.6073923110961916,1.3300020694732667,1.5517672300338746,-0.8095297813415527,1.191734790802002,1.997001051902771,0.8298041820526123,0.23372027277946473,4.920219421386719,-3.5576839447021486,4.583645343780518,2.181934356689453,-2.585484027862549,-1.8138940334320069,-1.6193538904190064,-2.6003222465515138,-2.071667432785034],"l_hiddenLayersNeuronsBias":[0.0,0.0,0.0,0.0,0.0,0.0,0.0,0.0,0.0,0.0,0.0]},{"i_score":42,"l_input2HiddenLayerWeights":[1.0600979328155518,2.5402932167053224,1.442267894744873,-0.9262645244598389,0.33867835998535159,3.9808106422424318,3.155226945877075,4.728211402893066,-4.879556179046631,3.7355854511260988,5.0,1.3408408164978028,1.5637352466583253,1.0799461603164673,-0.10140478610992432,-2.345022201538086,0.5464434623718262,3.57878041267395,3.552549362182617,-1.8795808553695679,-2.914452314376831,3.310028553009033,1.6954182386398316,0.5666652917861939,-2.741941213607788,-4.7937493324279789,-1.8877052068710328,-0.45263147354125979,-0.21641358733177186,2.9299731254577638,0.33600902557373049,3.9122140407562258,-4.0886006355285648,1.1689354181289673,-2.4279627799987795,-0.22107183933258058,-0.515687108039856,2.453094720840454,-0.9370882511138916,5.0,-3.842899799346924,-1.225414752960205,-1.8587368726730347,0.04303598403930664,4.757697582244873,-3.9341232776641847,3.752786159515381,-3.251559019088745,-1.8864442110061646,0.6516808271408081,0.32784411311149599,-0.6755346059799194,-1.2259713411331177,2.871124744415283,-0.008642107248306275,1.9955179691314698,-4.735891819000244,2.7024166584014894,4.38333797454834,3.3418707847595217,-4.216572284698486,-0.19620949029922486,-2.414156198501587,-0.06350021809339524,-2.2545812129974367,-4.2144975662231449,-0.6528329849243164,1.0212616920471192,-1.6987098455429078,-4.576869487762451,2.249586582183838,-0.5819116830825806,-3.044147491455078,3.942613124847412,-2.3667714595794679,3.421339988708496,-0.5406073331832886,-0.22152772545814515,2.387352228164673,-1.5247644186019898,-4.126493453979492,-3.6238346099853517,2.1696362495422365,3.4791553020477297,-1.6933469772338868,-1.4730473756790162,2.827374219894409,-2.2516090869903566,-0.21922138333320619,-2.2043347358703615,0.942511796951294,0.8399723768234253,3.254868507385254,3.2960972785949709,-2.0031685829162599,2.6727750301361086,-4.4315595626831059,-1.3506602048873902,4.803896427154541,2.9228014945983888,-1.2276272773742676,1.9241641759872437,-1.3989720344543458,-3.340282440185547,4.027047634124756,-4.586309909820557,4.5254364013671879,-0.9567815065383911,4.379665374755859,0.30526256561279299,4.114871025085449,1.2076743841171265,-3.376559257507324,-2.8037710189819338,-0.351572185754776,-2.1400022506713869,3.540180206298828,1.7149152755737305,-1.4221543073654175,-0.27571025490760805,2.5283854007720949],"l_hidden2OutputLayerWeights":[-4.233054161071777,-3.270216464996338,-0.8515865802764893,3.080029010772705,-5.0,3.569566249847412,1.0526814460754395,2.9655356407165529,-1.938214659690857,1.1422141790390015,2.3823883533477785,1.727917194366455,-0.3294469714164734,4.2821760177612309,-3.348334550857544,4.540647506713867,2.403865337371826,-2.439995050430298,-2.5769505500793459,-2.083707094192505,-1.571548581123352,-3.001600503921509],"l_hiddenLayersNeuronsBias":[0.0,0.0,0.0,0.0,0.0,0.0,0.0,0.0,0.0,0.0,0.0]},{"i_score":42,"l_input2HiddenLayerWeights":[0.8842262029647827,2.5402932167053224,1.600056529045105,-1.3530824184417725,0.9694342613220215,3.513885498046875,2.96709942817688,2.5558297634124758,-4.544103622436523,3.6985974311828615,5.0,0.13197621703147889,2.431849479675293,0.48832598328590395,0.48792457580566409,-1.4177645444869996,1.2113293409347535,4.479129791259766,4.177242279052734,-0.5941799283027649,-3.66003155708313,3.5857765674591066,2.4142005443573,0.20032310485839845,-2.741941213607788,-3.3925063610076906,-2.1546099185943605,-0.3018891513347626,-2.5722036361694338,0.42538121342658999,0.7514340877532959,4.073247909545898,-4.511950492858887,1.357146143913269,-3.4483835697174074,-0.22107183933258058,-0.4871106445789337,2.453094720840454,-0.48144689202308657,4.494662284851074,-4.629136085510254,-1.294950008392334,-2.1258037090301515,1.3106297254562379,4.471035003662109,-1.149756669998169,4.170696258544922,-3.2321841716766359,-1.9232937097549439,0.9546216130256653,0.19971191883087159,-0.27197468280792239,0.10582631826400757,-2.019670009613037,-0.4811135530471802,3.4731521606445314,-3.7418289184570314,2.210087299346924,4.9623003005981449,3.7840657234191896,-3.968202590942383,0.0661143958568573,-2.3141515254974367,0.18904805183410645,-1.7934761047363282,-3.6711907386779787,2.4982614517211916,-0.40120893716812136,-0.5754885673522949,-4.125765800476074,2.3620452880859377,-1.659184455871582,-3.3045036792755129,3.291828155517578,-2.3667714595794679,3.7407093048095705,0.6440850496292114,-1.1739131212234498,2.134552240371704,-0.20830944180488587,-5.0,-3.4454636573791506,3.195030927658081,2.3728086948394777,-1.0504570007324219,-4.6587700843811039,-3.2900466918945314,-2.7311432361602785,-0.04006710648536682,-2.8712120056152345,0.18789184093475343,0.8131623268127441,3.124399423599243,3.2960972785949709,-1.2900855541229249,3.8948974609375,-4.455268859863281,-1.7597167491912842,4.88780403137207,2.9228014945983888,-0.33161893486976626,1.9241641759872437,0.46944379806518557,-1.941988468170166,2.770578145980835,-5.0,3.334265947341919,-1.0698500871658326,4.5500102043151859,0.050066351890563968,3.827237844467163,1.6877697706222535,-3.362457275390625,-2.1492981910705568,-1.5090832710266114,-0.5864003896713257,-1.4059817790985108,-0.3066366910934448,-1.4603029489517213,-0.27571025490760805,1.3460357189178467],"l_hidden2OutputLayerWeights":[-4.090723037719727,-3.2457451820373537,-1.0436116456985474,2.218268394470215,-4.669559478759766,4.445040225982666,1.0526814460754395,-1.7711329460144044,-2.485692024230957,1.8189282417297364,2.3823883533477785,1.7943059206008912,-0.4320526719093323,3.5099852085113527,-4.027504920959473,3.7515859603881838,2.3917315006256105,-2.439995050430298,-1.9610756635665894,-2.045050621032715,-1.6725205183029175,4.8974809646606449],"l_hiddenLayersNeuronsBias":[0.0,0.0,0.0,0.0,0.0,0.0,0.0,0.0,0.0,0.0,0.0]},{"i_score":42,"l_input2HiddenLayerWeights":[-0.5572865605354309,3.709148645401001,0.9387754201889038,-2.9226322174072267,0.2677271366119385,4.119429111480713,2.3432226181030275,2.779810905456543,-4.793365478515625,3.757298231124878,4.47155237197876,0.657823920249939,1.6785569190979005,1.921114444732666,0.9042643308639526,-1.3042346239089966,1.5766521692276,3.811225175857544,3.957529067993164,-2.8072590827941896,-3.3289237022399904,1.941264271736145,1.9425125122070313,-0.7533526420593262,-1.3409631252288819,-4.9631667137146,-0.3535413146018982,-0.8073298931121826,-1.0388281345367432,1.9596326351165772,0.49789881706237795,3.1187713146209719,-5.0,1.690803050994873,-3.1995558738708498,-0.12844622135162354,-0.6979347467422485,1.621168613433838,-1.2183645963668824,4.40333366394043,-3.2614870071411135,0.35600587725639346,-1.8884868621826172,0.7839304208755493,4.270885944366455,-4.044426441192627,4.2769269943237309,-4.528497219085693,-0.3455289900302887,-0.2798384726047516,-1.20290207862854,0.06372863054275513,-1.76749587059021,-3.0384981632232668,-0.2667559087276459,1.5843595266342164,-2.8002073764801027,2.708010673522949,5.0,3.328889846801758,-4.0861735343933109,-0.15486112236976624,-2.993537187576294,1.785305142402649,0.30068114399909975,-3.3962795734405519,3.5527405738830568,-0.38760483264923098,-1.3702120780944825,-3.7083663940429689,1.9093838930130005,0.5173542499542236,-3.8343358039855959,4.301278591156006,-4.16396951675415,4.408942222595215,0.19164597988128663,0.13842758536338807,3.784186363220215,-2.0851895809173586,-3.855984687805176,-3.0373544692993166,2.163524627685547,2.1492114067077638,-0.14533737301826478,-2.2166385650634767,-3.1947410106658937,-2.209228992462158,0.18290168046951295,-2.5595598220825197,-0.2835061550140381,0.08842909336090088,3.0962281227111818,2.9484646320343019,-0.9167909026145935,2.9563965797424318,-4.679652690887451,-1.5976839065551758,4.260045051574707,4.2074151039123539,-0.4367504417896271,1.8083049058914185,-2.933223009109497,-1.7897206544876099,4.216980457305908,-4.192374229431152,3.9501965045928957,-0.3625202775001526,4.619894504547119,1.8629679679870606,4.485867500305176,1.6280529499053956,-3.377438545227051,-2.225594997406006,-0.533606767654419,-4.274104118347168,-2.939857006072998,-0.2844489812850952,-1.5617226362228394,1.9065570831298829,1.4793055057525635],"l_hidden2OutputLayerWeights":[-3.1877002716064455,-4.094047546386719,0.28090164065361025,3.21580171585083,-4.554069519042969,3.8560450077056886,3.6748151779174806,2.035292148590088,-0.7775452136993408,1.7134814262390137,-0.059849709272384647,2.2294046878814699,0.005793452262878418,3.665086030960083,-3.6324472427368166,3.714107036590576,2.635058641433716,-3.5895040035247804,-2.999842643737793,-2.2739546298980715,-1.3551100492477418,-3.7494821548461916],"l_hiddenLayersNeuronsBias":[0.0,0.0,0.0,0.0,0.0,0.0,0.0,0.0,0.0,0.0,0.0]},{"i_score":42,"l_input2HiddenLayerWeights":[-1.5365707874298096,1.896913766860962,2.4345569610595705,-1.2852556705474854,0.18046772480010987,4.2011895179748539,3.368242025375366,2.509307622909546,-4.057875156402588,3.2159264087677,4.895993232727051,-0.3032870292663574,1.0531442165374756,0.9505534172058106,1.66196608543396,-2.318964958190918,1.1185927391052247,4.106180667877197,2.8673739433288576,-1.6291500329971314,-2.587296962738037,3.8211612701416017,1.1444064378738404,0.8805373907089233,-1.753053069114685,-5.0,-0.7332895994186401,-0.831344485282898,-2.0156469345092775,2.5676777362823488,0.7043552398681641,3.633044481277466,-4.868727684020996,0.22819435596466065,-3.6317033767700197,-0.7763558626174927,-0.8183162212371826,2.000126838684082,-2.4327597618103029,4.965770721435547,-4.609334945678711,0.2986353933811188,-1.5199133157730103,-2.189187526702881,4.741903305053711,-3.6248257160186769,3.839695453643799,-3.5888521671295168,-1.5082027912139893,0.7214357256889343,0.14089235663414002,-1.2049007415771485,-0.9784761667251587,3.104975700378418,-0.20885717868804933,1.9245429039001465,-3.6106977462768556,1.9520546197891236,4.492660999298096,3.52553653717041,-3.0130186080932619,0.7074978351593018,-2.8100547790527345,-0.45704206824302676,-1.546393632888794,-4.554531574249268,4.4908928871154789,0.974068284034729,-1.2101683616638184,-4.106150150299072,2.2019529342651369,-1.5188692808151246,-1.6461113691329957,1.0960179567337037,-3.3831145763397219,4.649300575256348,-1.4195384979248047,-0.7043481469154358,1.4291746616363526,-0.5575498342514038,-4.586369037628174,-4.087179183959961,2.792665958404541,3.8180606365203859,-1.130435824394226,-2.398947238922119,-4.016398906707764,-2.9006454944610597,0.1317027509212494,-2.996042013168335,0.9299799799919128,0.48734021186828616,2.9686179161071779,2.607363700866699,-1.0780091285705567,3.9290356636047365,-4.157958030700684,-1.506898045539856,4.540491104125977,2.5263078212738039,1.3674414157867432,2.300900936126709,-0.9212480783462524,-2.225111961364746,3.310774087905884,-5.0,4.496222019195557,-1.578564167022705,3.828200578689575,3.8026981353759767,4.574191093444824,1.7805194854736329,-3.5141210556030275,-2.2014100551605226,-1.5153335332870484,-0.28553131222724917,-1.3819701671600342,0.7223895788192749,-1.4464895725250245,-0.9331042766571045,2.0737595558166506],"l_hidden2OutputLayerWeights":[-4.183046817779541,-2.6506543159484865,-0.9659029245376587,1.8751802444458008,-5.0,4.034471035003662,3.7524893283843996,-1.4202805757522584,-2.9437448978424074,0.10724935680627823,2.309706926345825,1.6281548738479615,0.11562269181013107,4.283245086669922,-3.963364362716675,4.810444355010986,1.5776572227478028,-3.3175911903381349,-3.1501893997192385,-1.600852370262146,-1.9418140649795533,-4.644499778747559],"l_hiddenLayersNeuronsBias":[0.0,0.0,0.0,0.0,0.0,0.0,0.0,0.0,0.0,0.0,0.0]},{"i_score":42,"l_input2HiddenLayerWeights":[0.06164830923080444,2.846282958984375,1.3782622814178467,-2.1748595237731935,0.33867835998535159,3.9808106422424318,3.6800858974456789,3.4667258262634279,-5.0,3.9134163856506349,5.0,0.8877359628677368,2.6181960105895998,2.308964252471924,1.1895512342453004,-0.9326356649398804,1.3513675928115845,5.0,4.015642166137695,-1.8795808553695679,-2.6187644004821779,2.890591621398926,2.168388843536377,0.6749011278152466,-2.0083484649658205,-4.32073974609375,-1.2676677703857422,0.8057687282562256,-1.6945652961730958,2.649240732192993,0.9898152351379395,3.624368667602539,-4.0886006355285648,1.194997787475586,-3.0544986724853517,0.38267743587493899,-0.1316070854663849,2.407250165939331,-0.48144689202308657,4.808868408203125,-3.501981735229492,-1.225414752960205,-2.491652727127075,0.04303598403930664,4.757697582244873,-3.8051493167877199,3.746112823486328,-3.251559019088745,-0.5166014432907105,0.6516808271408081,0.4718395471572876,-0.8433353900909424,-1.8000365495681763,2.93320631980896,-0.4811135530471802,1.7821435928344727,-4.721835136413574,1.5532585382461548,4.8757429122924809,3.4766597747802736,-3.973527431488037,0.053279101848602298,-2.1255884170532228,1.743664264678955,-2.3139731884002687,-3.693173408508301,2.8462162017822267,0.14439141750335694,-2.6792891025543215,-4.128873348236084,2.5883595943450929,-1.9289522171020508,-3.044147491455078,3.942613124847412,-3.7739686965942385,3.745370388031006,0.41562896966934206,1.1643574237823487,2.134552240371704,-1.5247644186019898,-4.516164302825928,-3.994622230529785,1.9837431907653809,3.4791553020477297,-1.6933469772338868,-3.407942771911621,-3.650966167449951,-2.7311432361602785,0.6209973096847534,-2.4093017578125,0.4556725323200226,1.0617783069610596,3.254868507385254,2.853475570678711,-1.3376975059509278,3.909973621368408,-4.691901206970215,-0.42654848098754885,4.675321578979492,3.5131945610046388,-0.33161893486976626,1.121817708015442,-2.896580696105957,-3.4696192741394045,3.934593439102173,-4.755471229553223,4.370151519775391,-0.42022278904914858,4.125146389007568,1.8378880023956299,4.642160415649414,1.2076743841171265,-3.0437841415405275,-2.272143840789795,-1.4081522226333619,-3.165860176086426,-1.217022180557251,-0.1863791048526764,-1.1038647890090943,1.497225284576416,2.05989933013916],"l_hidden2OutputLayerWeights":[-4.608676910400391,-3.270216464996338,-0.8515865802764893,2.338984489440918,-4.65931510925293,4.3239922523498539,1.0526814460754395,2.8204379081726076,-2.485692024230957,1.4928432703018189,2.187377691268921,1.3980380296707154,0.040777385234832767,3.913740873336792,-4.478053092956543,3.8123018741607668,2.3917315006256105,-3.472252607345581,-2.936851739883423,-1.5191659927368165,-2.155519485473633,4.087036609649658],"l_hiddenLayersNeuronsBias":[0.0,0.0,0.0,0.0,0.0,0.0,0.0,0.0,0.0,0.0,0.0]},{"i_score":42,"l_input2HiddenLayerWeights":[-0.995571494102478,2.101194143295288,1.6928398609161378,-1.170682430267334,1.5913125276565552,4.374020576477051,2.98854398727417,4.5778422355651859,-4.176122188568115,2.5596494674682619,5.0,1.2476857900619507,1.2288235425949097,1.7153041362762452,1.689976692199707,-2.447047233581543,0.0012453794479370118,4.399003982543945,-0.21439304947853089,-1.5642863512039185,-3.621657371520996,3.3921384811401369,2.008855104446411,-0.291233628988266,-1.0138989686965943,-4.686446666717529,-0.6787652969360352,-0.9209662675857544,-0.2553926408290863,1.5902926921844483,-0.129465252161026,1.4287680387496949,-4.118228912353516,1.66550612449646,-1.5061664581298829,-0.24333229660987855,-0.147131085395813,1.9915918111801148,-1.197245717048645,5.0,-3.7201647758483888,-0.958889365196228,-2.2001936435699465,0.251708984375,4.424332141876221,-4.358983993530273,4.443223476409912,-5.0,-0.2565678358078003,-0.0017014741897583008,-0.5433257818222046,1.830578327178955,-1.4917188882827759,-2.709186553955078,0.4603022634983063,4.107892990112305,-3.977220058441162,2.25644850730896,4.093748092651367,4.0674824714660648,-2.510157823562622,0.013167083263397217,-1.7969999313354493,0.12213987857103348,-2.2027060985565187,-4.046792030334473,4.361555576324463,1.2633823156356812,-2.0600967407226564,-3.8323798179626467,2.7441563606262209,-1.9683642387390137,-3.121309280395508,3.304443597793579,-2.7850124835968019,3.06461238861084,-0.38097235560417178,1.1882438659667969,2.5519485473632814,-1.6053625345230103,-5.0,-3.918450355529785,2.763658285140991,2.6332573890686037,-1.0397220849990845,-3.762944221496582,-3.766648292541504,-2.2262210845947267,-0.6532644033432007,-2.6234917640686037,0.4976843297481537,1.3880771398544312,2.8267016410827638,3.2583231925964357,-2.650449514389038,2.9684104919433595,-4.7550950050354,-0.5370105504989624,4.071323394775391,3.1355161666870119,-1.2110041379928589,1.9702081680297852,-0.6989045143127441,-1.839369535446167,3.6577188968658449,-4.486780166625977,5.0,-0.7360925674438477,4.0929951667785648,2.359560012817383,4.0239105224609379,0.8701761960983276,-2.964341402053833,-1.4199175834655762,-0.8354036808013916,-1.6969558000564576,-1.0317646265029908,1.0909929275512696,-1.496554970741272,1.0817614793777466,2.7823069095611574],"l_hidden2OutputLayerWeights":[-5.0,-3.4915881156921388,-0.8800280094146729,2.4275269508361818,-4.999731540679932,3.6073923110961916,1.3300020694732667,1.5517672300338746,-0.8095297813415527,1.191734790802002,1.997001051902771,0.8298041820526123,0.23372027277946473,4.920219421386719,-3.5576839447021486,4.583645343780518,2.181934356689453,-2.585484027862549,-1.8138940334320069,-1.6193538904190064,-2.6003222465515138,-2.071667432785034],"l_hiddenLayersNeuronsBias":[0.0,0.0,0.0,0.0,0.0,0.0,0.0,0.0,0.0,0.0,0.0]},{"i_score":42,"l_input2HiddenLayerWeights":[1.0600979328155518,2.5402932167053224,1.442267894744873,-0.9262645244598389,0.33867835998535159,3.9808106422424318,3.155226945877075,4.728211402893066,-4.879556179046631,3.7355854511260988,5.0,1.3408408164978028,1.5637352466583253,1.0799461603164673,-0.10140478610992432,-2.345022201538086,0.5464434623718262,3.57878041267395,3.552549362182617,-1.8795808553695679,-2.914452314376831,3.310028553009033,1.6954182386398316,0.5666652917861939,-2.741941213607788,-4.7937493324279789,-1.8877052068710328,-0.45263147354125979,-0.21641358733177186,2.9299731254577638,0.33600902557373049,3.9122140407562258,-4.0886006355285648,1.1689354181289673,-2.4279627799987795,-0.22107183933258058,-0.515687108039856,2.453094720840454,-0.9370882511138916,5.0,-3.842899799346924,-1.225414752960205,-1.8587368726730347,0.04303598403930664,4.757697582244873,-3.9341232776641847,3.752786159515381,-3.251559019088745,-1.8864442110061646,0.6516808271408081,0.32784411311149599,-0.6755346059799194,-1.2259713411331177,2.871124744415283,-0.008642107248306275,1.9955179691314698,-4.735891819000244,2.7024166584014894,4.38333797454834,3.3418707847595217,-4.216572284698486,-0.19620949029922486,-2.414156198501587,-0.06350021809339524,-2.2545812129974367,-4.2144975662231449,-0.6528329849243164,1.0212616920471192,-1.6987098455429078,-4.576869487762451,2.249586582183838,-0.5819116830825806,-3.044147491455078,3.942613124847412,-2.3667714595794679,3.421339988708496,-0.5406073331832886,-0.22152772545814515,2.387352228164673,-1.5247644186019898,-4.126493453979492,-3.6238346099853517,2.1696362495422365,3.4791553020477297,-1.6933469772338868,-1.4730473756790162,2.827374219894409,-2.2516090869903566,-0.21922138333320619,-2.2043347358703615,0.942511796951294,0.8399723768234253,3.254868507385254,3.2960972785949709,-2.0031685829162599,2.6727750301361086,-4.4315595626831059,-1.3506602048873902,4.803896427154541,2.9228014945983888,-1.2276272773742676,1.9241641759872437,-1.3989720344543458,-3.340282440185547,4.027047634124756,-4.586309909820557,4.5254364013671879,-0.9567815065383911,4.379665374755859,0.30526256561279299,4.114871025085449,1.2076743841171265,-3.376559257507324,-2.8037710189819338,-0.351572185754776,-2.1400022506713869,3.540180206298828,1.7149152755737305,-1.4221543073654175,-0.27571025490760805,2.5283854007720949],"l_hidden2OutputLayerWeights":[-4.233054161071777,-3.270216464996338,-0.8515865802764893,3.080029010772705,-5.0,3.569566249847412,1.0526814460754395,2.9655356407165529,-1.938214659690857,1.1422141790390015,2.3823883533477785,1.727917194366455,-0.3294469714164734,4.2821760177612309,-3.348334550857544,4.540647506713867,2.403865337371826,-2.439995050430298,-2.5769505500793459,-2.083707094192505,-1.571548581123352,-3.001600503921509],"l_hiddenLayersNeuronsBias":[0.0,0.0,0.0,0.0,0.0,0.0,0.0,0.0,0.0,0.0,0.0]},{"i_score":42,"l_input2HiddenLayerWeights":[0.8842262029647827,2.5402932167053224,1.600056529045105,-1.3530824184417725,0.9694342613220215,3.513885498046875,2.96709942817688,2.5558297634124758,-4.544103622436523,3.6985974311828615,5.0,0.13197621703147889,2.431849479675293,0.48832598328590395,0.48792457580566409,-1.4177645444869996,1.2113293409347535,4.479129791259766,4.177242279052734,-0.5941799283027649,-3.66003155708313,3.5857765674591066,2.4142005443573,0.20032310485839845,-2.741941213607788,-3.3925063610076906,-2.1546099185943605,-0.3018891513347626,-2.5722036361694338,0.42538121342658999,0.7514340877532959,4.073247909545898,-4.511950492858887,1.357146143913269,-3.4483835697174074,-0.22107183933258058,-0.4871106445789337,2.453094720840454,-0.48144689202308657,4.494662284851074,-4.629136085510254,-1.294950008392334,-2.1258037090301515,1.3106297254562379,4.471035003662109,-1.149756669998169,4.170696258544922,-3.2321841716766359,-1.9232937097549439,0.9546216130256653,0.19971191883087159,-0.27197468280792239,0.10582631826400757,-2.019670009613037,-0.4811135530471802,3.4731521606445314,-3.7418289184570314,2.210087299346924,4.9623003005981449,3.7840657234191896,-3.968202590942383,0.0661143958568573,-2.3141515254974367,0.18904805183410645,-1.7934761047363282,-3.6711907386779787,2.4982614517211916,-0.40120893716812136,-0.5754885673522949,-4.125765800476074,2.3620452880859377,-1.659184455871582,-3.3045036792755129,3.291828155517578,-2.3667714595794679,3.7407093048095705,0.6440850496292114,-1.1739131212234498,2.134552240371704,-0.20830944180488587,-5.0,-3.4454636573791506,3.195030927658081,2.3728086948394777,-1.0504570007324219,-4.6587700843811039,-3.2900466918945314,-2.7311432361602785,-0.04006710648536682,-2.8712120056152345,0.18789184093475343,0.8131623268127441,3.124399423599243,3.2960972785949709,-1.2900855541229249,3.8948974609375,-4.455268859863281,-1.7597167491912842,4.88780403137207,2.9228014945983888,-0.33161893486976626,1.9241641759872437,0.46944379806518557,-1.941988468170166,2.770578145980835,-5.0,3.334265947341919,-1.0698500871658326,4.5500102043151859,0.050066351890563968,3.827237844467163,1.6877697706222535,-3.362457275390625,-2.1492981910705568,-1.5090832710266114,-0.5864003896713257,-1.4059817790985108,-0.3066366910934448,-1.4603029489517213,-0.27571025490760805,1.3460357189178467],"l_hidden2OutputLayerWeights":[-4.090723037719727,-3.2457451820373537,-1.0436116456985474,2.218268394470215,-4.669559478759766,4.445040225982666,1.0526814460754395,-1.7711329460144044,-2.485692024230957,1.8189282417297364,2.3823883533477785,1.7943059206008912,-0.4320526719093323,3.5099852085113527,-4.027504920959473,3.7515859603881838,2.3917315006256105,-2.439995050430298,-1.9610756635665894,-2.045050621032715,-1.6725205183029175,4.8974809646606449],"l_hiddenLayersNeuronsBias":[0.0,0.0,0.0,0.0,0.0,0.0,0.0,0.0,0.0,0.0,0.0]},{"i_score":42,"l_input2HiddenLayerWeights":[-0.5572865605354309,3.709148645401001,0.9387754201889038,-2.9226322174072267,0.2677271366119385,4.119429111480713,2.3432226181030275,2.779810905456543,-4.793365478515625,3.757298231124878,4.47155237197876,0.657823920249939,1.6785569190979005,1.921114444732666,0.9042643308639526,-1.3042346239089966,1.5766521692276,3.811225175857544,3.957529067993164,-2.8072590827941896,-3.3289237022399904,1.941264271736145,1.9425125122070313,-0.7533526420593262,-1.3409631252288819,-4.9631667137146,-0.3535413146018982,-0.8073298931121826,-1.0388281345367432,1.9596326351165772,0.49789881706237795,3.1187713146209719,-5.0,1.690803050994873,-3.1995558738708498,-0.12844622135162354,-0.6979347467422485,1.621168613433838,-1.2183645963668824,4.40333366394043,-3.2614870071411135,0.35600587725639346,-1.8884868621826172,0.7839304208755493,4.270885944366455,-4.044426441192627,4.2769269943237309,-4.528497219085693,-0.3455289900302887,-0.2798384726047516,-1.20290207862854,0.06372863054275513,-1.76749587059021,-3.0384981632232668,-0.2667559087276459,1.5843595266342164,-2.8002073764801027,2.708010673522949,5.0,3.328889846801758,-4.0861735343933109,-0.15486112236976624,-2.993537187576294,1.785305142402649,0.30068114399909975,-3.3962795734405519,3.5527405738830568,-0.38760483264923098,-1.3702120780944825,-3.7083663940429689,1.9093838930130005,0.5173542499542236,-3.8343358039855959,4.301278591156006,-4.16396951675415,4.408942222595215,0.19164597988128663,0.13842758536338807,3.784186363220215,-2.0851895809173586,-3.855984687805176,-3.0373544692993166,2.163524627685547,2.1492114067077638,-0.14533737301826478,-2.2166385650634767,-3.1947410106658937,-2.209228992462158,0.18290168046951295,-2.5595598220825197,-0.2835061550140381,0.08842909336090088,3.0962281227111818,2.9484646320343019,-0.9167909026145935,2.9563965797424318,-4.679652690887451,-1.5976839065551758,4.260045051574707,4.2074151039123539,-0.4367504417896271,1.8083049058914185,-2.933223009109497,-1.7897206544876099,4.216980457305908,-4.192374229431152,3.9501965045928957,-0.3625202775001526,4.619894504547119,1.8629679679870606,4.485867500305176,1.6280529499053956,-3.377438545227051,-2.225594997406006,-0.533606767654419,-4.274104118347168,-2.939857006072998,-0.2844489812850952,-1.5617226362228394,1.9065570831298829,1.4793055057525635],"l_hidden2OutputLayerWeights":[-3.1877002716064455,-4.094047546386719,0.28090164065361025,3.21580171585083,-4.554069519042969,3.8560450077056886,3.6748151779174806,2.035292148590088,-0.7775452136993408,1.7134814262390137,-0.059849709272384647,2.2294046878814699,0.005793452262878418,3.665086030960083,-3.6324472427368166,3.714107036590576,2.635058641433716,-3.5895040035247804,-2.999842643737793,-2.2739546298980715,-1.3551100492477418,-3.7494821548461916],"l_hiddenLayersNeuronsBias":[0.0,0.0,0.0,0.0,0.0,0.0,0.0,0.0,0.0,0.0,0.0]},{"i_score":42,"l_input2HiddenLayerWeights":[-1.5365707874298096,1.896913766860962,2.4345569610595705,-1.2852556705474854,0.18046772480010987,4.2011895179748539,3.368242025375366,2.509307622909546,-4.057875156402588,3.2159264087677,4.895993232727051,-0.3032870292663574,1.0531442165374756,0.9505534172058106,1.66196608543396,-2.318964958190918,1.1185927391052247,4.106180667877197,2.8673739433288576,-1.6291500329971314,-2.587296962738037,3.8211612701416017,1.1444064378738404,0.8805373907089233,-1.753053069114685,-5.0,-0.7332895994186401,-0.831344485282898,-2.0156469345092775,2.5676777362823488,0.7043552398681641,3.633044481277466,-4.868727684020996,0.22819435596466065,-3.6317033767700197,-0.7763558626174927,-0.8183162212371826,2.000126838684082,-2.4327597618103029,4.965770721435547,-4.609334945678711,0.2986353933811188,-1.5199133157730103,-2.189187526702881,4.741903305053711,-3.6248257160186769,3.839695453643799,-3.5888521671295168,-1.5082027912139893,0.7214357256889343,0.14089235663414002,-1.2049007415771485,-0.9784761667251587,3.104975700378418,-0.20885717868804933,1.9245429039001465,-3.6106977462768556,1.9520546197891236,4.492660999298096,3.52553653717041,-3.0130186080932619,0.7074978351593018,-2.8100547790527345,-0.45704206824302676,-1.546393632888794,-4.554531574249268,4.4908928871154789,0.974068284034729,-1.2101683616638184,-4.106150150299072,2.2019529342651369,-1.5188692808151246,-1.6461113691329957,1.0960179567337037,-3.3831145763397219,4.649300575256348,-1.4195384979248047,-0.7043481469154358,1.4291746616363526,-0.5575498342514038,-4.586369037628174,-4.087179183959961,2.792665958404541,3.8180606365203859,-1.130435824394226,-2.398947238922119,-4.016398906707764,-2.9006454944610597,0.1317027509212494,-2.996042013168335,0.9299799799919128,0.48734021186828616,2.9686179161071779,2.607363700866699,-1.0780091285705567,3.9290356636047365,-4.157958030700684,-1.506898045539856,4.540491104125977,2.5263078212738039,1.3674414157867432,2.300900936126709,-0.9212480783462524,-2.225111961364746,3.310774087905884,-5.0,4.496222019195557,-1.578564167022705,3.828200578689575,3.8026981353759767,4.574191093444824,1.7805194854736329,-3.5141210556030275,-2.2014100551605226,-1.5153335332870484,-0.28553131222724917,-1.3819701671600342,0.7223895788192749,-1.4464895725250245,-0.9331042766571045,2.0737595558166506],"l_hidden2OutputLayerWeights":[-4.183046817779541,-2.6506543159484865,-0.9659029245376587,1.8751802444458008,-5.0,4.034471035003662,3.7524893283843996,-1.4202805757522584,-2.9437448978424074,0.10724935680627823,2.309706926345825,1.6281548738479615,0.11562269181013107,4.283245086669922,-3.963364362716675,4.810444355010986,1.5776572227478028,-3.3175911903381349,-3.1501893997192385,-1.600852370262146,-1.9418140649795533,-4.644499778747559],"l_hiddenLayersNeuronsBias":[0.0,0.0,0.0,0.0,0.0,0.0,0.0,0.0,0.0,0.0,0.0]},{"i_score":42,"l_input2HiddenLayerWeights":[0.06164830923080444,2.846282958984375,1.3782622814178467,-2.1748595237731935,0.33867835998535159,3.9808106422424318,3.6800858974456789,3.4667258262634279,-5.0,3.9134163856506349,5.0,0.8877359628677368,2.6181960105895998,2.308964252471924,1.1895512342453004,-0.9326356649398804,1.3513675928115845,5.0,4.015642166137695,-1.8795808553695679,-2.6187644004821779,2.890591621398926,2.168388843536377,0.6749011278152466,-2.0083484649658205,-4.32073974609375,-1.2676677703857422,0.8057687282562256,-1.6945652961730958,2.649240732192993,0.9898152351379395,3.624368667602539,-4.0886006355285648,1.194997787475586,-3.0544986724853517,0.38267743587493899,-0.1316070854663849,2.407250165939331,-0.48144689202308657,4.808868408203125,-3.501981735229492,-1.225414752960205,-2.491652727127075,0.04303598403930664,4.757697582244873,-3.8051493167877199,3.746112823486328,-3.251559019088745,-0.5166014432907105,0.6516808271408081,0.4718395471572876,-0.8433353900909424,-1.8000365495681763,2.93320631980896,-0.4811135530471802,1.7821435928344727,-4.721835136413574,1.5532585382461548,4.8757429122924809,3.4766597747802736,-3.973527431488037,0.053279101848602298,-2.1255884170532228,1.743664264678955,-2.3139731884002687,-3.693173408508301,2.8462162017822267,0.14439141750335694,-2.6792891025543215,-4.128873348236084,2.5883595943450929,-1.9289522171020508,-3.044147491455078,3.942613124847412,-3.7739686965942385,3.745370388031006,0.41562896966934206,1.1643574237823487,2.134552240371704,-1.5247644186019898,-4.516164302825928,-3.994622230529785,1.9837431907653809,3.4791553020477297,-1.6933469772338868,-3.407942771911621,-3.650966167449951,-2.7311432361602785,0.6209973096847534,-2.4093017578125,0.4556725323200226,1.0617783069610596,3.254868507385254,2.853475570678711,-1.3376975059509278,3.909973621368408,-4.691901206970215,-0.42654848098754885,4.675321578979492,3.5131945610046388,-0.33161893486976626,1.121817708015442,-2.896580696105957,-3.4696192741394045,3.934593439102173,-4.755471229553223,4.370151519775391,-0.42022278904914858,4.125146389007568,1.8378880023956299,4.642160415649414,1.2076743841171265,-3.0437841415405275,-2.272143840789795,-1.4081522226333619,-3.165860176086426,-1.217022180557251,-0.1863791048526764,-1.1038647890090943,1.497225284576416,2.05989933013916],"l_hidden2OutputLayerWeights":[-4.608676910400391,-3.270216464996338,-0.8515865802764893,2.338984489440918,-4.65931510925293,4.3239922523498539,1.0526814460754395,2.8204379081726076,-2.485692024230957,1.4928432703018189,2.187377691268921,1.3980380296707154,0.040777385234832767,3.913740873336792,-4.478053092956543,3.8123018741607668,2.3917315006256105,-3.472252607345581,-2.936851739883423,-1.5191659927368165,-2.155519485473633,4.087036609649658],"l_hiddenLayersNeuronsBias":[0.0,0.0,0.0,0.0,0.0,0.0,0.0,0.0,0.0,0.0,0.0]},{"i_score":42,"l_input2HiddenLayerWeights":[-0.995571494102478,2.101194143295288,1.6928398609161378,-1.170682430267334,1.5913125276565552,4.374020576477051,2.98854398727417,4.5778422355651859,-4.176122188568115,2.5596494674682619,5.0,1.2476857900619507,1.2288235425949097,1.7153041362762452,1.689976692199707,-2.447047233581543,0.0012453794479370118,4.399003982543945,-0.21439304947853089,-1.5642863512039185,-3.621657371520996,3.3921384811401369,2.008855104446411,-0.291233628988266,-1.0138989686965943,-4.686446666717529,-0.6787652969360352,-0.9209662675857544,-0.2553926408290863,1.5902926921844483,-0.129465252161026,1.4287680387496949,-4.118228912353516,1.66550612449646,-1.5061664581298829,-0.24333229660987855,-0.147131085395813,1.9915918111801148,-1.197245717048645,5.0,-3.7201647758483888,-0.958889365196228,-2.2001936435699465,0.251708984375,4.424332141876221,-4.358983993530273,4.443223476409912,-5.0,-0.2565678358078003,-0.0017014741897583008,-0.5433257818222046,1.830578327178955,-1.4917188882827759,-2.709186553955078,0.4603022634983063,4.107892990112305,-3.977220058441162,2.25644850730896,4.093748092651367,4.0674824714660648,-2.510157823562622,0.013167083263397217,-1.7969999313354493,0.12213987857103348,-2.2027060985565187,-4.046792030334473,4.361555576324463,1.2633823156356812,-2.0600967407226564,-3.8323798179626467,2.7441563606262209,-1.9683642387390137,-3.121309280395508,3.304443597793579,-2.7850124835968019,3.06461238861084,-0.38097235560417178,1.1882438659667969,2.5519485473632814,-1.6053625345230103,-5.0,-3.918450355529785,2.763658285140991,2.6332573890686037,-1.0397220849990845,-3.762944221496582,-3.766648292541504,-2.2262210845947267,-0.6532644033432007,-2.6234917640686037,0.4976843297481537,1.3880771398544312,2.8267016410827638,3.2583231925964357,-2.650449514389038,2.9684104919433595,-4.7550950050354,-0.5370105504989624,4.071323394775391,3.1355161666870119,-1.2110041379928589,1.9702081680297852,-0.6989045143127441,-1.839369535446167,3.6577188968658449,-4.486780166625977,5.0,-0.7360925674438477,4.0929951667785648,2.359560012817383,4.0239105224609379,0.8701761960983276,-2.964341402053833,-1.4199175834655762,-0.8354036808013916,-1.6969558000564576,-1.0317646265029908,1.0909929275512696,-1.496554970741272,1.0817614793777466,2.7823069095611574],"l_hidden2OutputLayerWeights":[-5.0,-3.4915881156921388,-0.8800280094146729,2.4275269508361818,-4.999731540679932,3.6073923110961916,1.3300020694732667,1.5517672300338746,-0.8095297813415527,1.191734790802002,1.997001051902771,0.8298041820526123,0.23372027277946473,4.920219421386719,-3.5576839447021486,4.583645343780518,2.181934356689453,-2.585484027862549,-1.8138940334320069,-1.6193538904190064,-2.6003222465515138,-2.071667432785034],"l_hiddenLayersNeuronsBias":[0.0,0.0,0.0,0.0,0.0,0.0,0.0,0.0,0.0,0.0,0.0]},{"i_score":42,"l_input2HiddenLayerWeights":[1.0600979328155518,2.5402932167053224,1.442267894744873,-0.9262645244598389,0.33867835998535159,3.9808106422424318,3.155226945877075,4.728211402893066,-4.879556179046631,3.7355854511260988,5.0,1.3408408164978028,1.5637352466583253,1.0799461603164673,-0.10140478610992432,-2.345022201538086,0.5464434623718262,3.57878041267395,3.552549362182617,-1.8795808553695679,-2.914452314376831,3.310028553009033,1.6954182386398316,0.5666652917861939,-2.741941213607788,-4.7937493324279789,-1.8877052068710328,-0.45263147354125979,-0.21641358733177186,2.9299731254577638,0.33600902557373049,3.9122140407562258,-4.0886006355285648,1.1689354181289673,-2.4279627799987795,-0.22107183933258058,-0.515687108039856,2.453094720840454,-0.9370882511138916,5.0,-3.842899799346924,-1.225414752960205,-1.8587368726730347,0.04303598403930664,4.757697582244873,-3.9341232776641847,3.752786159515381,-3.251559019088745,-1.8864442110061646,0.6516808271408081,0.32784411311149599,-0.6755346059799194,-1.2259713411331177,2.871124744415283,-0.008642107248306275,1.9955179691314698,-4.735891819000244,2.7024166584014894,4.38333797454834,3.3418707847595217,-4.216572284698486,-0.19620949029922486,-2.414156198501587,-0.06350021809339524,-2.2545812129974367,-4.2144975662231449,-0.6528329849243164,1.0212616920471192,-1.6987098455429078,-4.576869487762451,2.249586582183838,-0.5819116830825806,-3.044147491455078,3.942613124847412,-2.3667714595794679,3.421339988708496,-0.5406073331832886,-0.22152772545814515,2.387352228164673,-1.5247644186019898,-4.126493453979492,-3.6238346099853517,2.1696362495422365,3.4791553020477297,-1.6933469772338868,-1.4730473756790162,2.827374219894409,-2.2516090869903566,-0.21922138333320619,-2.2043347358703615,0.942511796951294,0.8399723768234253,3.254868507385254,3.2960972785949709,-2.0031685829162599,2.6727750301361086,-4.4315595626831059,-1.3506602048873902,4.803896427154541,2.9228014945983888,-1.2276272773742676,1.9241641759872437,-1.3989720344543458,-3.340282440185547,4.027047634124756,-4.586309909820557,4.5254364013671879,-0.9567815065383911,4.379665374755859,0.30526256561279299,4.114871025085449,1.2076743841171265,-3.376559257507324,-2.8037710189819338,-0.351572185754776,-2.1400022506713869,3.540180206298828,1.7149152755737305,-1.4221543073654175,-0.27571025490760805,2.5283854007720949],"l_hidden2OutputLayerWeights":[-4.233054161071777,-3.270216464996338,-0.8515865802764893,3.080029010772705,-5.0,3.569566249847412,1.0526814460754395,2.9655356407165529,-1.938214659690857,1.1422141790390015,2.3823883533477785,1.727917194366455,-0.3294469714164734,4.2821760177612309,-3.348334550857544,4.540647506713867,2.403865337371826,-2.439995050430298,-2.5769505500793459,-2.083707094192505,-1.571548581123352,-3.001600503921509],"l_hiddenLayersNeuronsBias":[0.0,0.0,0.0,0.0,0.0,0.0,0.0,0.0,0.0,0.0,0.0]},{"i_score":42,"l_input2HiddenLayerWeights":[0.8842262029647827,2.5402932167053224,1.600056529045105,-1.3530824184417725,0.9694342613220215,3.513885498046875,2.96709942817688,2.5558297634124758,-4.544103622436523,3.6985974311828615,5.0,0.13197621703147889,2.431849479675293,0.48832598328590395,0.48792457580566409,-1.4177645444869996,1.2113293409347535,4.479129791259766,4.177242279052734,-0.5941799283027649,-3.66003155708313,3.5857765674591066,2.4142005443573,0.20032310485839845,-2.741941213607788,-3.3925063610076906,-2.1546099185943605,-0.3018891513347626,-2.5722036361694338,0.42538121342658999,0.7514340877532959,4.073247909545898,-4.511950492858887,1.357146143913269,-3.4483835697174074,-0.22107183933258058,-0.4871106445789337,2.453094720840454,-0.48144689202308657,4.494662284851074,-4.629136085510254,-1.294950008392334,-2.1258037090301515,1.3106297254562379,4.471035003662109,-1.149756669998169,4.170696258544922,-3.2321841716766359,-1.9232937097549439,0.9546216130256653,0.19971191883087159,-0.27197468280792239,0.10582631826400757,-2.019670009613037,-0.4811135530471802,3.4731521606445314,-3.7418289184570314,2.210087299346924,4.9623003005981449,3.7840657234191896,-3.968202590942383,0.0661143958568573,-2.3141515254974367,0.18904805183410645,-1.7934761047363282,-3.6711907386779787,2.4982614517211916,-0.40120893716812136,-0.5754885673522949,-4.125765800476074,2.3620452880859377,-1.659184455871582,-3.3045036792755129,3.291828155517578,-2.3667714595794679,3.7407093048095705,0.6440850496292114,-1.1739131212234498,2.134552240371704,-0.20830944180488587,-5.0,-3.4454636573791506,3.195030927658081,2.3728086948394777,-1.0504570007324219,-4.6587700843811039,-3.2900466918945314,-2.7311432361602785,-0.04006710648536682,-2.8712120056152345,0.18789184093475343,0.8131623268127441,3.124399423599243,3.2960972785949709,-1.2900855541229249,3.8948974609375,-4.455268859863281,-1.7597167491912842,4.88780403137207,2.9228014945983888,-0.33161893486976626,1.9241641759872437,0.46944379806518557,-1.941988468170166,2.770578145980835,-5.0,3.334265947341919,-1.0698500871658326,4.5500102043151859,0.050066351890563968,3.827237844467163,1.6877697706222535,-3.362457275390625,-2.1492981910705568,-1.5090832710266114,-0.5864003896713257,-1.4059817790985108,-0.3066366910934448,-1.4603029489517213,-0.27571025490760805,1.3460357189178467],"l_hidden2OutputLayerWeights":[-4.090723037719727,-3.2457451820373537,-1.0436116456985474,2.218268394470215,-4.669559478759766,4.445040225982666,1.0526814460754395,-1.7711329460144044,-2.485692024230957,1.8189282417297364,2.3823883533477785,1.7943059206008912,-0.4320526719093323,3.5099852085113527,-4.027504920959473,3.7515859603881838,2.3917315006256105,-2.439995050430298,-1.9610756635665894,-2.045050621032715,-1.6725205183029175,4.8974809646606449],"l_hiddenLayersNeuronsBias":[0.0,0.0,0.0,0.0,0.0,0.0,0.0,0.0,0.0,0.0,0.0]},{"i_score":42,"l_input2HiddenLayerWeights":[-0.5572865605354309,3.709148645401001,0.9387754201889038,-2.9226322174072267,0.2677271366119385,4.119429111480713,2.3432226181030275,2.779810905456543,-4.793365478515625,3.757298231124878,4.47155237197876,0.657823920249939,1.6785569190979005,1.921114444732666,0.9042643308639526,-1.3042346239089966,1.5766521692276,3.811225175857544,3.957529067993164,-2.8072590827941896,-3.3289237022399904,1.941264271736145,1.9425125122070313,-0.7533526420593262,-1.3409631252288819,-4.9631667137146,-0.3535413146018982,-0.8073298931121826,-1.0388281345367432,1.9596326351165772,0.49789881706237795,3.1187713146209719,-5.0,1.690803050994873,-3.1995558738708498,-0.12844622135162354,-0.6979347467422485,1.621168613433838,-1.2183645963668824,4.40333366394043,-3.2614870071411135,0.35600587725639346,-1.8884868621826172,0.7839304208755493,4.270885944366455,-4.044426441192627,4.2769269943237309,-4.528497219085693,-0.3455289900302887,-0.2798384726047516,-1.20290207862854,0.06372863054275513,-1.76749587059021,-3.0384981632232668,-0.2667559087276459,1.5843595266342164,-2.8002073764801027,2.708010673522949,5.0,3.328889846801758,-4.0861735343933109,-0.15486112236976624,-2.993537187576294,1.785305142402649,0.30068114399909975,-3.3962795734405519,3.5527405738830568,-0.38760483264923098,-1.3702120780944825,-3.7083663940429689,1.9093838930130005,0.5173542499542236,-3.8343358039855959,4.301278591156006,-4.16396951675415,4.408942222595215,0.19164597988128663,0.13842758536338807,3.784186363220215,-2.0851895809173586,-3.855984687805176,-3.0373544692993166,2.163524627685547,2.1492114067077638,-0.14533737301826478,-2.2166385650634767,-3.1947410106658937,-2.209228992462158,0.18290168046951295,-2.5595598220825197,-0.2835061550140381,0.08842909336090088,3.0962281227111818,2.9484646320343019,-0.9167909026145935,2.9563965797424318,-4.679652690887451,-1.5976839065551758,4.260045051574707,4.2074151039123539,-0.4367504417896271,1.8083049058914185,-2.933223009109497,-1.7897206544876099,4.216980457305908,-4.192374229431152,3.9501965045928957,-0.3625202775001526,4.619894504547119,1.8629679679870606,4.485867500305176,1.6280529499053956,-3.377438545227051,-2.225594997406006,-0.533606767654419,-4.274104118347168,-2.939857006072998,-0.2844489812850952,-1.5617226362228394,1.9065570831298829,1.4793055057525635],"l_hidden2OutputLayerWeights":[-3.1877002716064455,-4.094047546386719,0.28090164065361025,3.21580171585083,-4.554069519042969,3.8560450077056886,3.6748151779174806,2.035292148590088,-0.7775452136993408,1.7134814262390137,-0.059849709272384647,2.2294046878814699,0.005793452262878418,3.665086030960083,-3.6324472427368166,3.714107036590576,2.635058641433716,-3.5895040035247804,-2.999842643737793,-2.2739546298980715,-1.3551100492477418,-3.7494821548461916],"l_hiddenLayersNeuronsBias":[0.0,0.0,0.0,0.0,0.0,0.0,0.0,0.0,0.0,0.0,0.0]},{"i_score":42,"l_input2HiddenLayerWeights":[-1.5365707874298096,1.896913766860962,2.4345569610595705,-1.2852556705474854,0.18046772480010987,4.2011895179748539,3.368242025375366,2.509307622909546,-4.057875156402588,3.2159264087677,4.895993232727051,-0.3032870292663574,1.0531442165374756,0.9505534172058106,1.66196608543396,-2.318964958190918,1.1185927391052247,4.106180667877197,2.8673739433288576,-1.6291500329971314,-2.587296962738037,3.8211612701416017,1.1444064378738404,0.8805373907089233,-1.753053069114685,-5.0,-0.7332895994186401,-0.831344485282898,-2.0156469345092775,2.5676777362823488,0.7043552398681641,3.633044481277466,-4.868727684020996,0.22819435596466065,-3.6317033767700197,-0.7763558626174927,-0.8183162212371826,2.000126838684082,-2.4327597618103029,4.965770721435547,-4.609334945678711,0.2986353933811188,-1.5199133157730103,-2.189187526702881,4.741903305053711,-3.6248257160186769,3.839695453643799,-3.5888521671295168,-1.5082027912139893,0.7214357256889343,0.14089235663414002,-1.2049007415771485,-0.9784761667251587,3.104975700378418,-0.20885717868804933,1.9245429039001465,-3.6106977462768556,1.9520546197891236,4.492660999298096,3.52553653717041,-3.0130186080932619,0.7074978351593018,-2.8100547790527345,-0.45704206824302676,-1.546393632888794,-4.554531574249268,4.4908928871154789,0.974068284034729,-1.2101683616638184,-4.106150150299072,2.2019529342651369,-1.5188692808151246,-1.6461113691329957,1.0960179567337037,-3.3831145763397219,4.649300575256348,-1.4195384979248047,-0.7043481469154358,1.4291746616363526,-0.5575498342514038,-4.586369037628174,-4.087179183959961,2.792665958404541,3.8180606365203859,-1.130435824394226,-2.398947238922119,-4.016398906707764,-2.9006454944610597,0.1317027509212494,-2.996042013168335,0.9299799799919128,0.48734021186828616,2.9686179161071779,2.607363700866699,-1.0780091285705567,3.9290356636047365,-4.157958030700684,-1.506898045539856,4.540491104125977,2.5263078212738039,1.3674414157867432,2.300900936126709,-0.9212480783462524,-2.225111961364746,3.310774087905884,-5.0,4.496222019195557,-1.578564167022705,3.828200578689575,3.8026981353759767,4.574191093444824,1.7805194854736329,-3.5141210556030275,-2.2014100551605226,-1.5153335332870484,-0.28553131222724917,-1.3819701671600342,0.7223895788192749,-1.4464895725250245,-0.9331042766571045,2.0737595558166506],"l_hidden2OutputLayerWeights":[-4.183046817779541,-2.6506543159484865,-0.9659029245376587,1.8751802444458008,-5.0,4.034471035003662,3.7524893283843996,-1.4202805757522584,-2.9437448978424074,0.10724935680627823,2.309706926345825,1.6281548738479615,0.11562269181013107,4.283245086669922,-3.963364362716675,4.810444355010986,1.5776572227478028,-3.3175911903381349,-3.1501893997192385,-1.600852370262146,-1.9418140649795533,-4.644499778747559],"l_hiddenLayersNeuronsBias":[0.0,0.0,0.0,0.0,0.0,0.0,0.0,0.0,0.0,0.0,0.0]},{"i_score":42,"l_input2HiddenLayerWeights":[0.06164830923080444,2.846282958984375,1.3782622814178467,-2.1748595237731935,0.33867835998535159,3.9808106422424318,3.6800858974456789,3.4667258262634279,-5.0,3.9134163856506349,5.0,0.8877359628677368,2.6181960105895998,2.308964252471924,1.1895512342453004,-0.9326356649398804,1.3513675928115845,5.0,4.015642166137695,-1.8795808553695679,-2.6187644004821779,2.890591621398926,2.168388843536377,0.6749011278152466,-2.0083484649658205,-4.32073974609375,-1.2676677703857422,0.8057687282562256,-1.6945652961730958,2.649240732192993,0.9898152351379395,3.624368667602539,-4.0886006355285648,1.194997787475586,-3.0544986724853517,0.38267743587493899,-0.1316070854663849,2.407250165939331,-0.48144689202308657,4.808868408203125,-3.501981735229492,-1.225414752960205,-2.491652727127075,0.04303598403930664,4.757697582244873,-3.8051493167877199,3.746112823486328,-3.251559019088745,-0.5166014432907105,0.6516808271408081,0.4718395471572876,-0.8433353900909424,-1.8000365495681763,2.93320631980896,-0.4811135530471802,1.7821435928344727,-4.721835136413574,1.5532585382461548,4.8757429122924809,3.4766597747802736,-3.973527431488037,0.053279101848602298,-2.1255884170532228,1.743664264678955,-2.3139731884002687,-3.693173408508301,2.8462162017822267,0.14439141750335694,-2.6792891025543215,-4.128873348236084,2.5883595943450929,-1.9289522171020508,-3.044147491455078,3.942613124847412,-3.7739686965942385,3.745370388031006,0.41562896966934206,1.1643574237823487,2.134552240371704,-1.5247644186019898,-4.516164302825928,-3.994622230529785,1.9837431907653809,3.4791553020477297,-1.6933469772338868,-3.407942771911621,-3.650966167449951,-2.7311432361602785,0.6209973096847534,-2.4093017578125,0.4556725323200226,1.0617783069610596,3.254868507385254,2.853475570678711,-1.3376975059509278,3.909973621368408,-4.691901206970215,-0.42654848098754885,4.675321578979492,3.5131945610046388,-0.33161893486976626,1.121817708015442,-2.896580696105957,-3.4696192741394045,3.934593439102173,-4.755471229553223,4.370151519775391,-0.42022278904914858,4.125146389007568,1.8378880023956299,4.642160415649414,1.2076743841171265,-3.0437841415405275,-2.272143840789795,-1.4081522226333619,-3.165860176086426,-1.217022180557251,-0.1863791048526764,-1.1038647890090943,1.497225284576416,2.05989933013916],"l_hidden2OutputLayerWeights":[-4.608676910400391,-3.270216464996338,-0.8515865802764893,2.338984489440918,-4.65931510925293,4.3239922523498539,1.0526814460754395,2.8204379081726076,-2.485692024230957,1.4928432703018189,2.187377691268921,1.3980380296707154,0.040777385234832767,3.913740873336792,-4.478053092956543,3.8123018741607668,2.3917315006256105,-3.472252607345581,-2.936851739883423,-1.5191659927368165,-2.155519485473633,4.087036609649658],"l_hiddenLayersNeuronsBias":[0.0,0.0,0.0,0.0,0.0,0.0,0.0,0.0,0.0,0.0,0.0]},{"i_score":42,"l_input2HiddenLayerWeights":[-0.995571494102478,2.101194143295288,1.6928398609161378,-1.170682430267334,1.5913125276565552,4.374020576477051,2.98854398727417,4.5778422355651859,-4.176122188568115,2.5596494674682619,5.0,1.2476857900619507,1.2288235425949097,1.7153041362762452,1.689976692199707,-2.447047233581543,0.0012453794479370118,4.399003982543945,-0.21439304947853089,-1.5642863512039185,-3.621657371520996,3.3921384811401369,2.008855104446411,-0.291233628988266,-1.0138989686965943,-4.686446666717529,-0.6787652969360352,-0.9209662675857544,-0.2553926408290863,1.5902926921844483,-0.129465252161026,1.4287680387496949,-4.118228912353516,1.66550612449646,-1.5061664581298829,-0.24333229660987855,-0.147131085395813,1.9915918111801148,-1.197245717048645,5.0,-3.7201647758483888,-0.958889365196228,-2.2001936435699465,0.251708984375,4.424332141876221,-4.358983993530273,4.443223476409912,-5.0,-0.2565678358078003,-0.0017014741897583008,-0.5433257818222046,1.830578327178955,-1.4917188882827759,-2.709186553955078,0.4603022634983063,4.107892990112305,-3.977220058441162,2.25644850730896,4.093748092651367,4.0674824714660648,-2.510157823562622,0.013167083263397217,-1.7969999313354493,0.12213987857103348,-2.2027060985565187,-4.046792030334473,4.361555576324463,1.2633823156356812,-2.0600967407226564,-3.8323798179626467,2.7441563606262209,-1.9683642387390137,-3.121309280395508,3.304443597793579,-2.7850124835968019,3.06461238861084,-0.38097235560417178,1.1882438659667969,2.5519485473632814,-1.6053625345230103,-5.0,-3.918450355529785,2.763658285140991,2.6332573890686037,-1.0397220849990845,-3.762944221496582,-3.766648292541504,-2.2262210845947267,-0.6532644033432007,-2.6234917640686037,0.4976843297481537,1.3880771398544312,2.8267016410827638,3.2583231925964357,-2.650449514389038,2.9684104919433595,-4.7550950050354,-0.5370105504989624,4.071323394775391,3.1355161666870119,-1.2110041379928589,1.9702081680297852,-0.6989045143127441,-1.839369535446167,3.6577188968658449,-4.486780166625977,5.0,-0.7360925674438477,4.0929951667785648,2.359560012817383,4.0239105224609379,0.8701761960983276,-2.964341402053833,-1.4199175834655762,-0.8354036808013916,-1.6969558000564576,-1.0317646265029908,1.0909929275512696,-1.496554970741272,1.0817614793777466,2.7823069095611574],"l_hidden2OutputLayerWeights":[-5.0,-3.4915881156921388,-0.8800280094146729,2.4275269508361818,-4.999731540679932,3.6073923110961916,1.3300020694732667,1.5517672300338746,-0.8095297813415527,1.191734790802002,1.997001051902771,0.8298041820526123,0.23372027277946473,4.920219421386719,-3.5576839447021486,4.583645343780518,2.181934356689453,-2.585484027862549,-1.8138940334320069,-1.6193538904190064,-2.6003222465515138,-2.071667432785034],"l_hiddenLayersNeuronsBias":[0.0,0.0,0.0,0.0,0.0,0.0,0.0,0.0,0.0,0.0,0.0]},{"i_score":42,"l_input2HiddenLayerWeights":[1.0600979328155518,2.5402932167053224,1.442267894744873,-0.9262645244598389,0.33867835998535159,3.9808106422424318,3.155226945877075,4.728211402893066,-4.879556179046631,3.7355854511260988,5.0,1.3408408164978028,1.5637352466583253,1.0799461603164673,-0.10140478610992432,-2.345022201538086,0.5464434623718262,3.57878041267395,3.552549362182617,